year,species_code,sex,bias
1990,10110,0,-6.428384369489651e-4
1990,10110,1,-0.00807363021937134
1990,10110,2,-9.224490091081929e-4
1990,10110,3,-0.0038171364948114657
1990,10110,4,-6.838449076555786e-4
1990,10110,12,-0.00196188581884358
1990,10130,0,-0.0017002094153061556
1990,10130,1,-0.002844272975180821
1990,10130,2,-0.0016226705275818435
1990,10130,3,-0.004713780552873012
1990,10130,4,-8.526456980028492e-4
1990,10130,12,-0.0011781997763292186
1990,10180,0,-0.0030586800633389463
1990,10180,1,-0.012491334825704142
1990,10180,2,-0.006093484004380893
1990,10180,4,-0.0033482414011714898
1990,10180,12,-0.0044436617849555994
1990,10200,0,-0.003316346041062537
1990,10200,1,-0.011863799440912084
1990,10200,2,-0.005448523473350254
1990,10200,4,-0.0035864454525190276
1990,10200,12,-0.004533264932987388
1990,21720,0,-5.590316244340863e-5
1990,21720,1,-2.1290760219909574e-4
1990,21720,2,-9.797306179778845e-5
1990,21720,3,-0.32773186423475553
1990,21720,4,-4.9992684150865814e-5
1990,21720,12,-7.860496546383309e-5
1990,21740,0,-3.2331229485741986e-4
1990,21740,1,-4.1469964319911645e-4
1990,21740,2,-3.2767677308685056e-4
1990,21740,3,-1.8909531656045568e-4
1990,21740,4,-2.1940898899595063e-4
1990,21740,12,-1.828799487679078e-4
1990,30060,0,-1.5782324815807232e-4
1990,30060,1,-5.262181119958421e-4
1990,30060,2,-3.944779163828646e-4
1990,30060,3,-1.7900975480128202e-4
1990,30060,4,-1.4826710345942367e-4
1990,30060,12,-2.6475796539789396e-4
1990,30420,0,-0.0015299414692850847
1990,30420,1,-0.003741633384792095
1990,30420,2,-0.004069569692827362
1990,30420,4,-0.0016701247238434726
1990,30420,12,-0.0020031408379484394
1993,10110,0,-9.728334209721099e-5
1993,10110,1,-0.0016038702897020985
1993,10110,2,-6.934465495912595e-5
1993,10110,3,-0.0010355829774455548
1993,10110,4,-7.98945568746637e-5
1993,10110,12,-2.5028380355095615e-4
1993,10130,0,-0.0011788814500314603
1993,10130,1,-0.0014472397990324605
1993,10130,2,-0.004632836149827174
1993,10130,3,-0.007895575255476224
1993,10130,4,-0.0010368251124038405
1993,10130,12,-0.0016177016600274522
1993,10180,0,-0.001883190826608415
1993,10180,1,-0.004482585860465296
1993,10180,2,-0.0029720953468541558
1993,10180,3,-0.0014546042341008287
1993,10180,4,-0.0018965349036721424
1993,10180,12,-0.0019362658888072504
1993,10200,0,-0.0013979670506472355
1993,10200,1,-0.004469675342496403
1993,10200,2,-0.0018484389441228142
1993,10200,3,-0.0017017247066835222
1993,10200,4,-0.001133108142856321
1993,10200,12,-0.0014796939733469456
1993,21720,0,-5.348756318328011e-5
1993,21720,1,-1.7844492460540525e-4
1993,21720,2,-8.643569423096865e-5
1993,21720,3,-0.057119547349449795
1993,21720,4,-5.0059161298622153e-5
1993,21720,12,-6.3270256496197e-5
1993,21740,0,-2.9722027963191555e-4
1993,21740,1,-7.47652553593296e-4
1993,21740,2,-2.679383098362983e-4
1993,21740,3,-3.3665873334593686e-5
1993,21740,4,-2.316729364746789e-4
1993,21740,12,-2.352902420955547e-4
1993,30060,0,-1.5239191004091948e-4
1993,30060,1,-4.5327784894608826e-4
1993,30060,2,-6.341055803539413e-4
1993,30060,3,-8.860112826090688e-4
1993,30060,4,-1.5085664444633017e-4
1993,30060,12,-2.7286545024580105e-4
1993,30420,0,-0.0031380681176590695
1993,30420,1,-0.007256535960405939
1993,30420,2,-0.006181250369697718
1993,30420,4,-0.0026972196587477016
1993,30420,12,-0.003508470825497545
1996,10110,0,-2.386790025257765e-4
1996,10110,1,-0.0011132951679675858
1996,10110,2,-2.530161635574202e-4
1996,10110,3,-0.015452672905709973
1996,10110,4,-1.2443835943790489e-4
1996,10110,12,-2.661197871132675e-4
1996,10130,0,-2.283233752136281e-4
1996,10130,1,-2.0683345098321943e-4
1996,10130,2,-5.034515194330187e-4
1996,10130,3,-8.017928483616428e-4
1996,10130,4,-9.390032115087615e-5
1996,10130,12,-1.805585128409738e-4
1996,10180,0,-0.001132964385312495
1996,10180,1,-0.004334588470603589
1996,10180,2,-0.0019730831005277776
1996,10180,4,-0.0011497713367489338
1996,10180,12,-0.0016781683078023798
1996,10200,0,-0.001732630450201354
1996,10200,1,-0.004469865049630972
1996,10200,2,-0.004091881412824649
1996,10200,3,-0.023820695436135745
1996,10200,4,-0.0017851996566348991
1996,10200,12,-0.0023854696494765813
1996,10261,0,-0.0010210810409291041
1996,10261,1,-0.002578836821690243
1996,10261,2,-0.0018921843414007565
1996,10261,3,-0.011129612087172724
1996,10261,4,-8.96559751860946e-4
1996,10261,12,-0.0013021392451282793
1996,10262,0,-8.673245767344159e-4
1996,10262,1,-0.004921255764342323
1996,10262,2,-0.0021189096219386195
1996,10262,3,-0.0031830013407303463
1996,10262,4,-0.0016486873995135787
1996,10262,12,-0.0025802706330719793
1996,20510,0,-0.003687441045552169
1996,20510,1,-0.010248076089187234
1996,20510,2,-0.009285330623920817
1996,20510,3,-0.02305199393027481
1996,20510,4,-0.005754826575730364
1996,20510,12,-0.005291615859248625
1996,21720,0,-4.750800688045927e-5
1996,21720,1,-3.1209245499972093e-4
1996,21720,2,-1.6919419189028305e-4
1996,21720,3,-0.004750823575871396
1996,21720,4,-4.1425624056099105e-5
1996,21720,12,-1.1996916509807341e-4
1996,21740,0,-9.651260109598545e-5
1996,21740,1,-1.9999264186790986e-4
1996,21740,2,-3.5007980018252017e-4
1996,21740,3,-2.157838186800115e-4
1996,21740,4,-7.665061380044555e-5
1996,21740,12,-1.3458016285770175e-4
1996,30060,0,-8.710830753936948e-4
1996,30060,1,-0.0035516913573183395
1996,30060,2,-0.0014166014306891189
1996,30060,3,-0.05880859998918133
1996,30060,4,-7.155334412394409e-4
1996,30060,12,-0.0012365828318530187
1996,30420,0,-8.317793798285437e-4
1996,30420,1,-0.0017060918712433588
1996,30420,2,-0.0027323824545408154
1996,30420,3,-0.014996151992666113
1996,30420,4,-0.0010275586079677127
1996,30420,12,-0.0011260738563789612
1999,10110,0,-3.476705241465621e-4
1999,10110,1,-0.0016246750603352866
1999,10110,2,-7.262399160638401e-4
1999,10110,3,-6.723309013296494e-4
1999,10110,4,-5.110246102314583e-4
1999,10110,12,-5.787818643886262e-4
1999,10130,0,-3.512382263075578e-4
1999,10130,1,-2.4088328443522595e-4
1999,10130,2,-6.417262560018429e-4
1999,10130,3,-9.022606946123742e-4
1999,10130,4,-2.2625846237587342e-4
1999,10130,12,-2.101112287307121e-4
1999,10180,0,-9.321186488354051e-4
1999,10180,1,-0.0036781403214989025
1999,10180,2,-0.0026208645841279046
1999,10180,3,-0.0014067818614387463
1999,10180,4,-0.0010454642826088585
1999,10180,12,-0.0017101022808439829
1999,10200,0,-7.049085612223892e-4
1999,10200,1,-0.004262419649808221
1999,10200,2,-0.0026708305896447886
1999,10200,3,-0.03071078843424893
1999,10200,4,-6.973079311899729e-4
1999,10200,12,-0.0017193755104699434
1999,10261,0,-8.024252943367364e-4
1999,10261,1,-0.003140186715883787
1999,10261,2,-0.001500894858116352
1999,10261,3,-0.017563248757211446
1999,10261,4,-8.794841789859506e-4
1999,10261,12,-0.0011501843224699306
1999,10262,0,-8.127838457825589e-4
1999,10262,1,-0.008240840770229066
1999,10262,2,-0.0011557941628182612
1999,10262,3,-0.002002780230964314
1999,10262,4,-8.80765209497962e-4
1999,10262,12,-0.002507117881122299
1999,20510,0,-0.00584839447574015
1999,20510,1,-0.012562531456554053
1999,20510,2,-0.011002645939383037
1999,20510,4,-0.00647028319312397
1999,20510,12,-0.006741572729745617
1999,21720,0,-2.3944443009824132e-4
1999,21720,1,-5.875121491376032e-4
1999,21720,2,-3.037118423417739e-4
1999,21720,3,-0.012816140000856586
1999,21720,4,-1.9755429072582318e-4
1999,21720,12,-2.125913342635787e-4
1999,21740,0,-1.3868907382064507e-4
1999,21740,1,-6.418742505292576e-4
1999,21740,2,-4.252074415525682e-4
1999,21740,3,-2.5478291958128354e-5
1999,21740,4,-1.314055995046118e-4
1999,21740,12,-2.6201663562580476e-4
1999,30060,0,-7.223393076703507e-4
1999,30060,1,-4.689312821684743e-4
1999,30060,2,-0.002730042428580125
1999,30060,3,-0.005948880813369852
1999,30060,4,-6.722264495794389e-4
1999,30060,12,-8.602915223781679e-4
1999,30420,0,-0.002414041100303552
1999,30420,1,-0.004706437081823427
1999,30420,2,-0.006199696870417411
1999,30420,3,-0.6980483502242659
1999,30420,4,-0.0023040169163455844
1999,30420,12,-0.0027579747671214907
2001,10110,0,-8.741802069752633e-5
2001,10110,1,-4.669387210200361e-4
2001,10110,2,-1.1298811505153565e-4
2001,10110,3,-0.29344039021986235
2001,10110,4,-8.13236015114304e-5
2001,10110,12,-1.8496687066208548e-4
2001,10130,0,-3.3378423068432684e-4
2001,10130,1,-7.767116754923236e-4
2001,10130,2,-5.873162369879293e-4
2001,10130,3,-0.02464001358169475
2001,10130,4,-2.8193177637536446e-4
2001,10130,12,-3.464050661971128e-4
2001,10180,0,-5.325635937836838e-4
2001,10180,1,-0.0023423677111747607
2001,10180,2,-0.001205013457618469
2001,10180,4,-6.276290214325324e-4
2001,10180,12,-8.769456615183168e-4
2001,10200,0,-2.0647996635584856e-4
2001,10200,1,-5.841944806651563e-4
2001,10200,2,-6.122671773979121e-4
2001,10200,4,-2.0555634357659146e-4
2001,10200,12,-2.876795357786393e-4
2001,10261,0,-5.473516078490006e-4
2001,10261,1,-0.0015227119759430557
2001,10261,2,-0.0012856747025466186
2001,10261,3,-0.028898789920930736
2001,10261,4,-5.404217817997981e-4
2001,10261,12,-8.276634538954332e-4
2001,10262,0,-3.35458119730395e-4
2001,10262,1,-7.100814500640703e-4
2001,10262,2,-4.0794395172411864e-4
2001,10262,3,-0.015777885356087474
2001,10262,4,-2.8635535709797214e-4
2001,10262,12,-2.50169493503544e-4
2001,21720,0,-4.863155810074461e-5
2001,21720,1,-2.9304490070556033e-4
2001,21720,2,-1.0288725117002067e-4
2001,21720,3,-0.08937875204101653
2001,21720,4,-5.386411695951154e-5
2001,21720,12,-1.0875534875523961e-4
2001,21740,0,-2.133747829005877e-4
2001,21740,1,-5.316863836617044e-4
2001,21740,2,-6.913568369661514e-4
2001,21740,3,-4.76782861124848e-5
2001,21740,4,-2.176541765484099e-4
2001,21740,12,-3.479185801564503e-4
2001,30420,0,-0.00123916115808126
2001,30420,1,-0.002891040730921175
2001,30420,2,-0.0037411378468999294
2001,30420,3,-0.5904650138710863
2001,30420,4,-0.0012280209204203988
2001,30420,12,-0.0017571996950199076
2003,10110,0,-6.130446334901453e-5
2003,10110,1,-6.688853671118114e-4
2003,10110,2,-7.193706802378803e-5
2003,10110,3,-2.3084555175284776e-4
2003,10110,4,-5.294157533823964e-5
2003,10110,12,-1.879654479653335e-4
2003,10130,0,-4.372194925778279e-4
2003,10130,1,-9.340270261640121e-4
2003,10130,2,-2.752622943223852e-4
2003,10130,3,-0.038757893442794907
2003,10130,4,-2.3591617016613086e-4
2003,10130,12,-2.9591706681786676e-4
2003,10180,0,-3.1802042087650267e-4
2003,10180,1,-0.001752392446733964
2003,10180,2,-7.767841087182947e-4
2003,10180,3,-0.0020620718968454095
2003,10180,4,-3.669588576187471e-4
2003,10180,12,-6.348326351322856e-4
2003,10200,0,-2.3410924870845295e-4
2003,10200,1,-0.0012091875408118092
2003,10200,2,-1.713807226395973e-4
2003,10200,3,-0.005921309436296449
2003,10200,4,-2.0428955284957826e-4
2003,10200,12,-3.6123208427010843e-4
2003,10261,0,-3.527823098440797e-4
2003,10261,1,-0.0012617973025442957
2003,10261,2,-3.723478605649605e-4
2003,10261,4,-2.5593486711644937e-4
2003,10261,12,-4.266720599277608e-4
2003,10262,0,-2.543406865495644e-4
2003,10262,1,-7.368989719861289e-4
2003,10262,2,-3.6680099642267215e-4
2003,10262,3,-0.017536263177389697
2003,10262,4,-0.00026035488689743643
2003,10262,12,-2.6444972252329487e-4
2003,21720,0,-1.4658302343524904e-4
2003,21720,1,-8.412829904690035e-4
2003,21720,2,-3.5782283227445854e-4
2003,21720,3,-0.10697184584324254
2003,21720,4,-1.4658126186670067e-4
2003,21720,12,-3.051300369236235e-4
2003,21740,0,-3.884368974116244e-4
2003,21740,1,-7.277467411275352e-4
2003,21740,2,-6.845757705649842e-4
2003,21740,3,-0.004932258113847468
2003,21740,4,-4.3588534506598783e-4
2003,21740,12,-3.523129058239877e-4
2003,30060,0,-0.0012707707336342543
2003,30060,1,-0.0021596780794156667
2003,30060,2,-0.002771867358129753
2003,30060,3,-4.622911535951853e-4
2003,30060,4,-0.0011551854763498996
2003,30060,12,-0.0012392658796535015
2003,30420,0,-0.00894539762836111
2003,30420,1,-0.01665532982590609
2003,30420,2,-0.01803308369868704
2003,30420,4,-0.008953469571105013
2003,30420,12,-0.008825088332788887
2005,10110,0,-1.127704489798766e-4
2005,10110,1,-3.308864395725528e-4
2005,10110,2,-1.666924429111101e-4
2005,10110,3,-3.421070996226508e-4
2005,10110,4,-1.17673526007104e-4
2005,10110,12,-1.403638209013689e-4
2005,10130,0,-2.6786336379545315e-4
2005,10130,1,-6.498002110362706e-4
2005,10130,2,-9.12667560495422e-4
2005,10130,3,-0.00929147916419686
2005,10130,4,-3.7327801561912497e-4
2005,10130,12,-4.743029291151351e-4
2005,10180,0,-2.5629073290712843e-4
2005,10180,1,-9.18943643229611e-4
2005,10180,2,-6.020482978970876e-4
2005,10180,4,-3.03925218252218e-4
2005,10180,12,-3.8766356164657073e-4
2005,10200,0,-6.190292692420863e-4
2005,10200,1,-0.0014707242116306217
2005,10200,2,-7.083751113909105e-4
2005,10200,3,-0.01608305996544707
2005,10200,4,-7.007155170532548e-4
2005,10200,12,-5.437851038073698e-4
2005,10261,0,-6.255775231568549e-4
2005,10261,1,-0.0018290305174192864
2005,10261,2,-0.0011891425231926292
2005,10261,4,-5.300164473774663e-4
2005,10261,12,-9.081762756351725e-4
2005,10262,0,-5.984466079827935e-4
2005,10262,1,-0.002153860005032682
2005,10262,2,-4.920540621220061e-4
2005,10262,4,-3.936252687337977e-4
2005,10262,12,-7.408072289641753e-4
2005,21720,0,-2.197909640537028e-4
2005,21720,1,-9.547103077277454e-4
2005,21720,2,-3.562925287588421e-4
2005,21720,3,-0.054113452053372965
2005,21720,4,-1.7404352713312797e-4
2005,21720,12,-2.8166934557582616e-4
2005,21740,0,-2.956291161814226e-4
2005,21740,1,-9.70166587316779e-4
2005,21740,2,-8.35396443233905e-4
2005,21740,3,-9.46018753318518e-5
2005,21740,4,-3.3123217834481053e-4
2005,21740,12,-4.6306068389176424e-4
2005,30060,0,-6.230132234224616e-4
2005,30060,1,-8.71406402300673e-4
2005,30060,2,-0.0017888910113014061
2005,30060,3,-0.0048132761551220845
2005,30060,4,-5.44912693581424e-4
2005,30060,12,-6.588582688963141e-4
2005,30420,0,-0.0012013158828298061
2005,30420,1,-0.003358390919176272
2005,30420,2,-0.0018629796452619002
2005,30420,3,-0.2505095801145587
2005,30420,4,-0.0011136052620866778
2005,30420,12,-0.001380477752265225
2007,10110,0,-1.8301877283355674e-4
2007,10110,1,-4.677517225417796e-4
2007,10110,2,-1.1638610422557559e-4
2007,10110,3,-0.0017479188175474362
2007,10110,4,-8.605436024653514e-5
2007,10110,12,-1.2594604217727997e-4
2007,10130,0,-1.3616269024473713e-4
2007,10130,1,-8.998587860258831e-4
2007,10130,2,-3.464154969535115e-4
2007,10130,3,-0.009913810257878616
2007,10130,4,-1.3003465937994803e-4
2007,10130,12,-3.0675343707716124e-4
2007,10180,0,-5.052981059750456e-4
2007,10180,1,-0.0017628832498528453
2007,10180,2,-8.151557661996945e-4
2007,10180,3,-0.06514449550510286
2007,10180,4,-5.825794333188172e-4
2007,10180,12,-6.674529317494878e-4
2007,10200,0,-5.565621893410239e-4
2007,10200,1,-0.0024773302921197813
2007,10200,2,-0.0017268588982007067
2007,10200,3,-0.0024185909698543314
2007,10200,4,-6.012454019562752e-4
2007,10200,12,-0.0011355985328600307
2007,10261,0,-6.568148157542699e-4
2007,10261,1,-7.29843795965224e-4
2007,10261,2,-0.0011864323759180693
2007,10261,3,-0.0022480677182608673
2007,10261,4,-7.039312793048166e-4
2007,10261,12,-6.327554382097348e-4
2007,10262,0,-7.786627003950869e-4
2007,10262,1,-0.002426799564031656
2007,10262,2,-0.0011681761525305606
2007,10262,3,-0.0012763613815586377
2007,10262,4,-8.544504540140308e-4
2007,10262,12,-9.87848348485356e-4
2007,21720,0,-2.3854601196115132e-4
2007,21720,1,-7.497848134656236e-4
2007,21720,2,-1.2600197567543236e-4
2007,21720,3,-0.007864635766861952
2007,21720,4,-1.716567683741285e-4
2007,21720,12,-2.000065612896775e-4
2007,21740,0,-2.613058809121445e-4
2007,21740,1,-5.00985069154224e-4
2007,21740,2,-4.1649795537470626e-4
2007,21740,3,-2.5467955094138426e-5
2007,21740,4,-2.3641959201870633e-4
2007,21740,12,-2.2813700205706925e-4
2007,30060,0,-9.757158504315967e-4
2007,30060,1,-0.0023485652779459834
2007,30060,2,-0.0012011017333921385
2007,30060,3,-0.002491256771604683
2007,30060,4,-9.793567014758397e-4
2007,30060,12,-8.931757920958146e-4
2007,30420,0,-6.243221365791082e-4
2007,30420,1,-0.00221584312268056
2007,30420,2,-0.0010818770619852637
2007,30420,4,-7.03044816147065e-4
2007,30420,12,-8.771081182118622e-4
2009,10110,0,-1.3094422193675933e-4
2009,10110,1,-0.001317499724197387
2009,10110,2,-1.3574107726160896e-4
2009,10110,3,-0.005275573479805259
2009,10110,4,-9.454611893068221e-5
2009,10110,12,-3.4895287444296094e-4
2009,10130,0,-2.6099406924695714e-4
2009,10130,1,-8.687706062831315e-4
2009,10130,2,-8.069890130628219e-4
2009,10130,3,-3.845197091725658e-4
2009,10130,4,-2.1116855553749575e-4
2009,10130,12,-4.360987978511362e-4
2009,10180,0,-2.045935149547366e-4
2009,10180,1,-0.0014217790172963327
2009,10180,2,-5.662844016256877e-4
2009,10180,3,-0.019376585614374945
2009,10180,4,-1.952431728060594e-4
2009,10180,12,-5.197116026025554e-4
2009,10200,0,-5.489279592936428e-4
2009,10200,1,-0.0018795227109470512
2009,10200,2,-0.0017927907239283208
2009,10200,3,-0.011300767678101961
2009,10200,4,-4.6858707596223907e-4
2009,10200,12,-9.607622310880814e-4
2009,10261,0,-5.485598139441647e-4
2009,10261,1,-9.82901575548666e-4
2009,10261,2,-0.0010572769688522651
2009,10261,3,-0.0034081945174029267
2009,10261,4,-5.479793712028662e-4
2009,10261,12,-5.36291762339918e-4
2009,10262,0,-2.981604536546625e-4
2009,10262,1,-4.0628056728202715e-4
2009,10262,2,-6.578469327386721e-4
2009,10262,4,-2.688898896204987e-4
2009,10262,12,-3.3778201531188215e-4
2009,21720,0,-3.3743479819730584e-5
2009,21720,1,-2.747906271223117e-4
2009,21720,2,-1.18679421508185e-4
2009,21720,3,-1.216371942481533e-5
2009,21720,4,-5.0457045884467946e-5
2009,21720,12,-9.263271196420277e-5
2009,21740,0,-2.475190974814369e-4
2009,21740,1,-5.337898179125093e-4
2009,21740,2,-4.898199722462229e-4
2009,21740,3,-5.104172821314611e-6
2009,21740,4,-2.506869734862501e-4
2009,21740,12,-2.54914375288376e-4
2009,30060,0,-9.111438066637558e-4
2009,30060,1,-0.0028378605889917106
2009,30060,2,-0.002102938788640221
2009,30060,3,-0.01224644087547389
2009,30060,4,-6.326590968540697e-4
2009,30060,12,-0.0012975280193412715
2009,30420,0,-2.4203805541859563e-4
2009,30420,1,-9.488988482131187e-4
2009,30420,2,-5.688485896545088e-4
2009,30420,4,-2.67420215269055e-4
2009,30420,12,-4.152444598965578e-4
2011,10110,0,-2.993616456345656e-4
2011,10110,1,-1.0791782677122421e-4
2011,10110,2,-4.339030860143052e-5
2011,10110,3,-0.0017398873761708211
2011,10110,4,-3.980879021994084e-5
2011,10110,12,-3.238573231721071e-5
2011,10130,0,-4.263062063542597e-4
2011,10130,1,-8.879166156315955e-4
2011,10130,2,-3.030646952108307e-4
2011,10130,3,-0.048792857166096014
2011,10130,4,-3.048875940115346e-4
2011,10130,12,-3.16462802877497e-4
2011,10180,0,-3.865757308169757e-4
2011,10180,1,-0.0015227098627624515
2011,10180,2,-0.0020043471807702925
2011,10180,3,-6.233038061071713e-4
2011,10180,4,-3.651389569728576e-4
2011,10180,12,-8.223140487279643e-4
2011,10200,0,-4.7698321284566324e-4
2011,10200,1,-0.0024082236716854452
2011,10200,2,-9.932293075558044e-4
2011,10200,3,-0.00270754923792349
2011,10200,4,-4.548229573472262e-4
2011,10200,12,-7.866545383744217e-4
2011,10261,0,-6.615274626605551e-4
2011,10261,1,-9.084298961730595e-4
2011,10261,2,-0.0012857492823320135
2011,10261,3,-0.0979488970722654
2011,10261,4,-7.604624382865365e-4
2011,10261,12,-6.920499766298336e-4
2011,10262,0,-1.3910892897773278e-4
2011,10262,1,-0.001701338139561186
2011,10262,2,-1.859908606796631e-4
2011,10262,3,-0.004978764117407201
2011,10262,4,-1.358208604605234e-4
2011,10262,12,-5.961008752380246e-4
2011,21720,0,-8.326031338465664e-5
2011,21720,1,-2.724427647082312e-4
2011,21720,2,-1.1743043772445216e-4
2011,21720,3,-0.020526938713170566
2011,21720,4,-7.574367437991803e-5
2011,21720,12,-9.619695357417355e-5
2011,21740,0,-4.677048849943776e-4
2011,21740,1,-8.797174778460582e-4
2011,21740,2,-7.835252082826713e-4
2011,21740,3,-2.1497741476848297e-4
2011,21740,4,-4.806516097717415e-4
2011,21740,12,-4.177030643983898e-4
2011,30060,0,-9.887627554261056e-4
2011,30060,1,-0.001784257254175159
2011,30060,2,-0.0026889154175881343
2011,30060,3,-0.0015381159383455539
2011,30060,4,-9.798013861027654e-4
2011,30060,12,-0.0011041250825294658
2011,30420,0,-6.59951856750541e-4
2011,30420,1,-0.0019136831581393911
2011,30420,2,-0.0017653516191018653
2011,30420,3,-0.019856383567888797
2011,30420,4,-6.827457916074919e-4
2011,30420,12,-9.16506975449989e-4
2013,10110,0,-1.1716299911149982e-4
2013,10110,1,-5.025170445076245e-4
2013,10110,2,-4.7084665580516915e-5
2013,10110,3,-0.026288315700304488
2013,10110,4,-4.7140205423081614e-5
2013,10110,12,-1.0596598590278726e-4
2013,10130,0,-2.328080486369244e-4
2013,10130,1,-4.995522999626573e-4
2013,10130,2,-3.026603693835889e-4
2013,10130,3,-5.005110534938054e-4
2013,10130,4,-1.7024795619714937e-4
2013,10130,12,-1.9579715252593044e-4
2013,10180,0,-3.6491577230054475e-4
2013,10180,1,-0.0015492918499646173
2013,10180,2,-0.0026446180419665076
2013,10180,4,-3.91924077642041e-4
2013,10180,12,-0.0010797526891412727
2013,10200,0,-3.0321023676602464e-4
2013,10200,1,-0.0018764172623591036
2013,10200,2,-0.0011336134943763399
2013,10200,3,-0.04422614354055864
2013,10200,4,-2.922607928294727e-4
2013,10200,12,-7.139291487561021e-4
2013,10261,0,-4.8701965348030117e-4
2013,10261,1,-8.873134184728609e-4
2013,10261,2,-6.068816422394295e-4
2013,10261,4,-2.5225742775135184e-4
2013,10261,12,-4.4728037489768314e-4
2013,10262,0,-3.4287323379914546e-4
2013,10262,1,-6.91989298098937e-4
2013,10262,2,-6.546021962384307e-4
2013,10262,4,-4.4904960902602105e-4
2013,10262,12,-3.9405679823088276e-4
2013,21720,0,-3.4771950178728064e-4
2013,21720,1,-6.013252066719192e-4
2013,21720,2,-4.48415276609667e-4
2013,21720,3,-0.0028353470754565006
2013,21720,4,-3.364432887548555e-4
2013,21720,12,-2.6113186013930196e-4
2013,21740,0,-1.572193006064364e-4
2013,21740,1,-2.516781928948299e-4
2013,21740,2,-2.68730416024031e-4
2013,21740,3,-1.2139140591573412e-4
2013,21740,4,-1.3822511980714021e-4
2013,21740,12,-1.3633131626620377e-4
2013,30060,0,-7.15763642948759e-4
2013,30060,1,-0.0022214256413335266
2013,30060,2,-0.0010581279731109458
2013,30060,3,-0.005311183523105658
2013,30060,4,-7.060610228360765e-4
2013,30060,12,-8.18954679464333e-4
2013,30420,0,-5.373526367169328e-4
2013,30420,1,-0.0012438583739759561
2013,30420,2,-0.0010740370836591101
2013,30420,4,-4.8292207270187257e-4
2013,30420,12,-5.784794141433712e-4
2015,10110,0,-8.447476920157969e-5
2015,10110,1,-0.0010220909935786
2015,10110,2,-1.0157129182971502e-4
2015,10110,3,-0.003455953845379603
2015,10110,4,-7.30752022152865e-5
2015,10110,12,-2.0071008221735884e-4
2015,10130,0,-2.6178431437934714e-4
2015,10130,1,-0.0011140943026549726
2015,10130,2,-2.764125590672338e-4
2015,10130,3,-0.07487782904224492
2015,10130,4,-1.7146432025296978e-4
2015,10130,12,-3.66883529263911e-4
2015,10180,0,-7.425575815736045e-4
2015,10180,1,-0.0046543113950872125
2015,10180,2,-0.0017361670300775987
2015,10180,3,-0.002758350439673161
2015,10180,4,-7.711073055454129e-4
2015,10180,12,-0.001578644519271441
2015,10200,0,-0.0019149406343297699
2015,10200,1,-0.0067068009551459855
2015,10200,2,-0.004273941380050458
2015,10200,4,-0.001838109288013998
2015,10200,12,-0.002961294731464357
2015,10261,0,-2.6938662757299974e-4
2015,10261,1,-6.363935092484418e-4
2015,10261,2,-4.134920017478437e-4
2015,10261,3,-0.0280971479331939
2015,10261,4,-2.3393395922677716e-4
2015,10261,12,-3.1727281005001644e-4
2015,10262,0,-3.2622913759477773e-4
2015,10262,1,-0.0016408893848324703
2015,10262,2,-4.6512892935102423e-4
2015,10262,4,-3.345408365435591e-4
2015,10262,12,-7.843874535357491e-4
2015,21720,0,-7.111033146902802e-5
2015,21720,1,-2.2329653219409386e-4
2015,21720,2,-2.46840612301908e-4
2015,21720,3,-0.12730186522372366
2015,21720,4,-1.3686328164048527e-4
2015,21720,12,-1.2351357123419906e-4
2015,21740,0,-4.501691016054685e-4
2015,21740,1,-8.259960295257262e-4
2015,21740,2,-3.7270299194404013e-4
2015,21740,3,-0.005610133527093275
2015,21740,4,-2.0143602605624032e-4
2015,21740,12,-2.824615206059809e-4
2015,30060,0,-3.212648547727432e-4
2015,30060,1,-3.5402540632115267e-4
2015,30060,2,-8.837785051649182e-4
2015,30060,3,-8.807821607488083e-4
2015,30060,4,-2.297559288089963e-4
2015,30060,12,-3.119192369052559e-4
2015,30420,0,-5.907281590591466e-4
2015,30420,1,-0.0029368460211444147
2015,30420,2,-0.0011879535219608821
2015,30420,4,-5.3563823776058e-4
2015,30420,12,-0.0010159290885704156
2017,10110,0,-1.5450574236947455e-4
2017,10110,1,-8.129977761789333e-4
2017,10110,2,-1.959316129488535e-4
2017,10110,3,-0.002602827256646878
2017,10110,4,-1.3860571590402956e-4
2017,10110,12,-2.7015044782628217e-4
2017,10130,0,-0.0016338418260768853
2017,10130,1,-0.005408619888551476
2017,10130,2,-0.002579356450343789
2017,10130,3,-0.0167750877744503
2017,10130,4,-0.001405032712858534
2017,10130,12,-0.0021555763264787505
2017,10180,0,-6.867120219364233e-4
2017,10180,1,-0.0031597829126808977
2017,10180,2,-0.004210559497044303
2017,10180,4,-6.765411559091926e-4
2017,10180,12,-0.0018843321805321923
2017,10200,0,-6.153030253757794e-4
2017,10200,1,-0.0021344398878245198
2017,10200,2,-0.0016486931575600639
2017,10200,3,-5.791004948722931e-4
2017,10200,4,-7.184786286471837e-4
2017,10200,12,-9.201045680952793e-4
2017,10261,0,-2.2301577236711283e-4
2017,10261,1,-7.960816315880059e-4
2017,10261,2,-3.384869019384031e-4
2017,10261,3,-0.0017466846685479456
2017,10261,4,-1.5606297788201912e-4
2017,10261,12,-4.268432470858614e-4
2017,10262,0,-2.6729589441133495e-4
2017,10262,1,-2.5071042870448e-4
2017,10262,2,-3.6686026409138444e-4
2017,10262,4,-2.4418515709470666e-4
2017,10262,12,-2.5901607734430554e-4
2017,21720,0,-8.623490442140086e-4
2017,21720,1,-0.002403260861717114
2017,21720,2,-0.001314759031641385
2017,21720,3,-0.10471781190712696
2017,21720,4,-7.738287208521307e-4
2017,21720,12,-9.227023896363741e-4
2017,21740,0,-6.190794503919112e-4
2017,21740,1,-4.1007106944090336e-4
2017,21740,2,-5.594412088478894e-4
2017,21740,3,-5.690991340718112e-6
2017,21740,4,-1.0977818038250965e-4
2017,21740,12,-2.742128758367425e-4
2017,30060,0,-3.1304894183158924e-4
2017,30060,1,-4.824618686407045e-4
2017,30060,2,-6.457100729920308e-4
2017,30060,3,-6.993716006849505e-4
2017,30060,4,-2.6080501237502984e-4
2017,30060,12,-2.9026913489501173e-4
2017,30420,0,-7.286437757391908e-4
2017,30420,1,-0.002425020637713796
2017,30420,2,-0.001812069528078136
2017,30420,4,-8.099265184760641e-4
2017,30420,12,-0.0010555809926668513
2019,10110,0,-1.2595087526805711e-4
2019,10110,1,-0.0010654824172422748
2019,10110,2,-2.0969900118691568e-4
2019,10110,3,-0.01337929994794545
2019,10110,4,-1.3382653676150344e-4
2019,10110,12,-2.7172436107962257e-4
2019,10130,0,-0.001524517576251838
2019,10130,1,-0.0036832410900396666
2019,10130,2,-0.0036515910243840643
2019,10130,3,-0.005724917551547591
2019,10130,4,-0.001610413304483106
2019,10130,12,-0.0018079891921686294
2019,10180,0,-6.100551528042203e-4
2019,10180,1,-0.001813541293401077
2019,10180,2,-0.0029851836488396324
2019,10180,3,-0.004378613376690043
2019,10180,4,-6.698763995696399e-4
2019,10180,12,-0.001164968057963747
2019,10200,0,-5.509711198241805e-4
2019,10200,1,-0.0013720487813331135
2019,10200,2,-0.0016278591454791521
2019,10200,3,-0.019206765003625666
2019,10200,4,-5.16261646826796e-4
2019,10200,12,-7.139041124352352e-4
2019,10262,0,-1.3646534869711505e-4
2019,10262,1,-8.954195903029733e-4
2019,10262,2,-2.1887461755667036e-4
2019,10262,3,-0.025772243448297125
2019,10262,4,-9.24896990298048e-5
2019,10262,12,-3.628630490505876e-4
2019,21720,0,-2.5676375081647255e-4
2019,21720,1,-0.0010801082612971239
2019,21720,2,-5.648626240439737e-4
2019,21720,3,-0.28975808575878526
2019,21720,4,-3.4547985356760277e-4
2019,21720,12,-4.195392254536541e-4
2019,21740,0,-4.152099314252144e-4
2019,21740,1,-0.0017012640587729174
2019,21740,2,-9.218803228899965e-4
2019,21740,3,-4.993406633768467e-5
2019,21740,4,-5.456017686596979e-4
2019,21740,12,-6.504549356895651e-4
2019,30060,0,-2.732830934603216e-4
2019,30060,1,-5.092563021283666e-4
2019,30060,2,-7.817002354863845e-4
2019,30060,3,-6.743797453351936e-5
2019,30060,4,-2.618823770600104e-4
2019,30060,12,-3.3633665459670064e-4
2019,30420,0,-5.01901512500054e-4
2019,30420,1,-0.0024114999666830918
2019,30420,2,-0.0012158375187816695
2019,30420,3,-0.7398449664827418
2019,30420,4,-6.029973525765958e-4
2019,30420,12,-8.959760292867069e-4
2021,10110,0,-2.0546064752715196e-4
2021,10110,1,-7.38893791327833e-4
2021,10110,2,-2.4087560087361886e-4
2021,10110,3,-0.07455014682464264
2021,10110,4,-1.654319745756955e-4
2021,10110,12,-1.8601555457139173e-4
2021,10130,0,-0.002117910341449782
2021,10130,1,-0.006158503504609841
2021,10130,2,-0.004776106314690307
2021,10130,3,-0.5807166942089721
2021,10130,4,-0.002338596705737843
2021,10130,12,-0.002719031105559984
2021,10180,0,-0.0011260032386532478
2021,10180,1,-0.002514993853570815
2021,10180,2,-0.0038763093318786206
2021,10180,3,-0.015129144617951836
2021,10180,4,-0.0011368252582231646
2021,10180,12,-0.0015903044347164521
2021,10262,0,-1.111824272945468e-4
2021,10262,1,-2.9230834671899577e-4
2021,10262,2,-1.651709636026034e-4
2021,10262,4,-9.913305096530145e-5
2021,10262,12,-1.9349595402630665e-4
2021,21720,0,-2.5963589742324957e-4
2021,21720,1,-7.446660836438983e-4
2021,21720,2,-6.392082797726418e-4
2021,21720,4,-2.931034489235916e-4
2021,21720,12,-3.5203005503465335e-4
2021,21740,0,-3.8424877825991925e-4
2021,21740,1,-8.10131346987803e-4
2021,21740,2,-4.7198392278290736e-4
2021,21740,3,-8.535764216080964e-5
2021,21740,4,-4.3177037731179454e-4
2021,21740,12,-3.148545102090575e-4
2021,30060,0,-3.2648840425284224e-4
2021,30060,1,-6.537762596318934e-4
2021,30060,2,-3.266057544524539e-4
2021,30060,3,-0.0019970405258101305
2021,30060,4,-2.856031548744296e-4
2021,30060,12,-2.4911116959802355e-4
2021,30420,0,-3.1078878822296215e-4
2021,30420,1,-7.484581799386437e-4
2021,30420,2,-7.962822583887022e-4
2021,30420,4,-3.0958516346259055e-4
2021,30420,12,-3.876895588666676e-4
