year,species_code,sex,bias
1982,10110,0,-0.0029149098534352966
1982,10110,1,-0.0029780406506400878
1982,10110,2,-0.0081070336470413
1982,10110,3,-0.04675046112475098
1982,10110,4,-0.003080792692313198
1982,10110,12,-0.0028658879162970943
1982,10115,0,-0.004656736947847159
1982,10115,1,-0.00445061053210572
1982,10115,2,-0.0084687030826525
1982,10115,3,-0.06096810822322908
1982,10115,4,-0.004885522978559644
1982,10115,12,-0.003332050026678694
1982,10130,0,-0.0017473933617266338
1982,10130,1,-0.0031218723744687294
1982,10130,2,-0.0017915586524774906
1982,10130,3,-5.80623868139913e-5
1982,10130,4,-0.0013671604812464289
1982,10130,12,-0.0013374047523712733
1982,10210,0,-1.3442657645182507e-4
1982,10210,1,-3.2144006971200753e-4
1982,10210,2,-2.657299494855651e-4
1982,10210,3,-0.04881449603434037
1982,10210,4,-1.2420650276515982e-4
1982,10210,12,-1.6676997435979843e-4
1982,10285,0,-3.802064578460052e-4
1982,10285,1,-0.010625054074067608
1982,10285,2,-8.067158076125512e-4
1982,10285,4,-3.7625066491680457e-4
1982,10285,12,-0.002481680548529345
1982,21740,0,-8.093014237811815e-6
1982,21740,1,-3.7528131060850605e-5
1982,21740,2,-1.713893919367819e-5
1982,21740,3,-1.2893126064395611e-4
1982,21740,4,-7.98964301630308e-6
1982,21740,12,-1.4470166802081596e-5
1983,10210,0,-3.582137618459165e-4
1983,10210,1,-9.590210743853221e-4
1983,10210,2,-3.3786484049603014e-4
1983,10210,3,-8.308478805939214e-4
1983,10210,4,-2.527998441565494e-4
1983,10210,12,-3.08826655430916e-4
1983,21740,0,-1.2948289617230001e-5
1983,21740,1,-5.825138454814051e-5
1983,21740,2,-3.017843585304106e-5
1983,21740,3,-2.6454126038704355e-4
1983,21740,4,-1.2112498351478387e-5
1983,21740,12,-2.2899774367636354e-5
1984,10210,0,-2.4371052523275853e-4
1984,10210,1,-6.662096854091185e-4
1984,10210,2,-2.6152969838257316e-4
1984,10210,3,-0.021173585758052636
1984,10210,4,-1.9064742566603742e-4
1984,10210,12,-2.137326126904288e-4
1984,21720,0,-7.501707386594124e-4
1984,21720,1,-9.356114869271337e-4
1984,21720,2,-0.003590487953105934
1984,21720,3,-0.004769220990145753
1984,21720,4,-6.603014904753126e-4
1984,21720,12,-0.0010257828911124458
1984,21740,0,-1.2979475861385473e-5
1984,21740,1,-6.158046212029666e-5
1984,21740,2,-2.9018897862659546e-5
1984,21740,3,-4.779596329942213e-4
1984,21740,4,-1.844396582023174e-5
1984,21740,12,-2.176977861610745e-5
1985,10130,0,-4.2380814748917725e-4
1985,10130,1,-0.0028343108283324456
1985,10130,2,-5.761742432106665e-4
1985,10130,4,-3.1824538520475637e-4
1985,10130,12,-7.427276247462663e-4
1985,10210,0,-3.0866437742197307e-4
1985,10210,1,-6.107115439024423e-4
1985,10210,2,-4.00826559451072e-4
1985,10210,4,-2.402129735382818e-4
1985,10210,12,-2.5297347608577544e-4
1985,21740,0,-2.654295528172904e-5
1985,21740,1,-9.933495782885647e-5
1985,21740,2,-4.1703577079351045e-5
1985,21740,3,-7.847320528042069e-6
1985,21740,4,-1.3805223919430677e-5
1985,21740,12,-3.4214151743747214e-5
1986,10210,0,-6.028147093360872e-4
1986,10210,1,-0.0017367786155500834
1986,10210,2,-7.818389597149629e-4
1986,10210,4,-5.776844968898377e-4
1986,10210,12,-5.982701244037206e-4
1986,21740,0,-4.6807137056741025e-5
1986,21740,1,-6.059737973899375e-5
1986,21740,2,-2.3102606439754988e-4
1986,21740,3,-1.6883067297464863e-4
1986,21740,4,-4.082383764330455e-5
1986,21740,12,-6.36887308509721e-5
1987,10210,0,-9.117507841792078e-4
1987,10210,1,-0.0018843155919986152
1987,10210,2,-0.0012785330208594224
1987,10210,4,-7.749506581841412e-4
1987,10210,12,-7.838424129203139e-4
1987,21740,0,-3.1333165438987304e-5
1987,21740,1,-5.638472265098588e-5
1987,21740,2,-5.807681719788637e-5
1987,21740,3,-2.7351436274411863e-4
1987,21740,4,-3.1084130402036e-5
1987,21740,12,-2.863847143761634e-5
1988,10210,0,-2.8358166340900355e-4
1988,10210,1,-0.002021515374441688
1988,10210,2,-4.813675852581919e-4
1988,10210,4,-2.634143031208618e-4
1988,10210,12,-5.679909492888857e-4
1988,10285,0,-0.0017348840065114996
1988,10285,1,-0.004658441583725675
1988,10285,2,-0.006249113095575884
1988,10285,4,-0.00216865938058148
1988,10285,12,-0.002852100140576626
1988,21720,0,-8.411240007997053e-5
1988,21720,1,-4.756878842790744e-4
1988,21720,2,-1.5302984548727836e-4
1988,21720,3,-0.003138030980561339
1988,21720,4,-8.667033811804304e-5
1988,21720,12,-1.6900794308079945e-4
1988,21740,0,-5.2663238442813177e-5
1988,21740,1,-2.261842025822784e-4
1988,21740,2,-1.2316494626770524e-4
1988,21740,3,-8.623170589598404e-4
1988,21740,4,-6.30225101408976e-5
1988,21740,12,-8.636159117220712e-5
1989,10210,0,-3.7954065784033477e-4
1989,10210,1,-0.0014965834159142123
1989,10210,2,-6.390507990326527e-4
1989,10210,4,-3.692261844565942e-4
1989,10210,12,-4.979481263052589e-4
1989,21720,0,5.574292825795337e-4
1989,21720,1,4.36427408293637e-4
1989,21720,2,3.261987234904935e-4
1989,21720,3,-0.035142803203639286
1989,21720,4,5.847092247893356e-4
1989,21720,12,1.873836317241507e-4
1989,21740,0,-8.793244030303173e-5
1989,21740,1,-3.035930994641087e-4
1989,21740,2,-2.7733907597715836e-4
1989,21740,3,-6.115500914969086e-5
1989,21740,4,-9.3629369648634e-5
1989,21740,12,-1.5208247193555335e-4
1990,10210,0,-2.778484050904455e-4
1990,10210,1,-0.0015078369330807956
1990,10210,2,-4.175298749903788e-4
1990,10210,3,-0.06444798451946149
1990,10210,4,-2.931960627963452e-4
1990,10210,12,-4.987969611614376e-4
1990,21720,0,-1.128887456998074e-4
1990,21720,1,-2.452820629051886e-4
1990,21720,2,-2.5905632012950073e-4
1990,21720,3,-0.004760480658111049
1990,21720,4,-9.508192389942229e-5
1990,21720,12,-0.00012320642256056642
1990,21740,0,-1.5432427277847595e-4
1990,21740,1,-1.4143627432635362e-4
1990,21740,2,-4.0752934508616934e-4
1990,21740,3,-1.279082824623614e-4
1990,21740,4,-1.7548967773956968e-4
1990,21740,12,-1.4007906232248838e-4
1991,10210,0,-3.7416254477743913e-4
1991,10210,1,-0.0015363401703126641
1991,10210,2,-4.895770003973051e-4
1991,10210,4,-3.1921189173296635e-4
1991,10210,12,-5.07507825228742e-4
1991,21720,0,-9.067173423468203e-5
1991,21720,1,-5.182528545356435e-4
1991,21720,2,-1.6059877828753348e-4
1991,21720,3,-0.010120140740786848
1991,21720,4,-7.60054262062943e-5
1991,21720,12,-2.0600918779918175e-4
1991,21740,0,-1.9509921570467557e-4
1991,21740,1,-3.0476799219658277e-4
1991,21740,2,-6.172856512187556e-4
1991,21740,3,-4.3622188838414276e-5
1991,21740,4,-2.069669569399557e-4
1991,21740,12,-2.4668115763258294e-4
1992,10130,0,-8.590523621283129e-4
1992,10130,1,-0.003788740015933399
1992,10130,2,-0.0013748986739072475
1992,10130,3,-0.0028418848423941794
1992,10130,4,-7.923876358641417e-4
1992,10130,12,-0.0013190020943221175
1992,10210,0,-4.947657876217587e-4
1992,10210,1,-0.001927168035807414
1992,10210,2,-7.193678756730578e-4
1992,10210,4,-5.529664404956987e-4
1992,10210,12,-7.032536212242591e-4
1992,10285,0,-0.001171474150904744
1992,10285,1,-0.0019498176628454833
1992,10285,2,-0.0027195423111333232
1992,10285,4,-0.0011425192069947612
1992,10285,12,-0.0012817106341529569
1992,21720,0,-2.299438407735171e-5
1992,21720,1,-1.6672549687747208e-4
1992,21720,2,-2.7856712727984743e-5
1992,21720,3,-0.01050970113298446
1992,21720,4,-1.59342445972885e-5
1992,21720,12,-5.25643635565546e-5
1992,21740,0,-9.905686305089665e-5
1992,21740,1,-2.955749261350624e-4
1992,21740,2,-3.1759074530461585e-4
1992,21740,3,-7.413577481219464e-5
1992,21740,4,-1.1298255641013912e-4
1992,21740,12,-1.52083302845967e-4
1993,10110,0,-0.0024268193594793844
1993,10110,1,-0.007209109378813717
1993,10110,2,-0.003051537531289976
1993,10110,3,-0.30111730524831415
1993,10110,4,-0.002259585475522326
1993,10110,12,-0.0026016508981133338
1993,10130,0,-0.004072658174172084
1993,10130,1,-0.006075557919449866
1993,10130,2,-0.008556893594076883
1993,10130,3,-0.10615291671687357
1993,10130,4,-0.0030373531270929937
1993,10130,12,-0.003805376187069942
1993,10210,0,-4.7400241835296735e-4
1993,10210,1,-0.00218600456565382
1993,10210,2,-5.966707755370948e-4
1993,10210,3,-0.0017259348321646108
1993,10210,4,-4.414482190129724e-4
1993,10210,12,-7.605138444368126e-4
1993,10285,0,-0.003250234126793552
1993,10285,1,-0.005793235419204124
1993,10285,2,-0.005280264200419315
1993,10285,3,-0.0062609464670011755
1993,10285,4,-0.0031005617125676806
1993,10285,12,-0.0028335445533726605
1993,21720,0,-6.464452996531972e-5
1993,21720,1,-5.58532529278324e-5
1993,21720,2,-1.0136900782864698e-4
1993,21720,3,-0.005874737501654841
1993,21720,4,-3.710842458886223e-5
1993,21720,12,-3.888720567629682e-5
1993,21740,0,-7.80492430316944e-5
1993,21740,1,-3.698579922406937e-4
1993,21740,2,-1.5927238280806746e-4
1993,21740,3,-3.140124621303864e-4
1993,21740,4,-7.992647665905098e-5
1993,21740,12,-1.2916045556553087e-4
1994,10110,0,-0.007853222081387518
1994,10110,1,-0.027776624680931623
1994,10110,2,-0.00801377560974386
1994,10110,3,-0.5404522514141845
1994,10110,4,-0.006422075925566606
1994,10110,12,-0.007574196597708579
1994,10130,0,-0.0021022412426111555
1994,10130,1,-0.004769923380624765
1994,10130,2,-0.0022665553031820294
1994,10130,3,-0.0014462095276075125
1994,10130,4,-0.002251452404366549
1994,10130,12,-0.001907936507270343
1994,10210,0,-3.233576117616959e-4
1994,10210,1,-6.539399597320695e-4
1994,10210,2,-0.002545925174841275
1994,10210,4,-3.574795852988927e-4
1994,10210,12,-8.473373234650886e-4
1994,10285,0,-0.001129529484282124
1994,10285,1,-0.0033473086722299473
1994,10285,2,-0.004867535877131831
1994,10285,4,-0.0011290727854262757
1994,10285,12,-0.0021218247850825728
1994,21720,0,-7.379444001608075e-5
1994,21720,1,-1.0817081946018328e-4
1994,21720,2,-2.143671607791041e-4
1994,21720,3,-0.003256891090760744
1994,21720,4,-5.8797999637606645e-5
1994,21720,12,-8.109245781356468e-5
1994,21740,0,-2.2662767045047264e-4
1994,21740,1,-5.064442813979674e-4
1994,21740,2,-6.922265826541662e-4
1994,21740,3,-0.0018449348944641134
1994,21740,4,-2.8978335626736397e-4
1994,21740,12,-3.052001335297252e-4
1995,10130,0,-8.617881447434634e-4
1995,10130,1,-0.002336560681880099
1995,10130,2,-0.0016340515660706245
1995,10130,3,-0.013416752421625702
1995,10130,4,-8.668073636509202e-4
1995,10130,12,-0.0010053386073556251
1995,10210,0,-2.2149850375598277e-4
1995,10210,1,-7.720966076944285e-4
1995,10210,2,-4.2137218434748074e-4
1995,10210,4,-2.444398727618277e-4
1995,10210,12,-3.0250500871959986e-4
1995,10285,0,-0.0013310400999728869
1995,10285,1,-0.0030815435613269614
1995,10285,2,-0.002487683692578593
1995,10285,4,-0.0013021353577762293
1995,10285,12,-0.0014557970346464858
1995,21720,0,-8.828838169482167e-5
1995,21720,1,-4.099621575833393e-4
1995,21720,2,-2.3634650480017168e-4
1995,21720,3,-0.0023436402633363815
1995,21720,4,-1.4050777266901823e-4
1995,21720,12,-1.6895456552696214e-4
1995,21740,0,-1.0109799569073369e-4
1995,21740,1,-2.4326954678003087e-4
1995,21740,2,-1.8584490197895198e-4
1995,21740,3,-2.8502661408221267e-4
1995,21740,4,-1.0980247762172338e-4
1995,21740,12,-1.1762868827106324e-4
1996,10110,0,-0.0030236989822156474
1996,10110,1,-0.010123549782832012
1996,10110,2,-0.003950596574461855
1996,10110,3,-0.051994391545266846
1996,10110,4,-0.003062857305948927
1996,10110,12,-0.0035526706559786355
1996,10210,0,-2.927701909093657e-4
1996,10210,1,-5.010459182392064e-4
1996,10210,2,-4.5037180629390195e-4
1996,10210,3,-4.3124776133318985e-4
1996,10210,4,-2.248723340576557e-4
1996,10210,12,-2.385399000702882e-4
1996,10261,0,-1.8332845876959874e-4
1996,10261,1,-0.001241733229578974
1996,10261,2,-2.977777959446442e-4
1996,10261,3,-9.345243323659563e-4
1996,10261,4,-1.7896757263812473e-4
1996,10261,12,-3.790708931601749e-4
1996,21720,0,-1.1508014883447091e-4
1996,21720,1,-3.8758361826673094e-4
1996,21720,2,-1.7506454223976172e-4
1996,21720,3,-0.005033614372991199
1996,21720,4,-1.0318242911534539e-4
1996,21720,12,-1.299568258150417e-4
1996,21740,0,-1.0068340772880452e-4
1996,21740,1,-2.1920576408904793e-4
1996,21740,2,-2.255218421627021e-4
1996,21740,3,-5.787782687588158e-4
1996,21740,4,-1.0252862080137571e-4
1996,21740,12,-1.1102152337931552e-4
1997,10210,0,-3.1106720983478745e-4
1997,10210,1,-3.5418682762872753e-4
1997,10210,2,-7.219734285126794e-4
1997,10210,3,-0.03802745423549104
1997,10210,4,-2.5855393337772045e-4
1997,10210,12,-2.876344940374301e-4
1997,10261,0,-4.3267905575528396e-4
1997,10261,1,-0.004012145092450685
1997,10261,2,-0.001022909323150346
1997,10261,3,-0.001505128082273132
1997,10261,4,-4.1901560931262625e-4
1997,10261,12,-0.0012789413757120585
1997,21720,0,-1.1645151548231436e-4
1997,21720,1,-2.4733787756988366e-4
1997,21720,2,-2.695054392622475e-4
1997,21720,3,-1.9848707236223145e-4
1997,21720,4,-1.3271666296554047e-4
1997,21720,12,-1.2830001573086938e-4
1997,21740,0,-5.420827623084829e-5
1997,21740,1,-1.247802107499508e-4
1997,21740,2,-1.2185990930179751e-4
1997,21740,3,-2.039655907357716e-6
1997,21740,4,-5.301982746584972e-5
1997,21740,12,-6.16768349056489e-5
1998,10110,0,-0.0011960455250215134
1998,10110,1,-0.012158817735474798
1998,10110,2,-0.0017933319459419192
1998,10110,3,-0.12042638987355749
1998,10110,4,-0.0013942376600119964
1998,10110,12,-0.0035893183225732856
1998,10115,0,-0.006569347486344114
1998,10115,1,-0.01689025622477007
1998,10115,2,-0.026178704796802236
1998,10115,3,-0.25459178603349364
1998,10115,4,-0.008598885313730866
1998,10115,12,-0.011529903954382515
1998,10210,0,-2.9949998380091725e-4
1998,10210,1,-8.721489761554173e-4
1998,10210,2,-4.2160143827457724e-4
1998,10210,3,-0.001207993945230401
1998,10210,4,-2.828216797772708e-4
1998,10210,12,-0.00031373042498962663
1998,10261,0,-1.9369827795276805e-4
1998,10261,1,-4.8695497857160797e-4
1998,10261,2,-4.3003470994659764e-4
1998,10261,3,-0.0032805748855927173
1998,10261,4,-1.5546483979453262e-4
1998,10261,12,-2.550128142394406e-4
1998,10285,0,-7.378834468606651e-4
1998,10285,1,-0.0016270631201465568
1998,10285,2,-0.0014057591076740844
1998,10285,4,-7.748605343720394e-4
1998,10285,12,-8.389042658581747e-4
1998,21720,0,-2.1538056139765757e-4
1998,21720,1,-4.869411683193116e-4
1998,21720,2,-5.584659207928798e-4
1998,21720,3,-0.003488524159040607
1998,21720,4,-2.880072034282076e-4
1998,21720,12,-2.530784483035069e-4
1998,21740,0,-3.6085024050185235e-5
1998,21740,1,-6.522571526806651e-5
1998,21740,2,-6.661529561970117e-5
1998,21740,3,-5.0176781476893913e-5
1998,21740,4,-3.430292546988646e-5
1998,21740,12,-3.293877287227765e-5
1999,10130,0,-8.432098447703382e-4
1999,10130,1,-0.002331029209607279
1999,10130,2,-0.001298019051542504
1999,10130,3,-0.016285006618316042
1999,10130,4,-8.068704071920085e-4
1999,10130,12,-8.88177433704275e-4
1999,10210,0,-1.0321911195607633e-4
1999,10210,1,-2.5052827372987657e-4
1999,10210,2,-1.808953036860849e-4
1999,10210,3,-5.79367184678572e-4
1999,10210,4,-1.0157880322212551e-4
1999,10210,12,-1.203629927916347e-4
1999,10261,0,-3.0587416124766467e-4
1999,10261,1,-0.0016899595917500537
1999,10261,2,-4.8765519658371673e-4
1999,10261,3,-0.0025551250549452668
1999,10261,4,-2.964543444708826e-4
1999,10261,12,-5.404345402436655e-4
1999,21720,0,-3.8211912847938473e-4
1999,21720,1,-4.135700719224131e-4
1999,21720,2,-5.13845468144424e-4
1999,21720,3,-5.140508846339133e-4
1999,21720,4,-2.8359108183133416e-4
1999,21720,12,-2.376493168685097e-4
1999,21740,0,-4.387151318621992e-5
1999,21740,1,-8.486905186916532e-5
1999,21740,2,-8.518530926060915e-5
1999,21740,3,-1.4187184631144368e-4
1999,21740,4,-3.6971996023656194e-5
1999,21740,12,-4.2855107924605514e-5
2000,10130,0,-3.202921804474165e-4
2000,10130,1,-0.001214464033141271
2000,10130,2,-6.104621289754721e-4
2000,10130,3,-0.010814454785890196
2000,10130,4,-3.3476623808289765e-4
2000,10130,12,-4.6737200688352595e-4
2000,10210,0,-4.795417961502387e-4
2000,10210,1,-0.0023525447897688716
2000,10210,2,-4.8035440689761803e-4
2000,10210,3,-0.0017076967201953952
2000,10210,4,-4.898262484193693e-4
2000,10210,12,-6.468014064759355e-4
2000,10261,0,-3.4428990671250386e-4
2000,10261,1,-6.005824947797747e-4
2000,10261,2,-3.4907162589269006e-4
2000,10261,4,-2.00395683153161e-4
2000,10261,12,-2.681493415460798e-4
2000,10285,0,-2.1634358954963006e-4
2000,10285,1,-0.002965111528431991
2000,10285,2,-5.674374974643006e-4
2000,10285,3,-0.002139783262497802
2000,10285,4,-2.1261422105605442e-4
2000,10285,12,-8.383153211672743e-4
2000,21720,0,-2.9328341037045016e-4
2000,21720,1,-4.0581696018218396e-4
2000,21720,2,-3.0684394099642504e-4
2000,21720,3,-1.5167663932544144e-4
2000,21720,4,-2.0249809932997983e-4
2000,21720,12,-1.8079139375933812e-4
2000,21740,0,-2.0242199395093254e-5
2000,21740,1,-9.82334699631258e-5
2000,21740,2,-2.9905197706931724e-5
2000,21740,3,-1.382712131322968e-4
2000,21740,4,-1.9172295591333097e-5
2000,21740,12,-2.920010319157117e-5
2001,10130,0,-3.229990468927448e-4
2001,10130,1,-2.803516620142477e-4
2001,10130,2,-9.547039014345173e-4
2001,10130,3,-0.2242314343178329
2001,10130,4,-2.163183454903027e-4
2001,10130,12,-2.923486588138498e-4
2001,10210,0,-3.537881998835887e-4
2001,10210,1,-0.0014629425807075015
2001,10210,2,-3.509914856741177e-4
2001,10210,3,-6.834541339058597e-4
2001,10210,4,-3.3887933153310034e-4
2001,10210,12,-4.0302992689419086e-4
2001,10261,0,-2.6673002458481516e-4
2001,10261,1,-8.221269567793085e-4
2001,10261,2,-2.9226941913434117e-4
2001,10261,4,-1.9140511265634735e-4
2001,10261,12,-2.620577043269018e-4
2001,10285,0,-8.107975202217391e-4
2001,10285,1,-0.002737191598529383
2001,10285,2,-7.643483119832628e-4
2001,10285,4,-9.061616144698587e-4
2001,10285,12,-9.922388007149834e-4
2001,21720,0,-3.491026061217183e-5
2001,21720,1,-3.104449554685454e-5
2001,21720,2,-1.3511757930081313e-4
2001,21720,3,-3.0049838589143313e-4
2001,21720,4,-3.0074805871375816e-5
2001,21720,12,-3.7778022581451354e-5
2001,21740,0,-9.109854946742449e-6
2001,21740,1,-4.9419627875473147e-5
2001,21740,2,-1.565920324096878e-5
2001,21740,3,-3.12665743077266e-6
2001,21740,4,-9.192134393502492e-6
2001,21740,12,-2.0040886799077426e-5
2002,10130,0,-4.7819911766354385e-4
2002,10130,1,-0.0015700714270049038
2002,10130,2,-0.0011262702584380721
2002,10130,3,-4.8446774284052383e-4
2002,10130,4,-4.676642958662879e-4
2002,10130,12,-6.953212706731378e-4
2002,10210,0,-1.1305058865904825e-4
2002,10210,1,-6.661805970614244e-4
2002,10210,2,-3.604613609922507e-4
2002,10210,3,-1.3936039531457772e-4
2002,10210,4,-1.0289308797624018e-4
2002,10210,12,-2.557442769242385e-4
2002,10261,0,-2.508444050694134e-4
2002,10261,1,-0.001986530721731561
2002,10261,2,-4.1152168399446044e-4
2002,10261,3,-0.010387980546179842
2002,10261,4,-2.0406789313141732e-4
2002,10261,12,-5.415788146109555e-4
2002,10285,0,-1.5954036868814792e-4
2002,10285,1,-9.25020000183061e-4
2002,10285,2,-2.413394078307104e-4
2002,10285,3,-9.703129221926343e-4
2002,10285,4,-1.2471011802047853e-4
2002,10285,12,-3.277508861428962e-4
2002,21720,0,-5.844284779759793e-5
2002,21720,1,-3.102033633142584e-4
2002,21720,2,-1.1507722909599953e-4
2002,21720,3,-0.005489211766584092
2002,21720,4,-5.674008038234397e-5
2002,21720,12,-9.83545484998005e-5
2002,21740,0,-8.372352202919207e-6
2002,21740,1,-3.5632497104320225e-5
2002,21740,2,-3.0206588558267425e-5
2002,21740,3,-4.5021632354064085e-6
2002,21740,4,-8.793623232860092e-6
2002,21740,12,-1.654200382330602e-5
2003,10115,0,-7.799921018615598e-4
2003,10115,1,-0.002750467461533572
2003,10115,2,-0.0018178933906513334
2003,10115,3,-0.02392350158144142
2003,10115,4,-8.384029279676964e-4
2003,10115,12,-0.0012574493157115807
2003,10130,0,-9.184802494206384e-4
2003,10130,1,-0.0010869894160449856
2003,10130,2,-0.001965670804062726
2003,10130,3,-0.001426903732449859
2003,10130,4,-7.217188306386604e-4
2003,10130,12,-7.516366839888902e-4
2003,10210,0,-1.2535439413649373e-4
2003,10210,1,-6.69793512509934e-4
2003,10210,2,-1.7190633621613698e-4
2003,10210,3,-3.5341906520998465e-4
2003,10210,4,-1.0720353027282952e-4
2003,10210,12,-2.0460697637269046e-4
2003,10261,0,-1.5438731602093002e-4
2003,10261,1,-3.8907526064353335e-4
2003,10261,2,-6.25246912121864e-4
2003,10261,3,-9.00356153005213e-5
2003,10261,4,-6.247384070879025e-5
2003,10261,12,-2.3029053302143005e-4
2003,21720,0,-3.939198051730162e-5
2003,21720,1,-1.3888720732491833e-4
2003,21720,2,-2.3057076675610886e-4
2003,21720,3,-0.0027714728143644757
2003,21720,4,-3.550548371380893e-5
2003,21720,12,-9.532802034766429e-5
2003,21740,0,-6.343995867816224e-6
2003,21740,1,-1.243129234025971e-5
2003,21740,2,-1.294364240102951e-5
2003,21740,3,-3.104304761556777e-5
2003,21740,4,-5.811757221413862e-6
2003,21740,12,-6.308762044323767e-6
2004,10110,0,-2.592838164748746e-4
2004,10110,1,-0.0019755259223508954
2004,10110,2,-2.012216870915423e-4
2004,10110,3,-0.027553554124022217
2004,10110,4,-1.5378039325671504e-4
2004,10110,12,-5.821724457102816e-4
2004,10115,0,-0.0018948023693323227
2004,10115,1,-0.007534426890070923
2004,10115,2,-0.006608566916376715
2004,10115,4,-0.0022751901351778284
2004,10115,12,-0.003737527507016751
2004,10130,0,-3.6540112519417936e-4
2004,10130,1,-0.0011078347684665393
2004,10130,2,-4.829264880167625e-4
2004,10130,3,-9.51270520010665e-4
2004,10130,4,-3.24137615044114e-4
2004,10130,12,-4.237038607836765e-4
2004,10210,0,-7.327952963672635e-5
2004,10210,1,-9.364522263577468e-4
2004,10210,2,-1.6853921626489764e-4
2004,10210,3,-0.026116992783803035
2004,10210,4,-9.109058027549567e-5
2004,10210,12,-2.599929734118976e-4
2004,10261,0,-5.480393378468791e-4
2004,10261,1,-0.002277182274114924
2004,10261,2,-0.0012432379164723335
2004,10261,3,-1.0579094516726717e-4
2004,10261,4,-5.17614002222996e-4
2004,10261,12,-0.0010327644448026726
2004,21720,0,-1.7578098410220595e-4
2004,21720,1,-2.996106613045996e-4
2004,21720,2,-2.7078745460255523e-4
2004,21720,3,-2.5302981937585676e-4
2004,21720,4,-1.3852776438741474e-4
2004,21720,12,-1.4280993150565859e-4
2004,21740,0,-1.1547375830237547e-5
2004,21740,1,-4.4599504455507895e-5
2004,21740,2,-8.255146182080271e-5
2004,21740,3,-4.193521606748377e-6
2004,21740,4,-1.0695519168211006e-5
2004,21740,12,-3.253626503629718e-5
2005,10115,0,-0.0015689566127841084
2005,10115,1,-0.005540402685756601
2005,10115,2,-0.006212333251621194
2005,10115,3,-0.34396309341797004
2005,10115,4,-0.0019165024496694402
2005,10115,12,-0.002954036588759617
2005,10130,0,-3.8825145422825407e-4
2005,10130,1,-0.0013715327485063708
2005,10130,2,-0.0010721285815317027
2005,10130,3,-0.001286297054059493
2005,10130,4,-3.829329649186281e-4
2005,10130,12,-6.266911987365109e-4
2005,10210,0,-6.833067017664762e-5
2005,10210,1,-0.0016881375218212942
2005,10210,2,-1.6561952573080824e-4
2005,10210,3,-0.21222983109055488
2005,10210,4,-7.503795766207135e-5
2005,10210,12,-4.2433985229824915e-4
2005,10261,0,-3.0447496664944994e-4
2005,10261,1,-9.85035864663536e-4
2005,10261,2,-5.324233135327389e-4
2005,10261,3,-0.0026473954751269294
2005,10261,4,-2.651091184019631e-4
2005,10261,12,-3.745299684486309e-4
2005,10285,0,-7.527176043199198e-4
2005,10285,1,-0.0022795919446980304
2005,10285,2,-0.0015840339760055484
2005,10285,4,-5.517038429735195e-4
2005,10285,12,-0.001066545679275995
2005,21720,0,-5.30979903756859e-5
2005,21720,1,-1.5407967355092963e-4
2005,21720,2,-1.2895740559278212e-4
2005,21720,3,-0.0027169086359474723
2005,21720,4,-5.375026102943712e-5
2005,21720,12,-6.891547996326736e-5
2005,21740,0,-2.4219253478227157e-5
2005,21740,1,-7.916735105129361e-5
2005,21740,2,-1.0912393557052213e-4
2005,21740,3,-8.471047902567959e-6
2005,21740,4,-2.471127734837154e-5
2005,21740,12,-4.6790826426619525e-5
2006,10115,0,-0.002727616100656168
2006,10115,1,-0.01584164897429912
2006,10115,2,-0.006612369326724502
2006,10115,3,-0.035653524978410046
2006,10115,4,-0.00328221854298266
2006,10115,12,-0.005336996939405946
2006,10130,0,-3.8035284998963096e-4
2006,10130,1,-0.0012700214494839974
2006,10130,2,-9.668782274466502e-4
2006,10130,3,-0.03420422082873058
2006,10130,4,-3.6752797255710243e-4
2006,10130,12,-5.725052439927383e-4
2006,10210,0,-2.957908501546672e-4
2006,10210,1,-0.0033985413686813916
2006,10210,2,-1.3583436746164324e-4
2006,10210,3,-7.194169658936944e-4
2006,10210,4,-3.1508752216909125e-4
2006,10210,12,-6.737611705718342e-4
2006,10261,0,-1.8501455881795006e-4
2006,10261,1,-2.6274151590076507e-4
2006,10261,2,-2.4910796390303485e-4
2006,10261,3,-1.229284539553727e-5
2006,10261,4,-1.0556687495922161e-4
2006,10261,12,-1.281164284871483e-4
2006,10285,0,-8.965483051200451e-4
2006,10285,1,-0.004179282785012626
2006,10285,2,-0.0010414895020957634
2006,10285,3,-0.005002735729432785
2006,10285,4,-6.840908952277774e-4
2006,10285,12,-0.0015162380961453118
2006,21720,0,-7.262733427947477e-5
2006,21720,1,-2.832424731043237e-4
2006,21720,2,-1.237156938540812e-4
2006,21720,3,-0.0012601558646077328
2006,21720,4,-6.875247804868859e-5
2006,21720,12,-9.779385491565727e-5
2006,21740,0,-3.5809067299967827e-5
2006,21740,1,-3.890808092127042e-5
2006,21740,2,-2.506351370308712e-4
2006,21740,3,-2.63574310580485e-5
2006,21740,4,-4.1987057632966436e-5
2006,21740,12,-6.155318307361741e-5
2007,10115,0,-0.0014277612180008414
2007,10115,1,-0.007585572255679901
2007,10115,2,-0.005670168222310877
2007,10115,3,-0.12601321123712117
2007,10115,4,-0.0015374772419506106
2007,10115,12,-0.0033940025069635065
2007,10130,0,-4.335017846871217e-4
2007,10130,1,-5.843812035230338e-4
2007,10130,2,-9.716880479811689e-4
2007,10130,3,-0.0015559577541043787
2007,10130,4,-3.6677694655305043e-4
2007,10130,12,-3.823412776359881e-4
2007,10210,0,-2.3004755827263923e-4
2007,10210,1,-7.018628158971414e-4
2007,10210,2,-3.9899419822153056e-4
2007,10210,3,-0.013629657584100832
2007,10210,4,-2.008986716742279e-4
2007,10210,12,-2.683732009714238e-4
2007,10261,0,-2.9115160215180045e-4
2007,10261,1,-3.878059788704596e-4
2007,10261,2,-7.219996018176869e-4
2007,10261,3,-7.28184344392232e-5
2007,10261,4,-3.227490384186488e-4
2007,10261,12,-3.5867530245550344e-4
2007,10285,0,-3.8132180526319283e-4
2007,10285,1,-0.0015393225777418035
2007,10285,2,-0.0013097415545499766
2007,10285,3,-0.0016638308775989363
2007,10285,4,-2.9526413625993964e-4
2007,10285,12,-8.382988760067935e-4
2007,21720,0,7.277707082808949e-18
2007,21720,1,-5.189022950664784e-5
2007,21720,2,-2.380948399159704e-5
2007,21720,3,-4.6342217346852775e-6
2007,21720,4,-7.181935890906062e-18
2007,21720,12,-1.8280055045618096e-5
2007,21740,0,-4.7981232809540736e-5
2007,21740,1,-1.840359628450517e-4
2007,21740,2,-1.899633320228391e-4
2007,21740,3,-2.648729481917156e-7
2007,21740,4,-3.835987689664187e-5
2007,21740,12,-9.563693963042608e-5
2008,10115,0,-0.0018078645146257552
2008,10115,1,-0.011821942607295115
2008,10115,2,-0.0090085370949116
2008,10115,3,-0.00660185644821995
2008,10115,4,-0.0023969884743674638
2008,10115,12,-0.0052655598225283505
2008,10130,0,-2.94294428991694e-4
2008,10130,1,-8.548465324055834e-4
2008,10130,2,-7.947870740785083e-4
2008,10130,3,-0.0011478233925927281
2008,10130,4,-2.631827966689178e-4
2008,10130,12,-3.638189351278225e-4
2008,10210,0,-1.1551278713843032e-4
2008,10210,1,-3.4100889678876446e-4
2008,10210,2,-3.174408216384452e-4
2008,10210,3,-0.0484314268394468
2008,10210,4,-9.083852094375017e-5
2008,10210,12,-1.6679628705406062e-4
2008,10261,0,-6.011048769021345e-4
2008,10261,1,-7.570852404332574e-4
2008,10261,2,-0.0014055955716976627
2008,10261,3,-0.00886477319762618
2008,10261,4,-5.48793127102497e-4
2008,10261,12,-5.582048665556484e-4
2008,10285,0,-6.606134089456297e-4
2008,10285,1,-0.0020782653234772937
2008,10285,2,-0.0010147991164178869
2008,10285,4,-6.711695190221841e-4
2008,10285,12,-8.121964775690462e-4
2008,21720,0,-3.0422554459426845e-5
2008,21720,1,-4.982063067002109e-5
2008,21720,2,-4.641968203023316e-5
2008,21720,3,-0.05246793292564034
2008,21720,4,-2.512460502253428e-5
2008,21720,12,-2.4079622167506558e-5
2008,21740,0,-7.102490515867447e-5
2008,21740,1,-1.3705783824611426e-4
2008,21740,2,-1.5462711246119014e-4
2008,21740,3,-0.001443123357131056
2008,21740,4,-7.122966839450618e-5
2008,21740,12,-7.349281720645101e-5
2009,10115,0,-0.0011573794888731855
2009,10115,1,-0.007389456566621808
2009,10115,2,-0.007007973728418502
2009,10115,3,-0.0010341941160515844
2009,10115,4,-0.0013639192935771466
2009,10115,12,-0.003546754633820309
2009,10130,0,-7.626806094769975e-5
2009,10130,1,-2.3741660721320081e-4
2009,10130,2,-2.844079658584262e-4
2009,10130,3,-0.00862443843155223
2009,10130,4,-8.342935670653222e-5
2009,10130,12,-1.266549944750613e-4
2009,10210,0,-1.1199399676516506e-4
2009,10210,1,-2.788343605675492e-4
2009,10210,2,-9.693158811069321e-5
2009,10210,3,-0.004293718163533844
2009,10210,4,-6.742609879746069e-5
2009,10210,12,-8.644530310716714e-5
2009,10261,0,-1.1082744869803259e-4
2009,10261,1,-1.6470063532039446e-4
2009,10261,2,-2.0689869826350912e-4
2009,10261,3,-3.118988883117371e-5
2009,10261,4,-1.0157276471817833e-4
2009,10261,12,-1.0216324983929731e-4
2009,10285,0,-4.866471399226221e-5
2009,10285,1,-3.4181379034147575e-4
2009,10285,2,-5.56604394642305e-5
2009,10285,3,-0.01694453751599953
2009,10285,4,-4.9791562327899046e-5
2009,10285,12,-1.1306849523886373e-4
2009,21720,0,-6.3808341162979265e-6
2009,21720,1,-1.0734161622815968e-5
2009,21720,2,-3.3665001134487365e-5
2009,21720,3,-2.166843153331232e-5
2009,21720,4,-4.3525712539664335e-6
2009,21720,12,-1.0542177932374037e-5
2009,21740,0,-1.176566073648821e-5
2009,21740,1,-6.301540983294268e-5
2009,21740,2,-2.4734046382852285e-5
2009,21740,3,-9.112040277932916e-6
2009,21740,4,-1.0896737073356748e-5
2009,21740,12,-2.6085060985281283e-5
2010,10110,0,-1.2427816862098612e-4
2010,10110,1,-0.002771234529901909
2010,10110,2,-1.5156908027102642e-4
2010,10110,3,-0.012311109182407992
2010,10110,4,-1.1607483965559763e-4
2010,10110,12,-4.890160143187135e-4
2010,10115,0,-4.4156963568337215e-4
2010,10115,1,-0.004294025306311419
2010,10115,2,-0.00381755037219721
2010,10115,3,-5.238843438625426e-4
2010,10115,4,-5.782785418358643e-4
2010,10115,12,-0.0018979120318279963
2010,10130,0,-1.4499418395757876e-4
2010,10130,1,-5.324360947868722e-4
2010,10130,2,-3.008827094283576e-4
2010,10130,3,-0.005026087543939818
2010,10130,4,-1.3936390286907837e-4
2010,10130,12,-2.464702029138988e-4
2010,10210,0,-1.399409870305209e-4
2010,10210,1,-2.865032017709807e-4
2010,10210,2,-2.881297021722133e-4
2010,10210,3,-3.203076846165795e-4
2010,10210,4,-1.3424266849111134e-4
2010,10210,12,-1.5093067409236466e-4
2010,10261,0,-2.6470874651037256e-4
2010,10261,1,-4.165905521921877e-4
2010,10261,2,-5.819342313173042e-4
2010,10261,3,-0.05491099993228069
2010,10261,4,-2.1714667970122335e-4
2010,10261,12,-2.598324755901482e-4
2010,10285,0,-2.3095630926066137e-4
2010,10285,1,-6.183728782346621e-4
2010,10285,2,-3.446765173008495e-4
2010,10285,4,-1.8587561870407176e-4
2010,10285,12,-2.492250686093016e-4
2010,21720,0,-4.191129868442263e-5
2010,21720,1,-8.081303000994695e-5
2010,21720,2,-2.629202605530349e-5
2010,21720,3,-3.2104344979420885e-4
2010,21720,4,-3.385724640155279e-5
2010,21720,12,-2.6671531010513812e-5
2010,21740,0,-1.6469681626962153e-5
2010,21740,1,-1.806911019614385e-5
2010,21740,2,-3.971905365711918e-5
2010,21740,3,-2.4826580646059953e-5
2010,21740,4,-1.3097708549955442e-5
2010,21740,12,-1.5017932362884556e-5
2011,10115,0,-2.6745686783543796e-4
2011,10115,1,-0.002435991787947567
2011,10115,2,-0.0011265177288196403
2011,10115,3,-0.014387895191394849
2011,10115,4,-2.923488123048304e-4
2011,10115,12,-8.410531461882515e-4
2011,10130,0,-2.4855142661969835e-4
2011,10130,1,-4.1981545550718924e-4
2011,10130,2,-5.507920097716489e-4
2011,10130,3,-0.007009884256547361
2011,10130,4,-2.3922843864897334e-4
2011,10130,12,-2.5640899504550066e-4
2011,10210,0,-1.2441654507714767e-4
2011,10210,1,-4.7521890350957484e-4
2011,10210,2,-1.1299912327461253e-4
2011,10210,3,-4.868712539059099e-4
2011,10210,4,-8.656108186670662e-5
2011,10210,12,-1.5637598671651868e-4
2011,10261,0,-3.065685048718148e-4
2011,10261,1,-9.960064847602858e-4
2011,10261,2,-4.927590728863156e-4
2011,10261,3,-0.0016754031262500245
2011,10261,4,-2.7377647101930504e-4
2011,10261,12,-4.490924066924346e-4
2011,10285,0,-8.630796680655198e-5
2011,10285,1,-6.134893040786597e-4
2011,10285,2,-1.58957726036974e-4
2011,10285,3,-3.605967253544884e-4
2011,10285,4,-8.564302481506719e-5
2011,10285,12,-1.9801734168887393e-4
2011,21720,0,-8.079330905381304e-6
2011,21720,1,-4.196935792553406e-5
2011,21720,2,-1.0594902100005083e-5
2011,21720,3,-2.1616196893080898e-5
2011,21720,4,-5.3376962976352164e-6
2011,21720,12,-1.3998080990980519e-5
2011,21740,0,-8.729236755478277e-6
2011,21740,1,-3.647759780856344e-5
2011,21740,2,-3.006728998862296e-5
2011,21740,3,-1.13469882069865e-6
2011,21740,4,-8.342201065318862e-6
2011,21740,12,-2.4024493737137386e-5
2012,10110,0,-1.7263402489124015e-4
2012,10110,1,-0.0022506650930137918
2012,10110,2,-2.313623303480256e-4
2012,10110,3,-0.3729459374898175
2012,10110,4,-1.7646971616998368e-4
2012,10110,12,-0.00041841735769318613
2012,10115,0,-9.227706450123836e-4
2012,10115,1,-0.004854330407174674
2012,10115,2,-0.002217877713402724
2012,10115,3,-0.0030719104229131513
2012,10115,4,-9.687417503519421e-4
2012,10115,12,-0.0017204135196661713
2012,10130,0,-2.209350723900711e-4
2012,10130,1,-2.6139958748349577e-4
2012,10130,2,-6.386054895324356e-4
2012,10130,3,-9.753840350231979e-5
2012,10130,4,-1.9873035109059192e-4
2012,10130,12,-2.4154965460521357e-4
2012,10210,0,-1.5709258931999982e-4
2012,10210,1,-5.422997774371341e-4
2012,10210,2,-1.3874092207126322e-4
2012,10210,3,-3.9156708316916806e-4
2012,10210,4,-8.995490907422127e-5
2012,10210,12,-2.1416593218056678e-4
2012,10261,0,-2.3202371985888288e-4
2012,10261,1,-8.779747828145355e-4
2012,10261,2,-6.731173406395336e-4
2012,10261,3,-0.016466560949978774
2012,10261,4,-1.8666813807686068e-4
2012,10261,12,-4.218084641018262e-4
2012,10285,0,-1.0856683260619898e-4
2012,10285,1,-0.0013040163565338921
2012,10285,2,-1.283444839321553e-4
2012,10285,4,-9.22032922862334e-5
2012,10285,12,-3.340656578364341e-4
2012,21720,0,-3.269106231373787e-6
2012,21720,1,-1.499853508378562e-5
2012,21720,2,-1.5165536203766516e-5
2012,21720,3,-1.2880853553209892e-4
2012,21720,4,-3.53427419750032e-6
2012,21720,12,-9.405486084454474e-6
2012,21740,0,-2.1017782541172723e-5
2012,21740,1,-4.394782444104463e-5
2012,21740,2,-4.442995127631306e-5
2012,21740,3,-5.399223629374831e-5
2012,21740,4,-2.0361317288256595e-5
2012,21740,12,-2.2328859610939478e-5
2013,10115,0,-0.003298895484300158
2013,10115,1,-0.0076845844526758755
2013,10115,2,-0.006569485816851494
2013,10115,3,-0.13082509409775644
2013,10115,4,-0.003480275612903906
2013,10115,12,-0.003715594861474263
2013,10130,0,-2.5094984892107996e-4
2013,10130,1,-6.958185734255254e-4
2013,10130,2,-3.845029660980367e-4
2013,10130,3,-8.6244357789242e-4
2013,10130,4,-2.092488355308577e-4
2013,10130,12,-2.9114134964322184e-4
2013,10210,0,-2.3954112875970937e-4
2013,10210,1,-4.50932615560597e-4
2013,10210,2,-2.1264007414067978e-4
2013,10210,3,-9.786835358559364e-4
2013,10210,4,-1.937519040628829e-4
2013,10210,12,-1.712977877926503e-4
2013,10261,0,-1.8160360801864654e-4
2013,10261,1,-5.822239010957842e-4
2013,10261,2,-6.868686933241046e-4
2013,10261,3,-0.014331874253463784
2013,10261,4,-1.4004649254071268e-4
2013,10261,12,-3.168344130522369e-4
2013,10285,0,-1.8303806428737282e-4
2013,10285,1,-0.001001365735623202
2013,10285,2,-3.103610124141583e-4
2013,10285,4,-1.6660354246650808e-4
2013,10285,12,-3.36376393187069e-4
2013,21720,0,-1.1817613484051027e-5
2013,21720,1,-4.1115490757596414e-5
2013,21720,2,-1.2266499652121551e-5
2013,21720,3,-4.669376660995597e-5
2013,21720,4,-9.648647237978866e-6
2013,21720,12,-1.3462168175255188e-5
2013,21740,0,-1.1228993412917999e-5
2013,21740,1,-6.122779789170431e-5
2013,21740,2,-2.0069739836599773e-5
2013,21740,3,-5.272726961347189e-6
2013,21740,4,-9.18076823376419e-6
2013,21740,12,-2.0548304372632472e-5
2014,10110,0,-2.720764065930958e-4
2014,10110,1,-0.0069095903446846334
2014,10110,2,-3.4222505802545796e-4
2014,10110,3,-0.026007102386706227
2014,10110,4,-2.671953032027636e-4
2014,10110,12,-0.001492246297150559
2014,10115,0,-0.0010490505954403586
2014,10115,1,-0.009911094352285514
2014,10115,2,-0.003589620669815598
2014,10115,3,-0.13795620376627538
2014,10115,4,-0.0010597703010094064
2014,10115,12,-0.0029954426125724724
2014,10130,0,-2.165374624016013e-4
2014,10130,1,-3.9094116385878804e-4
2014,10130,2,-5.22612543436143e-4
2014,10130,3,-3.4781411391519474e-5
2014,10130,4,-1.3012450863461613e-4
2014,10130,12,-2.4211267821343686e-4
2014,10210,0,-8.116078700324896e-5
2014,10210,1,-5.48065150820459e-4
2014,10210,2,-3.94672565085002e-4
2014,10210,3,-0.0031164723787210965
2014,10210,4,-7.918351891156787e-5
2014,10210,12,-2.3942638621301805e-4
2014,10261,0,-1.8616938278658325e-4
2014,10261,1,-8.682804689632388e-4
2014,10261,2,-2.3416458397986853e-4
2014,10261,3,-0.015926973087026158
2014,10261,4,-2.2794944439979097e-4
2014,10261,12,-2.8974592777079324e-4
2014,10285,0,-1.7230452161558118e-4
2014,10285,1,-0.0014552254315511825
2014,10285,2,-3.0149046850550025e-4
2014,10285,4,-1.8466155046180653e-4
2014,10285,12,-3.8887715757153604e-4
2014,21720,0,-2.6225338316051247e-5
2014,21720,1,-7.928555653484673e-5
2014,21720,2,-4.628238838867069e-5
2014,21720,3,-6.186661143968115e-5
2014,21720,4,-2.929724077573028e-5
2014,21720,12,-3.080437266191261e-5
2014,21740,0,-5.782777165169293e-6
2014,21740,1,-1.0612256182918769e-5
2014,21740,2,-1.2034105575448895e-5
2014,21740,3,-1.8792976341406274e-4
2014,21740,4,-5.651150424325211e-6
2014,21740,12,-5.655072699351017e-6
2015,10110,0,-3.2498377081192345e-4
2015,10110,1,-0.0019580663518108292
2015,10110,2,-4.55242279272066e-4
2015,10110,3,-0.0010303885905573022
2015,10110,4,-3.5200975957775906e-4
2015,10110,12,-5.082967822931092e-4
2015,10115,0,-0.002335597752534874
2015,10115,1,-0.012893808699865845
2015,10115,2,-0.008132569951768013
2015,10115,3,-0.01381361504695003
2015,10115,4,-0.002934017394231549
2015,10115,12,-0.005016814852373204
2015,10130,0,-1.3944389179153748e-4
2015,10130,1,-5.128425267855326e-4
2015,10130,2,-4.8110754133739905e-4
2015,10130,3,-0.002013749864005341
2015,10130,4,-1.622121213254781e-4
2015,10130,12,-2.454557556643065e-4
2015,10210,0,-4.1183522340129634e-5
2015,10210,1,-3.069182133944156e-4
2015,10210,2,-1.4253526922608265e-4
2015,10210,4,-3.0257702845680695e-5
2015,10210,12,-1.123876966058253e-4
2015,10261,0,-7.669248632648987e-5
2015,10261,1,-0.0015680651339293691
2015,10261,2,-1.343673238697831e-4
2015,10261,3,-0.012340033897834743
2015,10261,4,-5.0325310515970165e-5
2015,10261,12,-4.511321554774072e-4
2015,21720,0,-6.739512676325651e-6
2015,21720,1,-5.0858719087215025e-5
2015,21720,2,-2.9022483121574533e-5
2015,21720,3,-4.7929996857667906e-5
2015,21720,4,-9.417915674945342e-6
2015,21720,12,-2.115653056852588e-5
2015,21740,0,-3.625260448892753e-5
2015,21740,1,-9.231993761096965e-5
2015,21740,2,-4.90774052999075e-5
2015,21740,3,-1.9310588935459502e-5
2015,21740,4,-2.953154286431039e-5
2015,21740,12,-3.703853261912068e-5
2016,10110,0,-3.606739912272234e-4
2016,10110,1,-0.001144020291149111
2016,10110,2,-8.203896332970707e-4
2016,10110,3,-0.002008427882339893
2016,10110,4,-3.878206418389692e-4
2016,10110,12,-5.348782837738707e-4
2016,10112,0,-3.149632506257541e-4
2016,10112,1,-9.003839216187118e-4
2016,10112,2,-5.834785406795015e-4
2016,10112,3,-0.004777965255123015
2016,10112,4,-2.6130283989057136e-4
2016,10112,12,-4.049124439882104e-4
2016,10115,0,-0.004056011669593762
2016,10115,1,-0.01313310073893263
2016,10115,2,-0.008086283622372091
2016,10115,3,-0.0707086772694491
2016,10115,4,-0.0044099962270953055
2016,10115,12,-0.005262340788327404
2016,10130,0,-2.517751290774983e-4
2016,10130,1,-0.0010490281428093976
2016,10130,2,-6.527513427229606e-4
2016,10130,3,-0.019189851019093613
2016,10130,4,-2.3173242281557775e-4
2016,10130,12,-4.5600746217900966e-4
2016,10210,0,-1.9860349477663367e-5
2016,10210,1,-2.377549996737688e-4
2016,10210,2,-1.9644833601157615e-4
2016,10210,3,-0.005865435976369378
2016,10210,4,-2.1179425167330174e-5
2016,10210,12,-9.91236014267128e-5
2016,10261,0,-1.072404675499436e-4
2016,10261,1,-7.904567983104185e-4
2016,10261,2,-9.902580467708437e-5
2016,10261,3,-1.771568050841579e-5
2016,10261,4,-3.3946002960744324e-5
2016,10261,12,-2.843822825313868e-4
2016,10285,0,-4.886958285304011e-4
2016,10285,1,-0.0011021034723908282
2016,10285,2,-9.238198706245244e-4
2016,10285,3,-0.07489490811486474
2016,10285,4,-3.847076988333532e-4
2016,10285,12,-5.520914711793719e-4
2016,21720,0,-3.825459087893922e-5
2016,21720,1,-7.22686494846421e-5
2016,21720,2,-6.216260199126735e-5
2016,21720,3,-1.4463945172966833e-4
2016,21720,4,-3.999722066467652e-5
2016,21720,12,-3.4940479787596426e-5
2016,21740,0,-1.228812812589217e-4
2016,21740,1,-2.745577277932261e-4
2016,21740,2,-1.923232937352482e-4
2016,21740,3,-7.73220265138438e-6
2016,21740,4,-6.617519741195146e-5
2016,21740,12,-1.2333437583205692e-4
2017,10110,0,-0.001105250960460182
2017,10110,1,-0.0016136573489424946
2017,10110,2,-0.0013293115761147081
2017,10110,3,-0.12521767859344796
2017,10110,4,-5.586492947883405e-4
2017,10110,12,-7.809436269773281e-4
2017,10112,0,-3.5156416879262393e-4
2017,10112,1,-0.0016389396720050096
2017,10112,2,-9.150610460636966e-4
2017,10112,3,-0.08079169257513531
2017,10112,4,-3.516244675283796e-4
2017,10112,12,-6.203962768666835e-4
2017,10115,0,-0.005380826232464364
2017,10115,1,-0.017755671490786027
2017,10115,2,-0.011182866732259891
2017,10115,4,-0.006376795435678155
2017,10115,12,-0.007298523881945016
2017,10130,0,-1.7063213277035495e-4
2017,10130,1,-7.542634708368799e-4
2017,10130,2,-4.24253205708579e-4
2017,10130,3,-7.424951231741008e-5
2017,10130,4,-2.4434920671022575e-4
2017,10130,12,-3.178836939481333e-4
2017,10210,0,-1.4067224446981689e-5
2017,10210,1,-1.7809541240469147e-4
2017,10210,2,-1.0591344965868324e-4
2017,10210,3,-3.6969896378261633e-4
2017,10210,4,-2.6343467048821867e-5
2017,10210,12,-9.84962212390522e-5
2017,10261,0,-2.4647529387837135e-18
2017,10261,1,-9.270352925111244e-4
2017,10261,2,-2.0556552391170872e-4
2017,10261,3,-0.007366823521695066
2017,10261,4,2.728575467421853e-18
2017,10261,12,-3.243807006284036e-4
2017,10285,0,-1.8660884830179678e-4
2017,10285,1,-0.001203955649156789
2017,10285,2,-3.025532802751334e-4
2017,10285,3,-0.06721841432471214
2017,10285,4,-1.8607347304853576e-4
2017,10285,12,-3.343166765274302e-4
2017,21720,0,-1.3994406273327018e-4
2017,21720,1,-2.906739939381357e-4
2017,21720,2,-4.3445299663056355e-4
2017,21720,3,-9.953175803865918e-4
2017,21720,4,-1.2412058116181713e-4
2017,21720,12,-1.8271821147653304e-4
2017,21740,0,-6.262466947849224e-5
2017,21740,1,-1.0627866227790525e-4
2017,21740,2,-3.1453428248483863e-4
2017,21740,3,-3.006932341333603e-5
2017,21740,4,-4.5362960099546866e-5
2017,21740,12,-9.998126292557761e-5
2018,10110,0,-0.0010617831302462838
2018,10110,1,-0.0031994265620992153
2018,10110,2,-0.0012876980297154591
2018,10110,3,-0.013059808701960787
2018,10110,4,-0.0010406693008665614
2018,10110,12,-0.0010901794003244031
2018,10112,0,-4.432738073917004e-4
2018,10112,1,-0.0019535277899757836
2018,10112,2,-0.0011650220550305185
2018,10112,3,-0.005709378979938276
2018,10112,4,-4.2913204931504454e-4
2018,10112,12,-7.527587015388404e-4
2018,10115,0,-0.007977414837169766
2018,10115,1,-0.01957883732584374
2018,10115,2,-0.016252112168968064
2018,10115,4,-0.008262325485415903
2018,10115,12,-0.008761842544872264
2018,10130,0,-2.8836805610706203e-4
2018,10130,1,-8.431811636548652e-4
2018,10130,2,-4.350924025539119e-4
2018,10130,3,-9.547446411094843e-4
2018,10130,4,-2.970599843765379e-4
2018,10130,12,-3.333306436085063e-4
2018,10210,0,-1.7461049504884947e-4
2018,10210,1,-3.759486958067304e-4
2018,10210,2,-2.6337123857499866e-4
2018,10210,3,-0.0018700873262130079
2018,10210,4,-1.9313134451397494e-4
2018,10210,12,-1.501251042334482e-4
2018,10261,0,-1.6393981652171641e-4
2018,10261,1,-8.861517434362243e-4
2018,10261,2,-2.0974338336199037e-4
2018,10261,3,-6.646658557700571e-6
2018,10261,4,-9.229440917106704e-5
2018,10261,12,-3.495352451694979e-4
2018,10285,0,-1.3754220656227498e-4
2018,10285,1,-0.002039033264382132
2018,10285,2,-2.6340182654914393e-4
2018,10285,3,-0.5706382908206529
2018,10285,4,-3.84794274826142e-5
2018,10285,12,-5.757151457541687e-4
2018,21720,0,-1.2196718731835455e-4
2018,21720,1,-4.3138070651631635e-4
2018,21720,2,-1.984193377151161e-4
2018,21720,3,-0.001539864549629926
2018,21720,4,-1.1398425409364387e-4
2018,21720,12,-1.532572129135488e-4
2018,21740,0,-1.0666542789660989e-4
2018,21740,1,-3.787075554707242e-4
2018,21740,2,-8.795518639249434e-4
2018,21740,3,-3.224382212079886e-6
2018,21740,4,-1.1328098063250424e-4
2018,21740,12,-3.2064115372890974e-4
2019,10110,0,-9.136966557382887e-4
2019,10110,1,-0.002695580625055254
2019,10110,2,-0.0013065537511369554
2019,10110,3,-0.017118076926907307
2019,10110,4,-9.363822510522989e-4
2019,10110,12,-0.0011859793343489925
2019,10112,0,-6.190801570352825e-4
2019,10112,1,-0.0028320068453569235
2019,10112,2,-0.0011284780157730845
2019,10112,3,-0.08466698198545458
2019,10112,4,-7.723230986161278e-4
2019,10112,12,-9.798516867586783e-4
2019,10115,0,-0.019968817499374906
2019,10115,1,-0.0603261980039042
2019,10115,2,-0.025101725420315354
2019,10115,4,-0.015602199734932602
2019,10115,12,-0.018343445840829958
2019,10130,0,-3.7765654923214244e-4
2019,10130,1,-0.0011818609128036012
2019,10130,2,-5.456599135573819e-4
2019,10130,3,-0.0012803913048160444
2019,10130,4,-3.8352140096097455e-4
2019,10130,12,-4.570161789504509e-4
2019,10210,0,-2.0340033456649347e-4
2019,10210,1,-6.338511837224978e-4
2019,10210,2,-3.8799257939988065e-4
2019,10210,3,-4.668484895206784e-4
2019,10210,4,-2.0526235193111045e-4
2019,10210,12,-2.6876140142490765e-4
2019,10261,0,-2.020996974205871e-4
2019,10261,1,-3.758710811408416e-4
2019,10261,2,-3.585596938752071e-4
2019,10261,3,-1.9451768658727128e-4
2019,10261,4,-1.011068033637979e-4
2019,10261,12,-1.9318782183936055e-4
2019,10285,0,-2.667263706128267e-4
2019,10285,1,-0.0027854153346420266
2019,10285,2,-3.4232984447841823e-4
2019,10285,3,-0.0014581494772022583
2019,10285,4,-2.5194832749333323e-4
2019,10285,12,-7.909964111902644e-4
2019,21720,0,-8.822644841485747e-5
2019,21720,1,-4.0051473839579187e-4
2019,21720,2,-2.4222925161532894e-4
2019,21720,3,-0.0065791112215508665
2019,21720,4,-1.4536734054934665e-4
2019,21720,12,-1.7202634921011976e-4
2019,21740,0,-1.5780910874877823e-4
2019,21740,1,-3.9548779745321943e-4
2019,21740,2,-3.2333427315197434e-4
2019,21740,3,-6.0602069862937755e-5
2019,21740,4,-1.54072923731626e-4
2019,21740,12,-1.8164781993508107e-4
2021,10110,0,-5.92920069004203e-4
2021,10110,1,-0.0033703539679872563
2021,10110,2,-0.0019588763826110032
2021,10110,3,-0.0063633482571272635
2021,10110,4,-4.8605733876345714e-4
2021,10110,12,-0.001553522548177285
2021,10112,0,-7.503353374833033e-4
2021,10112,1,-0.0033147712293823332
2021,10112,2,-0.001366253657265056
2021,10112,3,-0.0025259054451626283
2021,10112,4,-6.244714123449207e-4
2021,10112,12,-0.0011669906616914483
2021,10115,0,-0.014877659449592502
2021,10115,1,-0.11084948170077873
2021,10115,2,-0.027115560079512543
2021,10115,4,-0.0194932656894288
2021,10115,12,-0.030170333485387023
2021,10130,0,-2.9376764008618713e-4
2021,10130,1,-8.652600826182441e-4
2021,10130,2,-3.9781572069710577e-4
2021,10130,3,-0.002016880549147131
2021,10130,4,-3.176156812569001e-4
2021,10130,12,-3.228191945204257e-4
2021,10210,0,-3.954663146028776e-4
2021,10210,1,-0.0011302758047157138
2021,10210,2,-5.289795919372253e-4
2021,10210,3,-2.1353813418696066e-4
2021,10210,4,-3.184022965556097e-4
2021,10210,12,-3.887465023908852e-4
2021,10261,0,-8.508159204542299e-5
2021,10261,1,-2.7294205897810883e-4
2021,10261,2,-2.602782639837246e-4
2021,10261,3,-4.4248702798119455e-6
2021,10261,4,-5.1947171776792e-5
2021,10261,12,-2.3425206020076395e-4
2021,21720,0,-1.242314389336868e-4
2021,21720,1,-3.1767017315222535e-4
2021,21720,2,-1.9545679286639737e-4
2021,21720,3,-6.021504499404512e-4
2021,21720,4,-1.0805464542793914e-4
2021,21720,12,-1.2868194756913666e-4
2021,21740,0,-1.7474295089492205e-4
2021,21740,1,-3.926743357339705e-4
2021,21740,2,-4.15702268124196e-4
2021,21740,3,-1.0946632869850457e-5
2021,21740,4,-1.921826064599566e-4
2021,21740,12,-2.068538564845781e-4
2022,10210,0,-3.642462388393712e-4
2022,10210,1,-9.898541618095242e-4
2022,10210,2,-6.713876935152016e-4
2022,10210,3,-0.003792099369171953
2022,10210,4,-3.824279231325935e-4
2022,10210,12,-4.263151508231765e-4
2022,10261,0,-9.044885259095251e-5
2022,10261,1,-5.823139360363278e-4
2022,10261,2,-2.475999149477555e-4
2022,10261,3,-9.72844574054783e-7
2022,10261,4,-1.1122410353073202e-4
2022,10261,12,-2.516913793345551e-4
2022,21720,0,-1.2230356052904257e-4
2022,21720,1,-1.967532713406562e-4
2022,21720,2,-2.582676949800257e-4
2022,21720,3,-1.1336959598974496e-4
2022,21720,4,-1.336116672422145e-4
2022,21720,12,-1.1627544313735746e-4
2022,21740,0,-1.766394439558035e-4
2022,21740,1,-2.1819594105866897e-4
2022,21740,2,-3.5527244582626106e-4
2022,21740,3,-4.5793805207546e-6
2022,21740,4,-1.7574909144086784e-4
2022,21740,12,-1.4184571221761608e-4
2023,21740,0,-1.3523144759069715e-4
2023,21740,1,-2.8560567773846726e-4
2023,21740,2,-1.9272244243130247e-4
2023,21740,3,-1.4920498532889088e-5
2023,21740,4,-1.2308051732968717e-4
2023,21740,12,-1.184679571578154e-4
