year,species_code,sex,bias
1982,10110,0,-0.00220800514213935
1982,10110,1,-0.0018879965859736475
1982,10110,2,-0.007987464134279185
1982,10110,3,-0.014520953904965665
1982,10110,4,-0.0021873122250840545
1982,10110,12,-0.002241599190713113
1982,10115,0,-0.0033006183473073083
1982,10115,1,-0.0013832825963171977
1982,10115,2,-0.006992337653502416
1982,10115,3,-0.09113389336711339
1982,10115,4,-0.003834183886958698
1982,10115,12,-0.002190418793799813
1982,10130,0,-7.520262610199894e-4
1982,10130,1,-0.0019522299197031112
1982,10130,2,-0.001050535605289661
1982,10130,3,-4.6194016014548694e-5
1982,10130,4,-8.526031891713328e-4
1982,10130,12,-7.989729084356168e-4
1982,10210,0,-1.8198702453618346e-4
1982,10210,1,-1.462293074691361e-4
1982,10210,2,-2.7387958355861016e-4
1982,10210,3,-0.03437997801212189
1982,10210,4,-1.0473626874284098e-4
1982,10210,12,-1.3690272050010947e-4
1982,10285,0,-1.1721042343913866e-4
1982,10285,1,-0.005423829987276863
1982,10285,2,-6.256948093376507e-4
1982,10285,4,-2.196195331223517e-4
1982,10285,12,-0.0015733649961551398
1982,21740,0,-3.4762132924731274e-6
1982,21740,1,-2.1390948050084706e-5
1982,21740,2,-2.1023285677450393e-6
1982,21740,3,-6.183341348178512e-5
1982,21740,4,-2.0644606321764694e-6
1982,21740,12,-8.779423249126182e-6
1983,10210,0,-1.5782104580924745e-4
1983,10210,1,-6.767436498306689e-4
1983,10210,2,-1.875241689676673e-4
1983,10210,3,-3.2801724574883784e-4
1983,10210,4,-1.3409079144053085e-4
1983,10210,12,-1.6806506683319163e-4
1983,21740,0,-7.333905301755636e-6
1983,21740,1,-1.940036172686046e-5
1983,21740,2,-1.578522776714717e-5
1983,21740,3,-2.4606460644119803e-4
1983,21740,4,-5.858084224889692e-6
1983,21740,12,-1.1444720323145745e-5
1984,10210,0,-2.242101054743372e-4
1984,10210,1,-2.7563679998327087e-4
1984,10210,2,-1.222050294442041e-4
1984,10210,3,-0.005208238440569226
1984,10210,4,-8.505640171319501e-5
1984,10210,12,-9.186222668588672e-5
1984,21720,0,-4.353759585687349e-4
1984,21720,1,-0.0017713695247567856
1984,21720,2,-0.00188175830146262
1984,21720,3,-0.0024948568597137075
1984,21720,4,-9.75146803225748e-4
1984,21720,12,-8.328355909506402e-4
1984,21740,0,-1.4093118829251081e-5
1984,21740,1,-1.898800627594044e-5
1984,21740,2,-1.6948792589221774e-5
1984,21740,3,-8.515248000042577e-5
1984,21740,4,-9.342310259705568e-6
1984,21740,12,-7.73660506079605e-6
1985,10130,0,-2.5263147724587597e-4
1985,10130,1,-0.0026068790378559374
1985,10130,2,-2.024662480390113e-4
1985,10130,4,-3.4314834408399284e-4
1985,10130,12,-6.216011009301853e-4
1985,10210,0,-2.2912170269058429e-4
1985,10210,1,-1.5266001130208234e-4
1985,10210,2,-1.8154451474161737e-4
1985,10210,4,-8.226725932809127e-5
1985,10210,12,-8.682380389290354e-5
1985,21740,0,-5.521057329756587e-6
1985,21740,1,-2.020009239902889e-4
1985,21740,2,-1.2050293568828242e-5
1985,21740,3,-6.638391603876341e-6
1985,21740,4,-4.30678482371967e-6
1985,21740,12,-3.3277853640164395e-5
1986,10210,0,-5.085747689763591e-4
1986,10210,1,-0.0011187908415023638
1986,10210,2,-1.671136385856501e-4
1986,10210,4,-2.698485500559737e-4
1986,10210,12,-2.6694645407074916e-4
1986,21740,0,-2.9448717121119313e-5
1986,21740,1,-3.282751434845572e-5
1986,21740,2,-0.00016843174857418652
1986,21740,3,-2.1773519879702267e-4
1986,21740,4,-2.6323298328777895e-5
1986,21740,12,-4.211774334321935e-5
1987,10210,0,-3.196512973496928e-4
1987,10210,1,-7.596277610859416e-4
1987,10210,2,-4.002272771411962e-4
1987,10210,4,-1.918848685395464e-4
1987,10210,12,-3.1227185363648727e-4
1987,21740,0,-8.669919714093708e-6
1987,21740,1,-7.211583963816612e-6
1987,21740,2,-1.9228486094656544e-5
1987,21740,3,-1.9854025593901933e-4
1987,21740,4,-7.381760039836683e-6
1987,21740,12,-6.484377508981348e-6
1988,10210,0,-1.9870789213879001e-4
1988,10210,1,-0.0015660208369421356
1988,10210,2,-4.7146750633573326e-4
1988,10210,4,-3.243582018302414e-4
1988,10210,12,-5.3789878649188e-4
1988,10285,0,-0.0015303686287644611
1988,10285,1,-0.004017469845577327
1988,10285,2,-0.005074747862633493
1988,10285,4,-0.001754464866358145
1988,10285,12,-0.0023956214225882675
1988,21720,0,-1.7203264778278306e-4
1988,21720,1,-1.8029320201619738e-4
1988,21720,2,-2.1416924029670206e-5
1988,21720,3,-5.238395543403149e-4
1988,21720,4,-3.429552194275534e-5
1988,21720,12,-6.359165344335747e-5
1988,21740,0,-1.6096312897709407e-5
1988,21740,1,-1.8000698997823459e-4
1988,21740,2,-3.0293628928181662e-5
1988,21740,3,-7.094283617239121e-5
1988,21740,4,-1.4419777996475806e-5
1988,21740,12,-4.14556499391161e-5
1989,10210,0,-2.7824701057914495e-4
1989,10210,1,-5.048031263748256e-4
1989,10210,2,-8.574188870611762e-4
1989,10210,4,-3.9675102812183357e-4
1989,10210,12,-3.700620124864559e-4
1989,21720,0,6.516263830168204e-4
1989,21720,1,6.24093313218716e-4
1989,21720,2,6.04166674897051e-4
1989,21720,3,-0.011802468931215889
1989,21720,4,6.65636557295498e-4
1989,21720,12,3.079330547575885e-4
1989,21740,0,-5.637993798818272e-5
1989,21740,1,-2.187202833148875e-4
1989,21740,2,-1.7581298529796067e-4
1989,21740,3,-1.6832710939295906e-5
1989,21740,4,-6.373584455257752e-5
1989,21740,12,-1.0885091836714067e-4
1990,10210,0,-2.399369486395789e-4
1990,10210,1,-9.057832267388813e-4
1990,10210,2,-2.1432792532779306e-4
1990,10210,3,-0.05682340928417486
1990,10210,4,-2.0642693383092793e-4
1990,10210,12,-3.0850578770916145e-4
1990,21720,0,-2.346559989308103e-5
1990,21720,1,-1.914301277512506e-4
1990,21720,2,-1.5717011131114375e-4
1990,21720,3,-0.005637310102584468
1990,21720,4,-1.99361647608108e-5
1990,21720,12,-8.35035095168171e-5
1990,21740,0,-9.940550737246357e-5
1990,21740,1,-6.672414235963246e-5
1990,21740,2,-2.671294651512438e-4
1990,21740,3,-1.8988272814884997e-5
1990,21740,4,-1.2696405368856336e-4
1990,21740,12,-7.885618213642812e-5
1991,10210,0,-3.060524847004298e-4
1991,10210,1,-9.070235693553384e-4
1991,10210,2,-3.4202032886768445e-4
1991,10210,4,-1.958367749780119e-4
1991,10210,12,-3.307590368054325e-4
1991,21720,0,-8.326180541873555e-5
1991,21720,1,-3.607218882760606e-4
1991,21720,2,-1.6828963976236026e-5
1991,21720,3,-0.017783619937021995
1991,21720,4,-8.388616959760849e-6
1991,21720,12,-1.4099319379328305e-4
1991,21740,0,-1.5862011392272905e-4
1991,21740,1,-3.821122691802903e-4
1991,21740,2,-3.59272523557605e-4
1991,21740,3,-6.162475297268434e-6
1991,21740,4,-1.243516940970274e-4
1991,21740,12,-1.8706254122694455e-4
1992,10130,0,-4.4502244125110363e-4
1992,10130,1,-0.0029567035669526287
1992,10130,2,-0.001132260116293477
1992,10130,3,-0.0013662004928739087
1992,10130,4,-8.299145500317629e-4
1992,10130,12,-0.0010627388011496465
1992,10210,0,-1.7932846979608637e-4
1992,10210,1,-9.030058163128547e-4
1992,10210,2,-2.4306644396808252e-4
1992,10210,4,-1.1513686094682475e-4
1992,10210,12,-3.0909357732145527e-4
1992,10285,0,-6.934950489959391e-4
1992,10285,1,-5.846381785214011e-4
1992,10285,2,-0.002157819388662825
1992,10285,4,-5.940959304048825e-4
1992,10285,12,-8.464481054735654e-4
1992,21720,0,-1.242061214057164e-5
1992,21720,1,-6.402329444623085e-5
1992,21720,2,1.0593367216098859e-4
1992,21720,3,-0.006723514326749724
1992,21720,4,3.731280915588894e-5
1992,21720,12,3.027511589580389e-6
1992,21740,0,-5.240957903716772e-5
1992,21740,1,-1.9457664915193285e-4
1992,21740,2,-2.5957044021698226e-4
1992,21740,3,-7.034357657105556e-6
1992,21740,4,-7.622166380920431e-5
1992,21740,12,-1.0581960270517995e-4
1993,10110,0,-0.001706778431608079
1993,10110,1,-0.004994670267173969
1993,10110,2,-0.001970881378948485
1993,10110,3,-0.20852014828099433
1993,10110,4,-0.001897473971215771
1993,10110,12,-0.001951281279830906
1993,10130,0,-0.0025373152942917325
1993,10130,1,-0.0034501678437985433
1993,10130,2,-0.004840264452321537
1993,10130,3,-0.07532183896810446
1993,10130,4,-0.002397921654004717
1993,10130,12,-0.0025762494450546412
1993,10210,0,-3.679097313117102e-4
1993,10210,1,-0.002222640251386413
1993,10210,2,-2.0231143652632325e-4
1993,10210,3,-0.0012215288296948605
1993,10210,4,-4.4676643649704123e-4
1993,10210,12,-6.619134477858637e-4
1993,10285,0,-0.0026513548838325825
1993,10285,1,-0.005453816399328425
1993,10285,2,-0.0036046471928380206
1993,10285,3,-0.004521346614646073
1993,10285,4,-0.0033951687866429934
1993,10285,12,-0.0026040829227674425
1993,21720,0,-7.603423889302389e-5
1993,21720,1,-1.120342244901688e-18
1993,21720,2,-1.8804864423965084e-4
1993,21720,3,-0.006063587586830135
1993,21720,4,-7.040438850420483e-5
1993,21720,12,-3.521771362919545e-5
1993,21740,0,-5.57585839468171e-5
1993,21740,1,-3.459943597216072e-4
1993,21740,2,-8.092181901259653e-5
1993,21740,3,-1.4809894463278727e-4
1993,21740,4,-3.532436099418557e-5
1993,21740,12,-9.513341900698231e-5
1994,10110,0,-0.005605853730699023
1994,10110,1,-0.010157263922680845
1994,10110,2,-0.0019542198294685356
1994,10110,3,-0.34285714285714286
1994,10110,4,-0.0025598848139798914
1994,10110,12,-0.0032814913175119847
1994,10130,0,-9.316817026285383e-4
1994,10130,1,-0.0024808436752086363
1994,10130,2,-0.0014248269855664667
1994,10130,3,-2.0279328926889098e-4
1994,10130,4,-9.467524168323718e-4
1994,10130,12,-9.213753845971078e-4
1994,10210,0,-1.8174114980178553e-4
1994,10210,1,-3.925479092588988e-4
1994,10210,2,-0.0021687437977080623
1994,10210,4,-1.5191442943716257e-4
1994,10210,12,-6.361265645779681e-4
1994,10285,0,-4.729085624928673e-4
1994,10285,1,-0.002123457188655088
1994,10285,2,-0.002597645530884056
1994,10285,4,-4.256156379855012e-4
1994,10285,12,-0.0012514066721231191
1994,21720,0,-4.368652934264936e-6
1994,21720,1,-9.735796368642737e-6
1994,21720,2,-6.381529585679254e-5
1994,21720,3,-0.0022771919518925292
1994,21720,4,-1.2224524012539823e-5
1994,21720,12,-1.9534290712600626e-5
1994,21740,0,-3.187142842519784e-4
1994,21740,1,-3.6219076452592274e-4
1994,21740,2,-6.960091635821571e-4
1994,21740,3,-0.0011605890899699493
1994,21740,4,-3.048190995549396e-4
1994,21740,12,-2.6392466337340034e-4
1995,10130,0,-3.453894394340459e-4
1995,10130,1,-0.002361694064648524
1995,10130,2,-6.649907414519899e-4
1995,10130,3,-0.0014293651000491974
1995,10130,4,-4.098172610729523e-4
1995,10130,12,-7.018706036795868e-4
1995,10210,0,-1.1469760396623856e-4
1995,10210,1,-3.8365361416922554e-4
1995,10210,2,-2.644295256399629e-4
1995,10210,4,-1.4475144247351582e-4
1995,10210,12,-1.8288142043771128e-4
1995,10285,0,-0.0011677707796072282
1995,10285,1,-0.0010972418809714504
1995,10285,2,-0.003514241576975164
1995,10285,4,-0.0013213474537778803
1995,10285,12,-0.0011846733132272655
1995,21720,0,6.747424950515476e-6
1995,21720,1,-7.682041115792288e-5
1995,21720,2,6.172131686592293e-5
1995,21720,3,2.0816681711721685e-17
1995,21720,4,-3.5914196963582334e-18
1995,21720,12,-1.91126624570657e-5
1995,21740,0,-4.118374644906524e-5
1995,21740,1,-1.516948326146659e-4
1995,21740,2,-2.5265597771416205e-5
1995,21740,3,-3.5413277988751235e-5
1995,21740,4,-8.466621482332255e-5
1995,21740,12,-5.293583784985128e-5
1996,10110,0,-0.001858006752275649
1996,10110,1,-0.003937917279250048
1996,10110,2,-0.0022175591240077472
1996,10110,3,-0.010675294489408849
1996,10110,4,-0.001817218613810048
1996,10110,12,-0.002078359521240667
1996,10210,0,-3.714462169353381e-4
1996,10210,1,-5.179375207899399e-4
1996,10210,2,-3.79926322469678e-4
1996,10210,3,-3.3320371625144977e-4
1996,10210,4,-2.6041877548262473e-4
1996,10210,12,-2.2479945832888315e-4
1996,10261,0,-3.33009860443401e-5
1996,10261,1,-9.151025015012614e-5
1996,10261,2,-1.099196270793412e-4
1996,10261,3,-1.1492543028346347e-17
1996,10261,4,-5.074360978393451e-5
1996,10261,12,-6.507545929922452e-5
1996,21720,0,-7.666086381527452e-5
1996,21720,1,-4.192336978513327e-4
1996,21720,2,-3.2813338340676026e-4
1996,21720,3,-1.0408340855860843e-17
1996,21720,4,-1.5437936022744513e-4
1996,21720,12,-1.6671911149618204e-4
1996,21740,0,-7.743253472445785e-5
1996,21740,1,-7.478559701354786e-5
1996,21740,2,-1.043526251397172e-4
1996,21740,3,-3.810388108147391e-4
1996,21740,4,-4.6976917259256796e-5
1996,21740,12,-4.405526039839854e-5
1997,10210,0,-2.2832825925085524e-4
1997,10210,1,-1.2543895366213883e-4
1997,10210,2,-4.2099284269605483e-4
1997,10210,3,-0.01969702718866775
1997,10210,4,-2.169925509528946e-4
1997,10210,12,-1.650592583719572e-4
1997,10261,0,-1.725571518976207e-4
1997,10261,1,-0.0034920789573875113
1997,10261,2,-4.436546429495674e-4
1997,10261,3,-4.480087303865045e-5
1997,10261,4,-1.809550295019925e-4
1997,10261,12,-7.139127174153342e-4
1997,21720,0,-2.73840337688818e-5
1997,21720,1,-1.3045142432928066e-5
1997,21720,2,-1.7281992487466392e-4
1997,21720,3,-3.6051924246036093e-4
1997,21720,4,-8.0443798912717e-5
1997,21720,12,-6.574803785805111e-5
1997,21740,0,-3.061934479501251e-5
1997,21740,1,-4.545932956664777e-5
1997,21740,2,-1.1644546808564262e-4
1997,21740,3,-4.1711350915115565e-7
1997,21740,4,-3.754229090346481e-5
1997,21740,12,-4.009273954784008e-5
1998,10110,0,-6.809428786458863e-4
1998,10110,1,-0.008180626745318796
1998,10110,2,-6.325005032072953e-4
1998,10110,3,-0.09732304074622111
1998,10110,4,-4.997991581668144e-4
1998,10110,12,-0.0028789231677005664
1998,10115,0,-0.004111227347441169
1998,10115,1,-0.01442132035583021
1998,10115,2,-0.01948732460683416
1998,10115,3,-0.43979610144269843
1998,10115,4,-0.005903967190577123
1998,10115,12,-0.008624020940183224
1998,10210,0,-2.592825224231006e-4
1998,10210,1,-5.604876720355999e-4
1998,10210,2,-2.004187429616487e-4
1998,10210,3,-9.643409963719276e-4
1998,10210,4,-1.1725447532472153e-4
1998,10210,12,-1.9047790936909358e-4
1998,10261,0,-8.309715943146551e-5
1998,10261,1,-3.7588535939386033e-4
1998,10261,2,-1.9893915431612973e-4
1998,10261,3,-8.056339254697027e-4
1998,10261,4,-8.670052788966432e-5
1998,10261,12,-1.5303528150778677e-4
1998,10285,0,-5.431585003434495e-4
1998,10285,1,-4.873927679843086e-4
1998,10285,2,-5.900136885119359e-4
1998,10285,4,-3.5559653464230977e-4
1998,10285,12,-3.274863595809959e-4
1998,21720,0,-1.0621841608459881e-4
1998,21720,1,-2.1135097180620274e-4
1998,21720,2,-1.4577922647362494e-4
1998,21720,3,-0.0038255785700017572
1998,21720,4,-1.301742566884666e-4
1998,21720,12,-1.0505079453702067e-4
1998,21740,0,-2.4663744155942895e-5
1998,21740,1,-3.656695894333973e-6
1998,21740,2,-4.111485814894689e-5
1998,21740,3,-3.608101072589458e-6
1998,21740,4,-1.7567911922689464e-5
1998,21740,12,-1.0567617816230169e-5
1999,10130,0,-6.181094241394265e-4
1999,10130,1,-9.529759947199609e-4
1999,10130,2,-6.948874137020589e-4
1999,10130,3,-0.002764428015019269
1999,10130,4,-3.8304264755454855e-4
1999,10130,12,-3.9923490533119217e-4
1999,10210,0,-5.437643721463134e-5
1999,10210,1,-2.659196115798918e-4
1999,10210,2,1.540663858228452e-5
1999,10210,3,-9.294215261972798e-4
1999,10210,4,-3.088885015933532e-5
1999,10210,12,-5.951762658626875e-5
1999,10261,0,-2.034777201535738e-4
1999,10261,1,-0.0025652683975091414
1999,10261,2,-8.429934193405828e-4
1999,10261,3,-2.7755575615628915e-18
1999,10261,4,-0.0011927804270878105
1999,10261,12,-8.247505491946842e-4
1999,21720,0,-2.2511022557191867e-4
1999,21720,1,-1.323190961465483e-4
1999,21720,2,-1.7262706939311974e-4
1999,21720,3,-2.8067949866703024e-4
1999,21720,4,-8.124434379656981e-5
1999,21720,12,-8.665516495192136e-5
1999,21740,0,-2.972583932566519e-5
1999,21740,1,-3.2341354474721326e-5
1999,21740,2,-5.4582326488090144e-5
1999,21740,3,-6.614656537793299e-6
1999,21740,4,-1.949411444601972e-5
1999,21740,12,-2.1338108999221414e-5
2000,10130,0,-2.465334118085394e-4
2000,10130,1,-5.404121330476164e-4
2000,10130,2,-3.243487134429944e-4
2000,10130,3,-5.893785836447551e-4
2000,10130,4,-1.1888647803871492e-4
2000,10130,12,-2.0617790817548923e-4
2000,10210,0,-3.3766388540271033e-4
2000,10210,1,-8.95332790647479e-4
2000,10210,2,-3.0789154248196817e-4
2000,10210,3,-5.541680578497366e-4
2000,10210,4,-1.501849183850278e-4
2000,10210,12,-2.868841578391041e-4
2000,10261,0,-1.6860702555331208e-4
2000,10261,1,-2.491695615733424e-4
2000,10261,2,-5.050707609045412e-4
2000,10261,4,-1.0369142473458831e-4
2000,10261,12,-2.0471277612015167e-4
2000,10285,0,-9.905473604666672e-5
2000,10285,1,-0.002831604253213923
2000,10285,2,-3.7025053798090215e-4
2000,10285,3,-0.001604267697345193
2000,10285,4,-1.537564364424657e-4
2000,10285,12,-7.267508079901758e-4
2000,21720,0,-8.248061055731777e-5
2000,21720,1,-6.72276656987508e-5
2000,21720,2,-1.5068371111943003e-4
2000,21720,3,-1.4728104897753422e-4
2000,21720,4,-4.748360486052387e-5
2000,21720,12,-5.443843658869765e-5
2000,21740,0,-1.2618179376791212e-5
2000,21740,1,-5.401006689826242e-5
2000,21740,2,-1.114366166550323e-5
2000,21740,3,-2.271903285873487e-6
2000,21740,4,-1.0505437762084496e-5
2000,21740,12,-1.5734074563194952e-5
2001,10130,0,-4.4623519787507083e-4
2001,10130,1,-4.57828990099822e-4
2001,10130,2,-6.255162017003647e-4
2001,10130,3,-0.03268047948449257
2001,10130,4,-2.3681810536738075e-4
2001,10130,12,-2.377894132790672e-4
2001,10210,0,-3.0504066981906037e-4
2001,10210,1,-0.0012372288496116657
2001,10210,2,-2.431897695468804e-4
2001,10210,3,-5.810848630688393e-4
2001,10210,4,-2.769537369435861e-4
2001,10210,12,-3.2843200079607455e-4
2001,10261,0,-6.077419909819914e-5
2001,10261,1,-4.1633137411645785e-4
2001,10261,2,-1.8879936178351007e-4
2001,10261,4,-1.8377640221649158e-4
2001,10261,12,-1.6731914952027474e-4
2001,10285,0,-7.016191799833935e-4
2001,10285,1,-0.001989532308316527
2001,10285,2,-3.2816083304588366e-4
2001,10285,4,-8.809975222172831e-4
2001,10285,12,-6.041228336557236e-4
2001,21720,0,-2.864308753958599e-6
2001,21720,1,1.260385025514399e-18
2001,21720,2,-3.232949589755455e-5
2001,21720,3,-8.725971620092421e-5
2001,21720,4,-8.27514121736874e-6
2001,21720,12,-1.0373589391234967e-5
2001,21740,0,-1.2795844389854964e-18
2001,21740,1,-3.707543641640106e-6
2001,21740,2,-9.82301581215665e-6
2001,21740,3,-1.7276867092193893e-6
2001,21740,4,-4.768262320300663e-6
2001,21740,12,-1.0191839380244098e-5
2002,10130,0,-2.0915121560518003e-4
2002,10130,1,-3.1313891153414593e-4
2002,10130,2,-7.292856240884333e-4
2002,10130,3,-4.01606725919528e-4
2002,10130,4,-1.7452252952015806e-4
2002,10130,12,-0.00030297749771653315
2002,10210,0,-2.1793033832537906e-5
2002,10210,1,-7.086782721091765e-4
2002,10210,2,-1.9433779059710365e-4
2002,10210,3,-1.292209371666035e-4
2002,10210,4,-2.7389396592134782e-5
2002,10210,12,-2.1834895316087056e-4
2002,10261,0,-3.5343412197722006e-4
2002,10261,1,-7.536217189714957e-4
2002,10261,2,-1.4270070454511127e-4
2002,10261,3,-0.0015381966902503254
2002,10261,4,-7.172397618443025e-5
2002,10261,12,-2.1662893708476651e-4
2002,10285,0,-2.3093608316382416e-4
2002,10285,1,-9.741802217100946e-4
2002,10285,2,-3.0803303689956813e-4
2002,10285,3,-0.001021946890864879
2002,10285,4,-1.6174792587046537e-4
2002,10285,12,-2.82241262144268e-4
2002,21720,0,-1.8042787168389852e-5
2002,21720,1,-2.5281221250901987e-4
2002,21720,2,-1.3646997597567312e-4
2002,21720,3,-0.011663235334248498
2002,21720,4,-7.149028058053669e-5
2002,21720,12,-1.0086380008532667e-4
2002,21740,0,-6.657339357270945e-7
2002,21740,1,-8.074452833431728e-6
2002,21740,2,-2.2203280523751588e-5
2002,21740,3,-4.4524081521168235e-7
2002,21740,4,2.0280792200425466e-18
2002,21740,12,-7.096173950159266e-6
2003,10115,0,-5.712152902772333e-4
2003,10115,1,-0.0025405652100677976
2003,10115,2,-0.001588561331948953
2003,10115,3,-0.019006542232539177
2003,10115,4,-6.75010217451018e-4
2003,10115,12,-0.001068458504922076
2003,10130,0,-3.1683544620817106e-4
2003,10130,1,-6.170218941115944e-4
2003,10130,2,-9.018995225112958e-4
2003,10130,3,-0.001261367559667853
2003,10130,4,-4.4771827163571967e-4
2003,10130,12,-3.8972843082259894e-4
2003,10210,0,-1.2650037071257878e-4
2003,10210,1,-4.102815499034762e-4
2003,10210,2,-8.962409047779252e-5
2003,10210,3,1.767693496669172e-5
2003,10210,4,-1.1185949025869277e-4
2003,10210,12,-1.3505389706240558e-4
2003,10261,0,-2.1677491204355207e-4
2003,10261,1,-2.3097038087818364e-4
2003,10261,2,-7.2918270804395756e-6
2003,10261,3,-4.079311310585503e-5
2003,10261,4,-3.0950237291575875e-6
2003,10261,12,-8.337932170665215e-5
2003,21720,0,-1.2832860146185038e-5
2003,21720,1,2.7852630173285567e-5
2003,21720,2,-3.911245855143924e-4
2003,21720,3,-0.0022115843408451533
2003,21720,4,-5.025674535892403e-5
2003,21720,12,-9.16305591984388e-5
2003,21740,0,-6.978458413228498e-6
2003,21740,1,-2.23324436905302e-6
2003,21740,2,-8.807671902731553e-6
2003,21740,3,-1.0802158391047198e-5
2003,21740,4,-2.6482311441433614e-6
2003,21740,12,-2.8182249676817802e-6
2004,10110,0,-6.340678168433682e-5
2004,10110,1,-7.325958251457379e-4
2004,10110,2,-2.306890072610011e-4
2004,10110,3,-0.006405316596304153
2004,10110,4,-6.37476011018349e-5
2004,10110,12,-4.515672503140547e-4
2004,10115,0,-0.0017335273957448448
2004,10115,1,-0.007670796553699895
2004,10115,2,-0.0059796937780963845
2004,10115,4,-0.0022314880644612256
2004,10115,12,-0.0035866163124820003
2004,10130,0,-2.9874994085980636e-4
2004,10130,1,-0.0015289295381459378
2004,10130,2,-4.2635772759947924e-4
2004,10130,3,-3.424992866418299e-4
2004,10130,4,-5.999290733278479e-4
2004,10130,12,-5.783852268730961e-4
2004,10210,0,-4.163630674896043e-5
2004,10210,1,-3.8311906443317306e-4
2004,10210,2,-5.468567159779119e-5
2004,10210,3,-0.007724123059907124
2004,10210,4,-2.905725611844059e-5
2004,10210,12,-1.3940625867793594e-4
2004,10261,0,-4.347076772335344e-4
2004,10261,1,-0.002274978834345474
2004,10261,2,-6.179025415395641e-4
2004,10261,3,-1.3153633312956747e-4
2004,10261,4,-2.736382174590904e-4
2004,10261,12,-9.284285953689272e-4
2004,21720,0,-5.594857227991487e-5
2004,21720,1,-1.0395077220747969e-4
2004,21720,2,-2.0060597128192692e-4
2004,21720,3,-2.6931762972948523e-4
2004,21720,4,-1.342237991854018e-4
2004,21720,12,-4.8677078649985486e-5
2004,21740,0,-6.114681462294313e-6
2004,21740,1,-4.140609880328285e-5
2004,21740,2,-3.3194106781092236e-5
2004,21740,3,-7.643452616491984e-7
2004,21740,4,-5.206083846212489e-6
2004,21740,12,-2.0983838470941057e-5
2005,10115,0,-0.0010044425922233365
2005,10115,1,-0.006041599964332062
2005,10115,2,-0.0063969314517939605
2005,10115,3,-0.16231748919091804
2005,10115,4,-0.0021508306168701217
2005,10115,12,-0.00307954328733823
2005,10130,0,-3.410122282597457e-4
2005,10130,1,-7.54867925385502e-4
2005,10130,2,-8.25603658196922e-4
2005,10130,3,-7.91724167031497e-4
2005,10130,4,-2.6324313984859546e-4
2005,10130,12,-3.844350276035861e-4
2005,10210,0,-7.685059463322299e-5
2005,10210,1,-0.0017331395288685976
2005,10210,2,-8.504249663222667e-5
2005,10210,3,-0.15449353268032123
2005,10210,4,-4.653644767111459e-5
2005,10210,12,-3.929200641088514e-4
2005,10261,0,-1.0803836885087391e-4
2005,10261,1,-6.730721318220539e-4
2005,10261,2,-3.586374243387969e-4
2005,10261,3,-8.28270169359571e-4
2005,10261,4,-1.80638061685017e-4
2005,10261,12,-2.795401552387389e-4
2005,10285,0,-3.0191112543038063e-4
2005,10285,1,-0.0023931960553461146
2005,10285,2,-0.0010127908732309916
2005,10285,4,-2.447107644502405e-4
2005,10285,12,-8.586579106061251e-4
2005,21720,0,-5.90510596658583e-5
2005,21720,1,-1.0474084906934591e-4
2005,21720,2,-3.909600439191323e-4
2005,21720,3,-0.0016991296762186928
2005,21720,4,-6.960011532608796e-5
2005,21720,12,-9.608735107595663e-5
2005,21740,0,-1.5940520988442393e-5
2005,21740,1,-3.6102994987181785e-5
2005,21740,2,-2.7729586954857725e-5
2005,21740,3,-5.103520382276167e-6
2005,21740,4,-8.320986158023929e-6
2005,21740,12,-2.013523240456772e-5
2006,10115,0,-0.0018771692450905676
2006,10115,1,-0.012686675951391066
2006,10115,2,-0.005991817832515731
2006,10115,3,-0.03243488439309015
2006,10115,4,-0.002428793686545785
2006,10115,12,-0.0043231994245706016
2006,10130,0,-1.59280356378504e-4
2006,10130,1,-4.7764525236371024e-4
2006,10130,2,-3.340992083780802e-4
2006,10130,3,-0.007754981565808568
2006,10130,4,-1.4015890183543894e-4
2006,10130,12,-2.1195626754986368e-4
2006,10210,0,-2.9913876274173117e-4
2006,10210,1,-0.002642846158024215
2006,10210,2,-2.4073226447076125e-4
2006,10210,3,-7.937199266052272e-4
2006,10210,4,-2.1878137426381198e-4
2006,10210,12,-5.031449919372379e-4
2006,10261,0,-1.2483784821159627e-4
2006,10261,1,-3.982409873386119e-4
2006,10261,2,-3.052225223971343e-4
2006,10261,3,-1.5208338470743682e-5
2006,10261,4,-1.297432872927313e-4
2006,10261,12,-1.6116309242799904e-4
2006,10285,0,-5.44764108680655e-4
2006,10285,1,-0.0029500717519442775
2006,10285,2,-0.0014879366868656566
2006,10285,3,-0.0018809732140625504
2006,10285,4,-6.488741062511222e-4
2006,10285,12,-0.0012656101412895973
2006,21720,0,-1.3936992186602698e-4
2006,21720,1,-2.17045719816908e-4
2006,21720,2,-9.14943795789102e-5
2006,21720,3,-5.600746559436974e-4
2006,21720,4,-6.67808751045059e-5
2006,21720,12,-7.60262089395426e-5
2006,21740,0,-7.74961820047638e-6
2006,21740,1,-1.9166116345214755e-4
2006,21740,2,-1.2226077449322635e-4
2006,21740,3,-2.0427327216314194e-5
2006,21740,4,-8.988006039891036e-5
2006,21740,12,-8.045422998637353e-5
2007,10115,0,-0.0010060517385146407
2007,10115,1,-0.005025207912277576
2007,10115,2,-0.005547938011238382
2007,10115,3,-0.16279135844453185
2007,10115,4,-0.001110165537796973
2007,10115,12,-0.0027659960493627016
2007,10130,0,-1.6640607469424994e-4
2007,10130,1,-5.127672967878525e-5
2007,10130,2,-6.025236425519685e-4
2007,10130,3,-9.163531470735663e-4
2007,10130,4,-1.5607027014731396e-4
2007,10130,12,-1.383795693046547e-4
2007,10210,0,-1.2211871647437045e-4
2007,10210,1,-0.0012516811708475429
2007,10210,2,-2.6710029782156183e-4
2007,10210,3,-0.012592894984283112
2007,10210,4,-1.7187168177147145e-4
2007,10210,12,-2.9631306609859863e-4
2007,10261,0,-1.3318268318917304e-4
2007,10261,1,-2.8560848470291487e-5
2007,10261,2,-3.2271610236380734e-4
2007,10261,3,-1.6840347733407205e-5
2007,10261,4,-1.481457818654095e-4
2007,10261,12,-1.1989125482540333e-4
2007,10285,0,-2.6619631652311285e-4
2007,10285,1,-0.0010593992734575764
2007,10285,2,-0.0012060752044270476
2007,10285,3,-9.323240847925069e-4
2007,10285,4,-1.974873577111207e-4
2007,10285,12,-6.355501307197336e-4
2007,21720,0,1.6204304969606268e-18
2007,21720,1,-5.617127967782095e-6
2007,21720,2,-2.1056818164718835e-5
2007,21720,3,-1.1283303794665371e-6
2007,21720,4,-5.553825628556997e-18
2007,21720,12,-6.961633112790458e-6
2007,21740,0,-1.3846797043471548e-5
2007,21740,1,4.377101545404398e-6
2007,21740,2,-1.6596565435957332e-4
2007,21740,3,-8.158538995701776e-8
2007,21740,4,-2.3903765786746608e-5
2007,21740,12,-4.47107999847072e-5
2008,10115,0,-0.0011218905157523074
2008,10115,1,-0.006303594448796181
2008,10115,2,-0.005417968299419716
2008,10115,3,-0.0029132392040805625
2008,10115,4,-0.001378585016034695
2008,10115,12,-0.0036647975400957563
2008,10130,0,-2.8448403251339735e-4
2008,10130,1,-5.619581395122379e-4
2008,10130,2,-4.657656842424507e-4
2008,10130,3,-8.688969129068809e-4
2008,10130,4,-1.2082987125766254e-4
2008,10130,12,-2.1568446506474095e-4
2008,10210,0,-7.590761850970971e-5
2008,10210,1,-3.589690082927655e-4
2008,10210,2,-1.4038343370162125e-4
2008,10210,3,-0.034784008000698044
2008,10210,4,-9.520961883110576e-5
2008,10210,12,-1.4479342933351597e-4
2008,10261,0,-4.8221079923463454e-4
2008,10261,1,-0.0010044716597586876
2008,10261,2,-0.0023977913646611544
2008,10261,3,-0.023304325490148648
2008,10261,4,-0.0010620771074111813
2008,10261,12,-8.963969749285659e-4
2008,10285,0,-6.976282281145868e-4
2008,10285,1,-0.001399524527716877
2008,10285,2,-8.075119243370535e-4
2008,10285,4,-8.770337772221451e-4
2008,10285,12,-5.747757276727359e-4
2008,21720,0,-6.540219946920749e-5
2008,21720,1,-1.602266012986877e-5
2008,21720,2,-3.7935753637543724e-5
2008,21720,3,-0.04915637070652579
2008,21720,4,-2.0888209056615942e-5
2008,21720,12,-1.332703307920368e-5
2008,21740,0,-4.2311051940377714e-5
2008,21740,1,-7.710442932817311e-5
2008,21740,2,-1.3637476290568026e-4
2008,21740,3,-7.965607796606147e-4
2008,21740,4,-4.537932575793012e-5
2008,21740,12,-4.360963320169491e-5
2009,10115,0,-0.0010195858948689358
2009,10115,1,-0.006721385816972072
2009,10115,2,-0.006450613384374801
2009,10115,3,-4.8598718904530286e-4
2009,10115,4,-0.0011521196688500164
2009,10115,12,-0.003087132956428113
2009,10130,0,-8.128064245607224e-6
2009,10130,1,-1.2030010662765912e-4
2009,10130,2,-3.098628035180917e-4
2009,10130,3,-0.0028817890268645597
2009,10130,4,-5.271757225397887e-5
2009,10130,12,-9.881221684550012e-5
2009,10210,0,-1.1711207514056987e-4
2009,10210,1,-1.224655895399291e-4
2009,10210,2,-6.74729820052728e-5
2009,10210,3,-4.916749657811074e-4
2009,10210,4,-3.9657259920506765e-5
2009,10210,12,-5.7388766724874766e-5
2009,10261,0,-3.120243123880755e-5
2009,10261,1,-1.9807111412758758e-5
2009,10261,2,-1.0701025771578616e-4
2009,10261,3,-1.8824847719142195e-5
2009,10261,4,-5.380280688828699e-5
2009,10261,12,-4.4952400724673224e-5
2009,10285,0,-1.0685585993418893e-6
2009,10285,1,-1.3785147516106997e-4
2009,10285,2,-8.144631091629935e-6
2009,10285,3,-0.01315351102040907
2009,10285,4,-3.517013159310515e-6
2009,10285,12,-5.557699675646902e-5
2009,21720,0,7.670730240593923e-6
2009,21720,1,1.0358879217082299e-5
2009,21720,2,-2.089174186212453e-18
2009,21720,3,-2.6141233789661373e-5
2009,21720,4,3.820243278740042e-6
2009,21720,12,2.6735506377095033e-6
2009,21740,0,-1.3614294550884472e-5
2009,21740,1,-6.73712071453244e-5
2009,21740,2,-1.1123604431815244e-5
2009,21740,3,-1.0628636317485874e-5
2009,21740,4,-7.755903359156193e-6
2009,21740,12,-2.299828689092079e-5
2010,10110,0,-1.3047033396113077e-4
2010,10110,1,-0.0014195606437915295
2010,10110,2,-1.6311727682166032e-4
2010,10110,3,-0.010201200234462434
2010,10110,4,-1.2393693069857276e-4
2010,10110,12,-3.2774513473884763e-4
2010,10115,0,-3.076155068825605e-4
2010,10115,1,-0.001345809370092638
2010,10115,2,-0.003695572956062489
2010,10115,3,-9.392005989494508e-4
2010,10115,4,-5.724705114595749e-4
2010,10115,12,-0.0015444919401057947
2010,10130,0,-1.3472795005174212e-4
2010,10130,1,-5.468776529257747e-4
2010,10130,2,-2.3878752290031828e-4
2010,10130,3,-0.0017940879575301845
2010,10130,4,-1.8604277450102742e-4
2010,10130,12,-3.0907495716826e-4
2010,10210,0,-1.5876703375863817e-4
2010,10210,1,-4.15075383095672e-4
2010,10210,2,-1.3569384812117915e-4
2010,10210,3,-2.477059545444886e-4
2010,10210,4,-1.563708307125422e-4
2010,10210,12,-1.4110116157130986e-4
2010,10261,0,-1.5841671909694332e-4
2010,10261,1,-3.053536938319532e-4
2010,10261,2,-4.2009454721090244e-4
2010,10261,3,-0.006160077505337129
2010,10261,4,-1.645989748498228e-4
2010,10261,12,-2.057108777416651e-4
2010,10285,0,-2.446463191185995e-4
2010,10285,1,-3.303442294005266e-4
2010,10285,2,-2.308415273681466e-4
2010,10285,4,-1.4052023491047425e-4
2010,10285,12,-1.811366308143605e-4
2010,21720,0,-9.533113718268832e-6
2010,21720,1,-5.198735434396637e-5
2010,21720,2,-1.3016188317618336e-5
2010,21720,3,1.3877787807814457e-17
2010,21720,4,-2.6686775386917916e-5
2010,21720,12,-1.6203723693262564e-5
2010,21740,0,-4.597595964180615e-6
2010,21740,1,-8.848836976286012e-6
2010,21740,2,-1.2739217637221624e-5
2010,21740,3,-1.7028256938378214e-5
2010,21740,4,-4.811318510012431e-6
2010,21740,12,-6.970942156190898e-6
2011,10115,0,-2.4128062099685137e-4
2011,10115,1,-0.0016384479583750986
2011,10115,2,-0.0010776923667261502
2011,10115,3,-0.007899351204949051
2011,10115,4,-2.998903844758935e-4
2011,10115,12,-6.459963499757445e-4
2011,10130,0,-3.921582891463405e-4
2011,10130,1,-3.1645803468101016e-4
2011,10130,2,-6.300308041770894e-4
2011,10130,3,-0.006639000966223924
2011,10130,4,-1.9932780481688537e-4
2011,10130,12,-2.3754631386735584e-4
2011,10210,0,-9.287647510887864e-5
2011,10210,1,-3.231474602470786e-4
2011,10210,2,-5.2296805325214916e-5
2011,10210,3,-2.4196346109969368e-4
2011,10210,4,-5.361747494374255e-5
2011,10210,12,-1.065121378329279e-4
2011,10261,0,-1.878483983980717e-4
2011,10261,1,-7.353977521789352e-4
2011,10261,2,-6.138961229272206e-5
2011,10261,3,2.0501277443362267e-18
2011,10261,4,-4.2715165504538046e-5
2011,10261,12,-2.730524893084552e-4
2011,10285,0,-3.903389543292336e-5
2011,10285,1,-5.804453910803449e-4
2011,10285,2,-4.922328363651628e-5
2011,10285,3,-6.983581575746551e-5
2011,10285,4,-2.2615087587916377e-05
2011,10285,12,-1.2441533151758338e-4
2011,21720,0,-1.6863215932765614e-18
2011,21720,1,-3.5212353328552174e-5
2011,21720,2,5.599129790764427e-18
2011,21720,3,-5.777249471439545e-6
2011,21720,4,3.213885011296317e-19
2011,21720,12,-2.098720646232096e-6
2011,21740,0,-3.2466772868257332e-18
2011,21740,1,-1.4824571970871601e-5
2011,21740,2,-5.0912628521206795e-6
2011,21740,3,-1.0326714899748535e-6
2011,21740,4,-9.994988777600744e-19
2011,21740,12,-6.020619098065839e-6
2012,10110,0,-1.1567032439497877e-4
2012,10110,1,-6.508622673321523e-4
2012,10110,2,-1.9605264648452932e-4
2012,10110,3,-0.27478204047697685
2012,10110,4,-1.4492007745892633e-4
2012,10110,12,-2.7738767610087264e-4
2012,10115,0,-6.067350467565885e-4
2012,10115,1,-0.004493886342451101
2012,10115,2,-0.0012432623235162396
2012,10115,3,-0.002995724597272335
2012,10115,4,-7.279137636567789e-4
2012,10115,12,-0.0014067674495753838
2012,10130,0,-1.674406920615999e-4
2012,10130,1,-4.570987465883664e-4
2012,10130,2,-1.109600096871989e-4
2012,10130,3,-2.8589514876660984e-5
2012,10130,4,-9.040831215420309e-5
2012,10130,12,-1.3691746343744683e-4
2012,10210,0,-1.1627541970920047e-4
2012,10210,1,-3.552739150277683e-4
2012,10210,2,-6.371263346107415e-5
2012,10210,3,-2.834027123992477e-4
2012,10210,4,-5.074397219773327e-5
2012,10210,12,-1.5156546984275752e-4
2012,10261,0,-2.022737945030277e-4
2012,10261,1,-7.46076196218e-4
2012,10261,2,-7.076662961026007e-4
2012,10261,3,-1.734723475976807e-17
2012,10261,4,-1.1073855093900677e-4
2012,10261,12,-3.734271775827271e-4
2012,10285,0,-1.0357482953055615e-4
2012,10285,1,-0.0019074325847297962
2012,10285,2,-1.325051112062804e-4
2012,10285,4,-1.9889704595938944e-4
2012,10285,12,-4.5296359244446975e-4
2012,21720,0,-2.001417849655161e-18
2012,21720,1,-3.9807692184666735e-5
2012,21720,2,-5.4728006531896906e-6
2012,21720,3,-2.135647581737489e-4
2012,21720,4,-1.4361423807645108e-5
2012,21720,12,-1.4644207641235415e-5
2012,21740,0,-8.185064308867446e-6
2012,21740,1,-4.539802795913977e-5
2012,21740,2,-1.572510244197904e-5
2012,21740,3,5.421010862427522e-20
2012,21740,4,-6.835450722059074e-6
2012,21740,12,-1.1287043945832227e-5
2013,10115,0,-0.0024738361576315737
2013,10115,1,-0.003474243851842502
2013,10115,2,-0.00586800588056791
2013,10115,3,-0.1322919240631858
2013,10115,4,-0.0030733705456192383
2013,10115,12,-0.0028748978393670134
2013,10130,0,-2.9312048358882736e-4
2013,10130,1,-5.306065034143138e-4
2013,10130,2,-3.7140749118358673e-4
2013,10130,3,-0.00261564633194871
2013,10130,4,-1.6703580753477202e-4
2013,10130,12,-2.2619973618180303e-4
2013,10210,0,-1.487068673128181e-4
2013,10210,1,-1.845956470058915e-4
2013,10210,2,-7.01942317259187e-5
2013,10210,3,-1.2901230773746945e-4
2013,10210,4,-8.77754784574211e-5
2013,10210,12,-8.070957405766335e-5
2013,10261,0,-1.780127001194319e-4
2013,10261,1,-1.0684350554338636e-4
2013,10261,2,-5.909026830713663e-4
2013,10261,3,-0.02342541500289897
2013,10261,4,-7.884779702351938e-5
2013,10261,12,-2.2470869220790718e-4
2013,10285,0,-2.902543705829878e-4
2013,10285,1,-6.215090054671178e-4
2013,10285,2,-1.4612979745167183e-4
2013,10285,4,-9.706950215874899e-5
2013,10285,12,-2.2392308194132528e-4
2013,21720,0,-4.086608188599209e-19
2013,21720,1,-1.0212575415675813e-5
2013,21720,2,-9.23341752261444e-7
2013,21720,3,-3.942313362235123e-5
2013,21720,4,-4.4079765977886655e-7
2013,21720,12,-2.792264700076639e-6
2013,21740,0,-1.6837215990697192e-5
2013,21740,1,-6.784341715553876e-5
2013,21740,2,-3.044462510637367e-5
2013,21740,3,-4.381148078946075e-6
2013,21740,4,-1.834023412342243e-5
2013,21740,12,-3.0521678451125597e-5
2014,10110,0,-2.1862382345918513e-4
2014,10110,1,-0.0017308683747775757
2014,10110,2,-1.540864071164856e-4
2014,10110,3,-0.017453414250575856
2014,10110,4,-1.1797080365021244e-4
2014,10110,12,-0.0010145429532999724
2014,10115,0,-0.001048062642578239
2014,10115,1,-0.008170926724286313
2014,10115,2,-0.003336313551305088
2014,10115,3,-0.19584964360811508
2014,10115,4,-0.0010487709698882757
2014,10115,12,-0.0027447675684727064
2014,10130,0,-1.249627904560222e-4
2014,10130,1,-1.3103056458101638e-4
2014,10130,2,-2.2949206021202434e-4
2014,10130,3,-2.607290395124508e-5
2014,10130,4,-7.009750907145986e-5
2014,10130,12,-9.068343745198157e-5
2014,10210,0,-4.056699427627317e-5
2014,10210,1,-3.1426613110473666e-4
2014,10210,2,-4.1786701114721145e-4
2014,10210,3,-0.0025016727136383797
2014,10210,4,-7.050991986226723e-5
2014,10210,12,-2.027976065602313e-4
2014,10261,0,-3.319837670274608e-4
2014,10261,1,-5.236172378334856e-4
2014,10261,2,-1.2360973918020443e-4
2014,10261,3,-0.005660573356460512
2014,10261,4,-1.7804720659102792e-4
2014,10261,12,-1.7990931968939604e-4
2014,10285,0,-2.1747255602259016e-4
2014,10285,1,-0.0012570972154015874
2014,10285,2,-3.725698633300807e-4
2014,10285,4,-2.467294444918384e-4
2014,10285,12,-3.787603715407128e-4
2014,21720,0,-1.019200137741598e-5
2014,21720,1,-3.2353330332073592e-6
2014,21720,2,-1.6355289488640885e-5
2014,21720,3,-1.4495678634804159e-5
2014,21720,4,-6.571792418847444e-6
2014,21720,12,3.930870137995778e-6
2014,21740,0,3.0593252480079924e-6
2014,21740,1,6.832765531804937e-6
2014,21740,2,1.4650316516321702e-6
2014,21740,3,-1.1026677906890783e-4
2014,21740,4,6.285507378867223e-6
2014,21740,12,2.102963390958424e-6
2015,10110,0,-3.38930111086434e-4
2015,10110,1,-0.0020942765901661043
2015,10110,2,-4.898711783557798e-4
2015,10110,3,-2.0606194793609638e-4
2015,10110,4,-3.132992967071551e-4
2015,10110,12,-4.511659930923805e-4
2015,10115,0,-0.0016018921006566498
2015,10115,1,-0.004864232373573818
2015,10115,2,-0.0075206267660769925
2015,10115,3,-0.0036272444048755007
2015,10115,4,-0.0017985967090464222
2015,10115,12,-0.0035140210791256422
2015,10130,0,-7.767943059616308e-5
2015,10130,1,-2.1741670182893636e-4
2015,10130,2,-2.790266283302239e-4
2015,10130,3,-0.00266875697966881
2015,10130,4,-8.275181502274842e-5
2015,10130,12,-1.525185116119729e-4
2015,10210,0,6.420419516635251e-6
2015,10210,1,-1.5587470513650506e-4
2015,10210,2,-1.1618902430390274e-4
2015,10210,4,-1.9349121745920786e-5
2015,10210,12,-8.726365470231968e-5
2015,10261,0,-6.102488159072501e-6
2015,10261,1,-0.0010682785350750418
2015,10261,2,-1.1553376255734068e-4
2015,10261,3,-0.006922487759990085
2015,10261,4,-1.1589747361051944e-18
2015,10261,12,-3.2370373939493623e-4
2015,21720,0,-2.9496721998656532e-6
2015,21720,1,-7.276999501887778e-5
2015,21720,2,-1.6320934929560954e-5
2015,21720,3,-1.585930484016007e-5
2015,21720,4,-8.792620021275704e-7
2015,21720,12,-1.4960913480425803e-5
2015,21740,0,-4.407503087623033e-5
2015,21740,1,-6.107576978289253e-5
2015,21740,2,-1.0249733828431212e-5
2015,21740,3,-1.3717471610257453e-5
2015,21740,4,-1.2925656255296844e-5
2015,21740,12,-2.5442215869571375e-5
2016,10110,0,-3.943419929313716e-4
2016,10110,1,-4.8609214154922577e-4
2016,10110,2,-7.128170148651969e-4
2016,10110,3,-8.22429254977086e-4
2016,10110,4,-4.216784386189713e-4
2016,10110,12,-4.718854910454959e-4
2016,10112,0,-2.9371068267135676e-4
2016,10112,1,-4.185633159061767e-4
2016,10112,2,-4.8420059869105014e-4
2016,10112,3,-9.047294768251984e-4
2016,10112,4,-1.8333806705197453e-4
2016,10112,12,-2.8162035927234045e-4
2016,10115,0,-0.003698980414365019
2016,10115,1,-0.009473758869182471
2016,10115,2,-0.006153926278453965
2016,10115,3,-0.04981606963616733
2016,10115,4,-0.0036396259891179786
2016,10115,12,-0.004333662784889302
2016,10130,0,-1.5739537816290594e-4
2016,10130,1,-9.266000661348773e-4
2016,10130,2,-4.363512735734891e-4
2016,10130,3,-0.029993425871240348
2016,10130,4,-1.9663850961072985e-4
2016,10130,12,-3.868661845687646e-4
2016,10210,0,3.75224215203296e-5
2016,10210,1,-9.771673646907311e-6
2016,10210,2,-2.513746734923135e-4
2016,10210,3,-4.7425336597853307e-4
2016,10210,4,-1.4628331731674202e-5
2016,10210,12,-6.155838953072501e-5
2016,10261,0,-9.762564024471482e-6
2016,10261,1,-4.5352764045458163e-4
2016,10261,2,-1.5488602464078636e-18
2016,10261,3,-7.698323749181867e-6
2016,10261,4,-2.1833588576949468e-18
2016,10261,12,-1.1945331477927069e-4
2016,10285,0,-4.1929371074884845e-4
2016,10285,1,-0.0011298028472691278
2016,10285,2,-7.049290306125728e-4
2016,10285,3,-0.09468313951520693
2016,10285,4,-3.2315840687372946e-4
2016,10285,12,-5.136049400584908e-4
2016,21720,0,-1.864982242771324e-5
2016,21720,1,-2.535209921890302e-5
2016,21720,2,-1.9909464988146195e-5
2016,21720,3,-2.0767720776546832e-5
2016,21720,4,-1.2099412608300209e-5
2016,21720,12,-1.0330641224764468e-5
2016,21740,0,-3.948684815093193e-5
2016,21740,1,-1.775775165792134e-4
2016,21740,2,-3.717235301555647e-5
2016,21740,3,-4.215171814169005e-6
2016,21740,4,-3.755838825714681e-5
2016,21740,12,-8.144125666628848e-5
2017,10110,0,-3.193823252471687e-4
2017,10110,1,-5.733447368440524e-4
2017,10110,2,-0.001116838019271534
2017,10110,3,-0.03256683434334556
2017,10110,4,-5.669969928266324e-4
2017,10110,12,-5.628017305222383e-4
2017,10112,0,-4.825118223212476e-4
2017,10112,1,-0.0014965344658517095
2017,10112,2,-8.156301379813186e-4
2017,10112,3,-0.06170984913712918
2017,10112,4,-4.4972515469413613e-4
2017,10112,12,-5.885937459732536e-4
2017,10115,0,-0.003121150475517007
2017,10115,1,-0.013600296812094431
2017,10115,2,-0.009216787650710082
2017,10115,4,-0.004479162099607978
2017,10115,12,-0.005655032245443392
2017,10130,0,-2.733816647061295e-4
2017,10130,1,-4.890831851459206e-4
2017,10130,2,-3.3143077450184283e-4
2017,10130,3,-1.1136312926904997e-4
2017,10130,4,-1.9368593079584947e-4
2017,10130,12,-2.3785523587518888e-4
2017,10210,0,-8.274398798741969e-6
2017,10210,1,-2.2242487130464035e-4
2017,10210,2,-7.365728886576363e-5
2017,10210,3,-1.5472924669488963e-4
2017,10210,4,-3.4905071082896986e-5
2017,10210,12,-8.655303185235979e-5
2017,10261,0,7.71681536025548e-5
2017,10261,1,-8.416488240639984e-4
2017,10261,2,-1.784228518065652e-4
2017,10261,3,-0.007380957998490738
2017,10261,4,8.648328849956707e-6
2017,10261,12,-2.9642888303344e-4
2017,10285,0,-2.5564700574067634e-4
2017,10285,1,-0.0011578099736996336
2017,10285,2,-2.8297683053875365e-4
2017,10285,3,-0.03880252842895518
2017,10285,4,-1.7148247808867424e-4
2017,10285,12,-3.089949194869849e-4
2017,21720,0,-1.2155751094639126e-4
2017,21720,1,-1.519837000861448e-4
2017,21720,2,-2.5362863317340725e-4
2017,21720,3,-8.713412716469378e-4
2017,21720,4,-8.731857573956669e-5
2017,21720,12,-1.0991020261749836e-4
2017,21740,0,-3.396328547777383e-5
2017,21740,1,-1.2429931289970874e-4
2017,21740,2,-2.6790941710773625e-4
2017,21740,3,-9.92386016830618e-6
2017,21740,4,-2.769633327651271e-5
2017,21740,12,-8.606632745755522e-5
2018,10110,0,-9.664626654630131e-4
2018,10110,1,-0.0019155160495272709
2018,10110,2,-0.0010742554983971698
2018,10110,3,-0.010455620384882083
2018,10110,4,-7.732005901569204e-4
2018,10110,12,-8.141022109043232e-4
2018,10112,0,-3.871898431482409e-4
2018,10112,1,-9.049504170703862e-4
2018,10112,2,-9.173289403604433e-4
2018,10112,3,-0.004806888109133411
2018,10112,4,-3.4318236251547216e-4
2018,10112,12,-5.263157138879201e-4
2018,10115,0,-0.0047179927793111216
2018,10115,1,-0.011458713460439375
2018,10115,2,-0.014995413338741877
2018,10115,4,-0.007361998663299533
2018,10115,12,-0.007121719039688599
2018,10130,0,-1.9698004437740044e-4
2018,10130,1,-6.357705472856734e-4
2018,10130,2,-5.114283330759823e-4
2018,10130,3,-0.0014839177928370596
2018,10130,4,-2.988235826864178e-4
2018,10130,12,-3.0882791609756414e-4
2018,10210,0,-1.8106313421982774e-4
2018,10210,1,-5.744925894545222e-4
2018,10210,2,-4.567031015390203e-4
2018,10210,3,-8.776002622845823e-4
2018,10210,4,-2.415975335183189e-4
2018,10210,12,-2.45642659288629e-4
2018,10261,0,-1.4592067220954658e-4
2018,10261,1,-0.0013565903549594648
2018,10261,2,-1.692477253924713e-4
2018,10261,3,-4.80938902987792e-6
2018,10261,4,-6.159744325235417e-5
2018,10261,12,-3.452575570638215e-4
2018,10285,0,-1.569151359863266e-4
2018,10285,1,-0.0025717273633097484
2018,10285,2,-7.46302354162312e-4
2018,10285,3,-0.492711419040192
2018,10285,4,-4.386047813673906e-5
2018,10285,12,-6.715264954147283e-4
2018,21720,0,-4.778207117260547e-5
2018,21720,1,-3.125537307040883e-4
2018,21720,2,-6.894608740464552e-5
2018,21720,3,-5.525998015048352e-4
2018,21720,4,-3.498313428973569e-5
2018,21720,12,-6.224974481967706e-5
2018,21740,0,-9.688850387438071e-5
2018,21740,1,-3.628484410745047e-4
2018,21740,2,-5.894284014061562e-4
2018,21740,3,-2.7052552029424814e-6
2018,21740,4,-1.1239434651441961e-4
2018,21740,12,-2.832112580932907e-4
2019,10110,0,-8.078472170151318e-4
2019,10110,1,-0.0018855970938751754
2019,10110,2,-9.539498729485358e-4
2019,10110,3,-0.00295712667178215
2019,10110,4,-6.647462681357301e-4
2019,10110,12,-9.388824761478969e-4
2019,10112,0,-4.4799739782828177e-4
2019,10112,1,-0.0029891779102250893
2019,10112,2,-9.324610344413729e-4
2019,10112,3,-0.03297665457005475
2019,10112,4,-9.704652284584668e-4
2019,10112,12,-9.362851582259126e-4
2019,10115,0,-0.020264402065669103
2019,10115,1,-0.03869475816584281
2019,10115,2,-0.01700864942307043
2019,10115,4,-0.012235261785001929
2019,10115,12,-0.01313911603582237
2019,10130,0,-2.7071341879569887e-4
2019,10130,1,-7.400053413924623e-4
2019,10130,2,-6.996838623378283e-4
2019,10130,3,-3.883550716426149e-4
2019,10130,4,-3.91493468389911e-4
2019,10130,12,-3.876661549035207e-4
2019,10210,0,-2.3848231137809088e-4
2019,10210,1,-4.6770217684033373e-4
2019,10210,2,-5.911052400875518e-4
2019,10210,3,-4.044966549142451e-5
2019,10210,4,-2.4610817571459943e-4
2019,10210,12,-2.73270700910039e-4
2019,10261,0,-8.293245356731891e-5
2019,10261,1,-2.7382883791877044e-4
2019,10261,2,-3.30902157477616e-4
2019,10261,3,-8.680308543457488e-5
2019,10261,4,-1.1989649717661272e-4
2019,10261,12,-1.607953754283069e-4
2019,10285,0,-1.4288216414108564e-4
2019,10285,1,-0.0014851489083681526
2019,10285,2,-2.0818883329036812e-4
2019,10285,3,-0.0010274928991698907
2019,10285,4,-1.0224112255027636e-4
2019,10285,12,-5.050104565510495e-4
2019,21720,0,-7.221094557191446e-5
2019,21720,1,-2.208550163150268e-4
2019,21720,2,-4.0213278934903365e-4
2019,21720,3,-0.005794152898618718
2019,21720,4,-1.5727503334935286e-4
2019,21720,12,-1.883763587502975e-4
2019,21740,0,-5.144988256154168e-5
2019,21740,1,-1.953741508494723e-4
2019,21740,2,-1.5998631296184693e-4
2019,21740,3,-2.3854622380049084e-5
2019,21740,4,-1.0030307416453349e-4
2019,21740,12,-9.143100972866366e-5
2021,10110,0,-5.205599135634527e-4
2021,10110,1,-0.002775563703725421
2021,10110,2,-0.001618819993784544
2021,10110,3,-0.0022364077619904726
2021,10110,4,-4.206003033705903e-4
2021,10110,12,-0.0013332366378554748
2021,10112,0,-6.323876766257064e-4
2021,10112,1,-0.0017819721638479575
2021,10112,2,-0.001829482692438941
2021,10112,3,-0.005512959811918662
2021,10112,4,-7.247088014182636e-4
2021,10112,12,-0.0010354396760369263
2021,10115,0,-0.014252369706526482
2021,10115,1,-0.10617308062204416
2021,10115,2,-0.020680347638280392
2021,10115,4,-0.014352420254128147
2021,10115,12,-0.026785874406948483
2021,10130,0,-1.729371903633858e-4
2021,10130,1,-8.357579857849011e-4
2021,10130,2,-1.3381220334996894e-4
2021,10130,3,-0.0027563996618588907
2021,10130,4,-2.8721900189543353e-4
2021,10130,12,-2.3803293927126916e-4
2021,10210,0,-3.9156249799319993e-4
2021,10210,1,-5.577204080537241e-4
2021,10210,2,-1.7886585577043417e-4
2021,10210,3,-8.655511869974983e-5
2021,10210,4,-2.116528641783611e-4
2021,10210,12,-1.788395017116944e-4
2021,10261,0,-7.561124712542049e-5
2021,10261,1,-2.9513115985184223e-4
2021,10261,2,-9.202058758002048e-5
2021,10261,3,-5.368974583572133e-6
2021,10261,4,-4.43218987502064e-5
2021,10261,12,-2.125636941478667e-4
2021,21720,0,-1.1262947843085274e-4
2021,21720,1,-4.3087503710599406e-4
2021,21720,2,-5.853915654751917e-5
2021,21720,3,-5.438823590467857e-4
2021,21720,4,-6.06958638821084e-5
2021,21720,12,-1.1947635888821115e-4
2021,21740,0,-8.989239033556838e-5
2021,21740,1,-1.0137133047343875e-4
2021,21740,2,-1.7726607122669762e-4
2021,21740,3,-6.782980578348753e-6
2021,21740,4,-8.667146987784795e-5
2021,21740,12,-8.301359656009645e-5
2022,10210,0,-2.276291773375975e-4
2022,10210,1,-3.3582442673567737e-4
2022,10210,2,-2.9622943923260993e-4
2022,10210,3,-8.783325524267994e-5
2022,10210,4,-1.8324231627147095e-4
2022,10210,12,-1.793062844652041e-4
2022,10261,0,-5.8902806888900055e-5
2022,10261,1,-4.886214843715677e-4
2022,10261,2,-3.129331675197522e-4
2022,10261,3,-3.782969310926309e-7
2022,10261,4,-1.5194197323875326e-4
2022,10261,12,-2.319189774335775e-4
2022,21720,0,-2.564951957229862e-5
2022,21720,1,-1.1517521442351908e-4
2022,21720,2,-3.164915043979875e-5
2022,21720,3,-2.2803422375259862e-4
2022,21720,4,-3.3066272348005095e-5
2022,21720,12,-3.808737172651464e-5
2022,21740,0,-1.7283219455323646e-4
2022,21740,1,-9.896187949096858e-5
2022,21740,2,-1.438992947091409e-4
2022,21740,3,-2.3035784905717095e-6
2022,21740,4,-9.326721955020618e-5
2022,21740,12,-6.020963462792743e-5
2023,21740,0,-1.0332494505821249e-4
2023,21740,1,-5.777810183294427e-5
2023,21740,2,-1.1880535274070446e-4
2023,21740,3,-6.175223758294898e-6
2023,21740,4,-6.260078199738748e-5
2023,21740,12,-4.48593786776501e-5
