year,species_code,sex,bias
1982,10110,0,-0.002230296010174746
1982,10110,1,-0.00443172278530626
1982,10110,2,-0.005046668373311129
1982,10110,3,-0.005510229358907312
1982,10110,4,-0.0021515025011353958
1982,10110,12,-0.002477757756708809
1982,10115,0,-0.0027467803994196886
1982,10115,1,-0.0018115911108518349
1982,10115,2,-0.007262289018775466
1982,10115,3,-0.030377829421129002
1982,10115,4,-0.003907072911974925
1982,10115,12,-0.0024154612656388207
1982,10130,0,-8.213518971643074e-4
1982,10130,1,-0.0010761078866028916
1982,10130,2,-0.0011767252209294963
1982,10130,3,-2.38064819796936e-5
1982,10130,4,-4.933563878337034e-4
1982,10130,12,-5.943535701568467e-4
1982,10210,0,-5.723250753135167e-5
1982,10210,1,-1.1714099946143684e-4
1982,10210,2,-1.3842164350075608e-4
1982,10210,3,-0.06496387446406227
1982,10210,4,-2.9447660480273024e-5
1982,10210,12,-9.323878301830164e-5
1982,10285,0,-2.855584115533036e-4
1982,10285,1,-0.005612807029683058
1982,10285,2,-0.0011964351730415757
1982,10285,4,-4.030995288047468e-4
1982,10285,12,-0.0017792555752527098
1982,21740,0,-8.775033668959136e-6
1982,21740,1,-1.8836111201476115e-5
1982,21740,2,-9.571952856731005e-6
1982,21740,3,-9.702629415682542e-5
1982,21740,4,-4.695795878742437e-6
1982,21740,12,-9.664949586075929e-6
1983,10210,0,-3.134973007285322e-4
1983,10210,1,-4.1014121267831576e-4
1983,10210,2,-1.6254995931414722e-4
1983,10210,3,-4.0408848282728405e-4
1983,10210,4,-1.2206106510499152e-4
1983,10210,12,-1.1805270038428133e-4
1983,21740,0,-7.8381981978142e-6
1983,21740,1,-2.217384773687362e-5
1983,21740,2,-2.1275552906840387e-5
1983,21740,3,-1.7178773469479669e-4
1983,21740,4,-8.172668621096414e-6
1983,21740,12,-1.2674922804084545e-5
1984,10210,0,-1.5963984557293e-4
1984,10210,1,-4.1254285690207237e-4
1984,10210,2,-7.988306842264409e-5
1984,10210,3,-0.006823240346713712
1984,10210,4,-1.8695842695330808e-4
1984,10210,12,-1.169771641923727e-4
1984,21720,0,-3.740253809930719e-4
1984,21720,1,-4.948930478973898e-4
1984,21720,2,-0.001643765755061373
1984,21720,3,-0.0031317216288827467
1984,21720,4,-2.742005590802587e-4
1984,21720,12,-3.6419572736262764e-4
1984,21740,0,-6.5705471719741024e-6
1984,21740,1,-1.1228740574619138e-5
1984,21740,2,-1.1897188732650373e-5
1984,21740,3,-8.929495179958435e-5
1984,21740,4,-7.666608345544259e-6
1984,21740,12,-5.972824161045691e-6
1985,10130,0,-2.0511031047294872e-4
1985,10130,1,-0.001476279208666306
1985,10130,2,-3.3337709190945774e-4
1985,10130,4,-2.0727067213156513e-4
1985,10130,12,-3.8036257468535733e-4
1985,10210,0,-2.3401244385718014e-4
1985,10210,1,-5.87477122334662e-4
1985,10210,2,-2.0264914008116686e-4
1985,10210,4,-2.458465421640086e-4
1985,10210,12,-1.8830300642970916e-4
1985,21740,0,-3.81913030029491e-6
1985,21740,1,-3.9360709002405e-5
1985,21740,2,-1.3173978517546329e-5
1985,21740,3,-1.110093795433879e-6
1985,21740,4,-5.092389603040234e-6
1985,21740,12,-1.4869031749316376e-5
1986,10210,0,-4.593245332937997e-4
1986,10210,1,-6.85470162735987e-4
1986,10210,2,-6.703854242891299e-4
1986,10210,4,-3.965004862110262e-4
1986,10210,12,-3.3058324732908057e-4
1986,21740,0,-2.1362699022672736e-5
1986,21740,1,-1.1880253662608821e-5
1986,21740,2,-2.3030527786401897e-4
1986,21740,3,-6.786754283201219e-6
1986,21740,4,-5.469823409058311e-5
1986,21740,12,-5.025919138905536e-5
1987,10210,0,-5.141025878645086e-4
1987,10210,1,-9.803064195605094e-4
1987,10210,2,-6.316198513086346e-4
1987,10210,4,-2.584963720863844e-4
1987,10210,12,-3.730345160219531e-4
1987,21740,0,-1.5700137915517245e-5
1987,21740,1,-2.3234808056824755e-5
1987,21740,2,-4.262579833699145e-5
1987,21740,3,-2.271799530634048e-5
1987,21740,4,-2.1095887513743697e-5
1987,21740,12,-1.6596740924452283e-5
1988,10210,0,-1.3742694455524818e-4
1988,10210,1,-9.043167072863069e-5
1988,10210,2,-5.159066166436217e-4
1988,10210,4,-2.838436973823597e-4
1988,10210,12,-2.384897665883205e-4
1988,10285,0,-0.0012479165417704182
1988,10285,1,-0.004506413839320718
1988,10285,2,-0.00498113759044971
1988,10285,4,-0.0022309687364896165
1988,10285,12,-0.0026197505197270237
1988,21720,0,-1.5495833734730604e-5
1988,21720,1,-1.5625943452150605e-4
1988,21720,2,1.6257028670669664e-4
1988,21720,3,-5.984991862890085e-4
1988,21720,4,-2.435401887797015e-5
1988,21720,12,-1.4538446318671568e-5
1988,21740,0,-3.190325865227104e-5
1988,21740,1,-3.655195805149935e-5
1988,21740,2,-4.361254813587133e-5
1988,21740,3,-6.576129741053382e-4
1988,21740,4,-1.5897065319805266e-5
1988,21740,12,-2.4057414308375632e-5
1989,10210,0,-2.739262977124441e-4
1989,10210,1,-5.424644264178039e-4
1989,10210,2,-3.493804147163739e-4
1989,10210,4,-2.7865956559470405e-4
1989,10210,12,-2.1768821170468192e-4
1989,21720,0,4.936487004899994e-4
1989,21720,1,4.085345295935966e-4
1989,21720,2,4.382936646425405e-4
1989,21720,3,-0.013811059228823069
1989,21720,4,6.043750936901204e-4
1989,21720,12,2.4322934367926522e-4
1989,21740,0,-7.890668574903703e-5
1989,21740,1,-2.0333259473188814e-4
1989,21740,2,-2.7158701920533464e-4
1989,21740,3,-7.969396206518128e-6
1989,21740,4,-6.877160437627519e-5
1989,21740,12,-1.1502514027060313e-4
1990,10210,0,-1.0646004814016863e-4
1990,10210,1,-7.96187116931367e-4
1990,10210,2,-3.5698521225894776e-4
1990,10210,3,-0.02684561630625752
1990,10210,4,-1.4315501071928487e-4
1990,10210,12,-2.9424217328522857e-4
1990,21720,0,-2.0177876479921558e-4
1990,21720,1,-2.650485928028079e-4
1990,21720,2,-8.505264734832752e-5
1990,21720,3,-0.004905411912316533
1990,21720,4,-1.0859877711246104e-4
1990,21720,12,-1.0383811462197478e-4
1990,21740,0,-1.7969188624905168e-4
1990,21740,1,-7.618037692553474e-5
1990,21740,2,-3.9697282241671323e-4
1990,21740,3,-6.901936342623416e-5
1990,21740,4,-1.8079571886117773e-4
1990,21740,12,-1.1448873311525683e-4
1991,10210,0,-1.2492490155904622e-4
1991,10210,1,-8.955011011066904e-4
1991,10210,2,-2.9686565711283463e-4
1991,10210,4,-1.660204487322749e-4
1991,10210,12,-3.454386965572982e-4
1991,21720,0,-6.817953626806083e-5
1991,21720,1,-2.919977630130382e-4
1991,21720,2,-2.595285122780832e-4
1991,21720,3,-0.008702883545354818
1991,21720,4,-1.2496641123746203e-4
1991,21720,12,-1.6978551480847055e-4
1991,21740,0,-1.1155775238987222e-4
1991,21740,1,-2.135655499585885e-4
1991,21740,2,-4.5927248713226307e-4
1991,21740,3,-2.3669626726681518e-5
1991,21740,4,-1.5528581806911873e-4
1991,21740,12,-1.7221588408964487e-4
1992,10130,0,-4.5008529650241943e-4
1992,10130,1,-0.00272978563724974
1992,10130,2,-0.0012957806126359796
1992,10130,3,-0.003393805608086779
1992,10130,4,-7.895592242773954e-4
1992,10130,12,-0.00110488141661081
1992,10210,0,-3.4475590705175215e-4
1992,10210,1,-0.0021387130603034445
1992,10210,2,-3.78981759985388e-4
1992,10210,4,-6.749730140294727e-4
1992,10210,12,-6.667437155498034e-4
1992,10285,0,-3.6953854483883115e-4
1992,10285,1,-0.002783918904030751
1992,10285,2,-0.0014901181822864862
1992,10285,4,-0.0011832120889661171
1992,10285,12,-0.0011968984796949956
1992,21720,0,2.7813595767647726e-5
1992,21720,1,-6.245766955482955e-5
1992,21720,2,1.1237674101410455e-5
1992,21720,3,-0.019925708571357205
1992,21720,4,6.703848926494601e-6
1992,21720,12,-1.8043234960175e-5
1992,21740,0,-9.480165675613442e-5
1992,21740,1,-1.4650652226435323e-4
1992,21740,2,-4.8812994023009714e-4
1992,21740,3,-2.1466525326804134e-4
1992,21740,4,-1.1701080014994879e-4
1992,21740,12,-1.6594382928397365e-4
1993,10110,0,-0.003770894437610844
1993,10110,1,-0.004021463217314086
1993,10110,2,-0.001119274806432857
1993,10110,3,-0.19817628405140025
1993,10110,4,-9.473625440303248e-4
1993,10110,12,-0.0015493278396050102
1993,10130,0,-0.003578468945132063
1993,10130,1,-0.0036753982675113207
1993,10130,2,-0.0040601446296795645
1993,10130,3,-0.031738411205823894
1993,10130,4,-0.0014443855884915342
1993,10130,12,-0.0021181894424880028
1993,10210,0,-1.64419235370521e-4
1993,10210,1,-0.0020021181701248727
1993,10210,2,-4.0921100463665644e-4
1993,10210,3,-0.001593391553286837
1993,10210,4,-3.3304254984049564e-4
1993,10210,12,-6.652108727126085e-4
1993,10285,0,-0.0029559297147958357
1993,10285,1,-0.004728529450278663
1993,10285,2,-0.0032896872940258648
1993,10285,3,-0.00393265184030944
1993,10285,4,-0.002693856719909755
1993,10285,12,-0.002032438305923037
1993,21720,0,-1.2009624064454818e-18
1993,21720,1,-6.451002926288751e-18
1993,21720,2,-7.561996964744834e-5
1993,21720,3,-0.0026688642421772296
1993,21720,4,-2.782489559369069e-5
1993,21720,12,-6.420518240132979e-6
1993,21740,0,-6.194238245643543e-5
1993,21740,1,-1.6867023877651342e-4
1993,21740,2,-8.152777502618e-5
1993,21740,3,-2.8749494960927315e-5
1993,21740,4,-3.166210966910543e-5
1993,21740,12,-5.534486910822422e-5
1994,10110,0,-0.0020390240908321608
1994,10110,1,-0.02279427637863673
1994,10110,2,-0.004440944818287376
1994,10110,3,0
1994,10110,4,-0.005710286613779801
1994,10110,12,-0.005611663516560084
1994,10130,0,-0.001688499588505366
1994,10130,1,-0.002030350464143209
1994,10130,2,-8.419764175896387e-4
1994,10130,3,-1.4544885341161062e-4
1994,10130,4,-9.862499735152361e-4
1994,10130,12,-0.0011640947173975206
1994,10210,0,-9.510526921917447e-5
1994,10210,1,-2.7629508270848776e-4
1994,10210,2,-0.0017142737706926797
1994,10210,4,-1.0059041163609729e-4
1994,10210,12,-5.907062164661457e-4
1994,10285,0,-0.0013536042348033716
1994,10285,1,-0.001323276684437844
1994,10285,2,-0.004361984741204977
1994,10285,4,-9.05427145525189e-4
1994,10285,12,-0.0016631251022249153
1994,21720,0,-6.7664071946481706e-18
1994,21720,1,-1.6041879715832045e-5
1994,21720,2,-6.619413405090878e-5
1994,21720,3,-0.0036371054282494848
1994,21720,4,-8.008736136587353e-6
1994,21720,12,-3.286666421732239e-5
1994,21740,0,-2.3682715133443465e-4
1994,21740,1,-1.6838430021172494e-4
1994,21740,2,-7.785571733670185e-4
1994,21740,3,-0.0014758882849950604
1994,21740,4,-2.3982413145653893e-4
1994,21740,12,-2.269916948326427e-4
1995,10130,0,-3.6894828993546726e-4
1995,10130,1,-0.0010283344451996897
1995,10130,2,-7.110285559687854e-4
1995,10130,3,-0.0034146742500707128
1995,10130,4,-2.901701783056648e-4
1995,10130,12,-4.436963610924712e-4
1995,10210,0,-2.3166258193829084e-4
1995,10210,1,-5.595192876469945e-4
1995,10210,2,-2.367789312734641e-4
1995,10210,4,-1.4055820336873105e-4
1995,10210,12,-2.4097472105185464e-4
1995,10285,0,-0.0010778480273922074
1995,10285,1,-0.0012749057380443379
1995,10285,2,-0.002540896837693596
1995,10285,4,-0.001204689728833212
1995,10285,12,-0.0010237657326567944
1995,21720,0,3.486126985376468e-18
1995,21720,1,-1.527504140179083e-4
1995,21720,2,1.4164130464143409e-5
1995,21720,3,-0.001073471391430443
1995,21720,4,6.892745206305081e-6
1995,21720,12,-1.4954787884115623e-5
1995,21740,0,-3.778356728102077e-5
1995,21740,1,-6.529262026673195e-5
1995,21740,2,-6.037368269982505e-5
1995,21740,3,-1.299455012387435e-4
1995,21740,4,-3.444080806032341e-5
1995,21740,12,-4.18192179906772e-5
1996,10110,0,-8.675737665139159e-4
1996,10110,1,-0.0036449936070187617
1996,10110,2,-0.0013659790566348112
1996,10110,3,-0.03397646887509064
1996,10110,4,-0.0010740181399437562
1996,10110,12,-0.0019860007883084896
1996,10210,0,-1.2790470526569475e-4
1996,10210,1,-1.7270534842669396e-4
1996,10210,2,-1.9684340362677408e-4
1996,10210,3,-1.3828016057249067e-4
1996,10210,4,-9.247311185085343e-5
1996,10210,12,-1.1319677891285578e-4
1996,10261,0,-7.581325567627877e-5
1996,10261,1,-3.195240084748316e-4
1996,10261,2,-1.325295507459315e-4
1996,10261,3,-4.459514626121855e-4
1996,10261,4,-6.238808737003268e-5
1996,10261,12,-1.0354896359658557e-4
1996,21720,0,-3.707829202183373e-5
1996,21720,1,-2.3739437616205632e-4
1996,21720,2,2.856566410670421e-5
1996,21720,3,-3.8163916471489756e-17
1996,21720,4,-2.9751447384112294e-5
1996,21720,12,-4.08622105305497e-5
1996,21740,0,-6.350422114428936e-5
1996,21740,1,-1.0050132122052755e-4
1996,21740,2,-8.007056008409344e-5
1996,21740,3,-1.198553895885365e-4
1996,21740,4,-4.7316464503044405e-5
1996,21740,12,-4.563755575655551e-5
1997,10210,0,-2.7640883716398566e-4
1997,10210,1,-9.570054284555625e-4
1997,10210,2,-6.354056784516035e-4
1997,10210,3,-0.017323992177464966
1997,10210,4,-3.8612358759407137e-4
1997,10210,12,-3.963417681617674e-4
1997,10261,0,-4.255402789450523e-4
1997,10261,1,-0.0010595239314919402
1997,10261,2,-7.031608409805085e-4
1997,10261,3,-2.146696826066361e-4
1997,10261,4,-3.497521319509233e-4
1997,10261,12,-6.768802078303406e-4
1997,21720,0,-1.8760534037921586e-4
1997,21720,1,-5.398196101738626e-4
1997,21720,2,-8.399563603177541e-5
1997,21720,3,-1.9560391754880072e-4
1997,21720,4,-1.4170687665144747e-4
1997,21720,12,-1.233883906138929e-4
1997,21740,0,-2.7183735911300682e-5
1997,21740,1,-9.076826479263485e-5
1997,21740,2,-3.495482921315586e-5
1997,21740,3,-1.7678517527940709e-6
1997,21740,4,-3.0186444333741854e-5
1997,21740,12,-3.187877556576232e-5
1998,10110,0,-0.0011808396523355102
1998,10110,1,-0.004903339051782276
1998,10110,2,-0.001852553824905886
1998,10110,3,-0.1288363916591911
1998,10110,4,-0.0015103242328041043
1998,10110,12,-0.002968320631380823
1998,10115,0,-0.0055442496837038386
1998,10115,1,-0.014079733820318666
1998,10115,2,-0.02006674622149554
1998,10115,3,0
1998,10115,4,-0.004512003419093072
1998,10115,12,-0.008641485973987104
1998,10210,0,-1.7188289906659707e-4
1998,10210,1,-8.005806066126692e-4
1998,10210,2,-3.0417371168516526e-4
1998,10210,3,-9.138932035056383e-4
1998,10210,4,-2.3897676233478925e-4
1998,10210,12,-2.7139171053225207e-4
1998,10261,0,-1.6767032860782191e-4
1998,10261,1,-6.832709697490262e-4
1998,10261,2,-3.0629705183728525e-4
1998,10261,3,-0.001777169949852821
1998,10261,4,-1.417070601536062e-4
1998,10261,12,-1.8757493898716897e-4
1998,10285,0,-5.320165389405954e-4
1998,10285,1,-4.555561940638327e-4
1998,10285,2,-8.217936783030445e-4
1998,10285,4,-4.955759275072706e-4
1998,10285,12,-3.9093291197063955e-4
1998,21720,0,-1.6715905370535012e-4
1998,21720,1,-1.4760302515225403e-4
1998,21720,2,-1.1070245764406991e-4
1998,21720,3,-6.938893903907228e-17
1998,21720,4,-8.711928080888312e-5
1998,21720,12,-6.453209551298955e-5
1998,21740,0,-2.5649146442475853e-5
1998,21740,1,-2.732157864918698e-5
1998,21740,2,-4.695690457063772e-5
1998,21740,3,-1.1938659622881629e-4
1998,21740,4,-2.1513081021462267e-5
1998,21740,12,-1.8345951756634484e-5
1999,10130,0,-6.01230562930661e-4
1999,10130,1,-8.834387647865457e-4
1999,10130,2,-8.118036420801599e-4
1999,10130,3,-0.008511081826698874
1999,10130,4,-4.744385700668213e-4
1999,10130,12,-4.299367651586519e-4
1999,10210,0,-7.906435654124682e-5
1999,10210,1,-9.667741714942853e-5
1999,10210,2,-1.42902007224436e-4
1999,10210,3,-1.7385777849511294e-4
1999,10210,4,-7.581860550123121e-5
1999,10210,12,-7.88150823036111e-5
1999,10261,0,-1.2353534605675823e-4
1999,10261,1,-8.738784820417613e-4
1999,10261,2,-2.487387531884802e-4
1999,10261,3,-5.034238086406538e-4
1999,10261,4,-1.0886944204185179e-4
1999,10261,12,-2.3481592967424555e-4
1999,21720,0,-9.817109387066141e-5
1999,21720,1,-3.5367985276140964e-4
1999,21720,2,-2.3824165643544318e-4
1999,21720,3,-2.2126728005742238e-4
1999,21720,4,-1.4784116730290009e-4
1999,21720,12,-1.2855276786923061e-4
1999,21740,0,-1.9952785828906817e-5
1999,21740,1,-2.842102466252555e-5
1999,21740,2,-7.158963669368667e-5
1999,21740,3,-2.5625440205449823e-6
1999,21740,4,-2.6564002062065178e-5
1999,21740,12,-2.5594741315804626e-5
2000,10130,0,-8.346540320170406e-4
2000,10130,1,-4.94494930289779e-4
2000,10130,2,-7.263223632641606e-4
2000,10130,3,-0.0022229593062757093
2000,10130,4,-1.6515821996929234e-4
2000,10130,12,-2.847658873038936e-4
2000,10210,0,-2.4584112728099565e-4
2000,10210,1,-0.0020932690489032647
2000,10210,2,-3.0042334072014683e-4
2000,10210,3,-0.0022297964269847727
2000,10210,4,-3.2407731372088367e-4
2000,10210,12,-5.293775731593623e-4
2000,10261,0,-1.3231219820535904e-4
2000,10261,1,-1.2767126546071555e-4
2000,10261,2,-5.024517373906185e-4
2000,10261,4,-5.523598643290067e-5
2000,10261,12,-2.064798777768242e-4
2000,10285,0,-1.8663065921478957e-4
2000,10285,1,-0.00403004697202726
2000,10285,2,-6.452056318506758e-4
2000,10285,3,-0.0010537912956550969
2000,10285,4,-2.2560813003053503e-4
2000,10285,12,-0.0010165817044431183
2000,21720,0,-4.287374596583997e-5
2000,21720,1,7.727404574805776e-18
2000,21720,2,-1.2324400285679136e-4
2000,21720,3,1.8919327909872052e-17
2000,21720,4,-2.9073642601105122e-6
2000,21720,12,-4.6187580253109975e-5
2000,21740,0,-1.700477343702752e-5
2000,21740,1,-9.248258215748036e-5
2000,21740,2,-8.93864389381644e-6
2000,21740,3,-1.177431430943408e-6
2000,21740,4,-1.2182192223292823e-5
2000,21740,12,-2.0738738969353645e-5
2001,10130,0,-3.166190602599049e-4
2001,10130,1,-3.193077398859222e-4
2001,10130,2,-7.051181316012098e-4
2001,10130,3,-0.08662614701744854
2001,10130,4,-2.9956520004268636e-4
2001,10130,12,-2.522845849869883e-4
2001,10210,0,-2.236040130585715e-4
2001,10210,1,-6.696377096397044e-4
2001,10210,2,-3.5528369828263524e-4
2001,10210,3,-7.772967964663704e-4
2001,10210,4,-2.686910286019303e-4
2001,10210,12,-2.675107724196674e-4
2001,10261,0,-1.1222210627102746e-4
2001,10261,1,-3.899016113255891e-4
2001,10261,2,-2.4557589024485065e-4
2001,10261,4,-1.1960636025220013e-4
2001,10261,12,-1.3362761232348417e-4
2001,10285,0,-2.805807461137412e-4
2001,10285,1,-0.0020833736488211495
2001,10285,2,-4.577999538134681e-4
2001,10285,4,-6.301725032508472e-4
2001,10285,12,-6.829309145019003e-4
2001,21720,0,-4.5793526183963155e-5
2001,21720,1,-1.0589058896685465e-5
2001,21720,2,-2.6142738820870813e-4
2001,21720,3,-5.662455007919148e-4
2001,21720,4,-4.1332195113384417e-5
2001,21720,12,-5.79981604262957e-5
2001,21740,0,-2.3265171617918115e-18
2001,21740,1,-2.0141127814684156e-5
2001,21740,2,2.7940793486761853e-18
2001,21740,3,-4.378835021372755e-6
2001,21740,4,-1.1474472992138256e-18
2001,21740,12,-9.287487280610599e-6
2002,10130,0,-7.886548060143877e-4
2002,10130,1,-0.0025985474405496437
2002,10130,2,-0.0014493525393156766
2002,10130,3,-5.420796698048861e-4
2002,10130,4,-8.651549827084356e-4
2002,10130,12,-9.933260201988039e-4
2002,10210,0,-7.44157667449833e-5
2002,10210,1,-4.872239912348681e-4
2002,10210,2,-1.8113260271005618e-4
2002,10210,3,-4.348674895144844e-5
2002,10210,4,-5.830416297680857e-5
2002,10210,12,-1.7115297914916354e-4
2002,10261,0,-2.4742845215980265e-5
2002,10261,1,-8.631256660329096e-4
2002,10261,2,-5.4751545185670634e-5
2002,10261,3,-0.014013868502441554
2002,10261,4,-4.501631468334767e-5
2002,10261,12,-3.072782853960883e-4
2002,10285,0,-5.2141403013583715e-5
2002,10285,1,-8.480745080046079e-4
2002,10285,2,-1.8941701649146593e-4
2002,10285,3,-7.141738756664595e-4
2002,10285,4,-9.873229204997818e-5
2002,10285,12,-2.8904802461023136e-4
2002,21720,0,-3.5738262752700764e-5
2002,21720,1,-7.34656137224398e-5
2002,21720,2,-7.158004549011514e-5
2002,21720,3,-6.938893903907228e-18
2002,21720,4,-4.909418059461993e-5
2002,21720,12,-4.534921416008578e-5
2002,21740,0,-8.103869562348108e-7
2002,21740,1,-1.1048732131461618e-5
2002,21740,2,-3.331321956269954e-5
2002,21740,3,-6.702608539142725e-19
2002,21740,4,-5.301589953125979e-7
2002,21740,12,-1.0176299002005486e-5
2003,10115,0,-6.653499809588524e-4
2003,10115,1,-0.0019947030113874773
2003,10115,2,-0.0016091457687143727
2003,10115,3,-0.005332585894620612
2003,10115,4,-7.51566327974077e-4
2003,10115,12,-0.001097853020186277
2003,10130,0,-6.76990685055251e-4
2003,10130,1,-3.352646363944582e-4
2003,10130,2,-9.416500571149986e-4
2003,10130,3,-0.0013754436302116024
2003,10130,4,-3.956508866666312e-4
2003,10130,12,-3.606010712985058e-4
2003,10210,0,-1.2335251455847964e-4
2003,10210,1,-3.5820018357503514e-4
2003,10210,2,-1.0962451375320687e-5
2003,10210,3,-1.9332079101426524e-4
2003,10210,4,-3.4884293644367204e-5
2003,10210,12,-1.0675347258713609e-4
2003,10261,0,-1.1042411186350553e-4
2003,10261,1,-4.6796050360099496e-4
2003,10261,2,-2.3768157208477325e-4
2003,10261,3,-1.998882298543225e-5
2003,10261,4,-2.169455772708809e-5
2003,10261,12,-1.5545905210704775e-4
2003,21720,0,-2.4120811892479048e-5
2003,21720,1,-1.0930931419147138e-4
2003,21720,2,-1.2603620947668196e-4
2003,21720,3,-0.0031500778355167056
2003,21720,4,-7.689378227489178e-6
2003,21720,12,-5.8414784692605585e-5
2003,21740,0,-4.0173058207731564e-06
2003,21740,1,-2.4210574522699102e-5
2003,21740,2,-5.226665734507993e-6
2003,21740,3,-2.5316767897816426e-5
2003,21740,4,-4.0186740341081684e-6
2003,21740,12,-6.519428556910983e-6
2004,10110,0,-1.3166136220975352e-4
2004,10110,1,-8.4133781263757e-4
2004,10110,2,-7.814494144370024e-5
2004,10110,3,-0.02260640665861348
2004,10110,4,-4.605838216515251e-5
2004,10110,12,-4.7817432510392945e-4
2004,10115,0,-0.0015068744328247058
2004,10115,1,-0.00542028240068568
2004,10115,2,-0.005592215204188494
2004,10115,4,-0.0018259650623879665
2004,10115,12,-0.003156665649177335
2004,10130,0,-2.438290453486174e-4
2004,10130,1,-9.589171341057357e-4
2004,10130,2,-5.938767232408627e-4
2004,10130,3,-5.332422581872618e-4
2004,10130,4,-2.2726876902702027e-4
2004,10130,12,-3.368926185239729e-4
2004,10210,0,-2.556853033656482e-5
2004,10210,1,-9.652246541995255e-4
2004,10210,2,-2.687920254176664e-5
2004,10210,3,-0.007900598274409708
2004,10210,4,-1.4286214254157681e-5
2004,10210,12,-2.1203724334443587e-4
2004,10261,0,-1.4877736840682786e-4
2004,10261,1,-0.001609989472422285
2004,10261,2,-3.312249283931448e-4
2004,10261,3,-8.570788785023277e-5
2004,10261,4,-1.5260414940931067e-4
2004,10261,12,-6.778526852746341e-4
2004,21720,0,-5.28985178983174e-5
2004,21720,1,-1.7477758876276845e-4
2004,21720,2,-9.594487040059454e-5
2004,21720,3,-6.0835829252002755e-5
2004,21720,4,-6.173058972121458e-5
2004,21720,12,-6.828843024426413e-5
2004,21740,0,-4.672072998128735e-6
2004,21740,1,-1.725224133607639e-5
2004,21740,2,-7.110842092490078e-5
2004,21740,3,-1.1095564293215923e-6
2004,21740,4,-3.6890574996796157e-6
2004,21740,12,-2.776609015411751e-5
2005,10115,0,-0.0014314856616505288
2005,10115,1,-0.004912340279390377
2005,10115,2,-0.005936366783350384
2005,10115,3,-0.33062605525435784
2005,10115,4,-0.0018763840655372282
2005,10115,12,-0.002744561261475865
2005,10130,0,-3.9810811023471664e-4
2005,10130,1,-0.0010109950390808416
2005,10130,2,-0.001164390279902181
2005,10130,3,-0.0013973024306294074
2005,10130,4,-4.0892933847292166e-4
2005,10130,12,-5.326007004920123e-4
2005,10210,0,-4.3315675174975866e-5
2005,10210,1,-0.0012207179807301343
2005,10210,2,-2.0405229463875854e-4
2005,10210,3,-0.2256971623066435
2005,10210,4,-6.616497618127515e-5
2005,10210,12,-3.204728534868411e-4
2005,10261,0,-7.052875259420267e-5
2005,10261,1,-2.607172184945831e-4
2005,10261,2,-2.2676259159954676e-4
2005,10261,3,-0.0018605046056784935
2005,10261,4,-9.84546041086581e-5
2005,10261,12,-1.397936397148783e-4
2005,10285,0,-4.5476726543003127e-4
2005,10285,1,-0.0016841803005700144
2005,10285,2,-0.0011676046559551771
2005,10285,4,-4.416092294513581e-4
2005,10285,12,-7.845763906838891e-4
2005,21720,0,-6.849008932364367e-5
2005,21720,1,-1.21073222160345e-4
2005,21720,2,-8.761197460131763e-5
2005,21720,3,-0.0019807299086540414
2005,21720,4,-7.372485209373581e-5
2005,21720,12,-4.9748109780790516e-5
2005,21740,0,-1.72577096757574e-5
2005,21740,1,-6.100388828323204e-5
2005,21740,2,-4.3089569913414327e-5
2005,21740,3,-2.9943813754487936e-6
2005,21740,4,-2.3809421820737406e-5
2005,21740,12,-2.6345060655858035e-5
2006,10115,0,-0.0020715838241167376
2006,10115,1,-0.009808775267040508
2006,10115,2,-0.0037552446668467727
2006,10115,3,-0.032979034569768625
2006,10115,4,-0.0017885448917851954
2006,10115,12,-0.0032934806894218726
2006,10130,0,-3.246488717843524e-4
2006,10130,1,-0.0010037957630256982
2006,10130,2,-6.502072673133945e-4
2006,10130,3,-0.02653444052322381
2006,10130,4,-2.649622594979334e-4
2006,10130,12,-4.142741126587325e-4
2006,10210,0,-9.635165108685771e-5
2006,10210,1,-0.0014751458816572177
2006,10210,2,-2.8463268120020718e-5
2006,10210,3,-2.2248823094279905e-4
2006,10210,4,-3.224368567292399e-5
2006,10210,12,-3.7293956787179004e-4
2006,10261,0,-6.812344130104017e-5
2006,10261,1,-2.190332344216144e-4
2006,10261,2,-2.933195432492135e-4
2006,10261,3,-6.017591384771219e-6
2006,10261,4,-8.902035774050153e-5
2006,10261,12,-1.1737661621433915e-4
2006,10285,0,-0.0013128154574125956
2006,10285,1,-0.0034924741979997587
2006,10285,2,-0.0013951701327649868
2006,10285,3,-0.0031871087200579023
2006,10285,4,-8.352775071570068e-4
2006,10285,12,-0.0014954423428162888
2006,21720,0,-5.433282076178955e-5
2006,21720,1,-2.435527161693614e-4
2006,21720,2,-9.979132397323633e-5
2006,21720,3,-8.667717949335458e-4
2006,21720,4,-6.31083035117772e-5
2006,21720,12,-7.417194111723725e-5
2006,21740,0,-2.213716912244821e-5
2006,21740,1,-5.677755082191641e-6
2006,21740,2,-6.363781224461975e-5
2006,21740,3,-1.6083843369974905e-5
2006,21740,4,-7.628434209491755e-6
2006,21740,12,-1.6296153642242227e-5
2007,10115,0,-0.002021657998817897
2007,10115,1,-0.008823932259633632
2007,10115,2,-0.006101534896785159
2007,10115,3,-0.14606294122573404
2007,10115,4,-0.0018100351885339597
2007,10115,12,-0.003797881083150656
2007,10130,0,-4.4584601885534823e-4
2007,10130,1,-3.8416348968457775e-4
2007,10130,2,-5.500647968601459e-4
2007,10130,3,-0.0010552065105320747
2007,10130,4,-2.3189515542290691e-4
2007,10130,12,-2.455481787890446e-4
2007,10210,0,-1.5639511191582476e-4
2007,10210,1,-7.358130980092427e-4
2007,10210,2,-1.7426627201536606e-4
2007,10210,3,-0.006286711642036793
2007,10210,4,-1.0007471635962523e-4
2007,10210,12,-2.1871802559329584e-4
2007,10261,0,-1.7863002551785095e-4
2007,10261,1,-2.606671507696624e-4
2007,10261,2,-1.598602790196947e-4
2007,10261,3,-6.32461917202804e-5
2007,10261,4,-6.993701019575985e-5
2007,10261,12,-1.2839654605386423e-4
2007,10285,0,-3.166275408849668e-4
2007,10285,1,-0.0010303226749430827
2007,10285,2,-9.492886914552604e-4
2007,10285,3,-6.705493814940333e-4
2007,10285,4,-1.7362388509635886e-4
2007,10285,12,-6.300937467251763e-4
2007,21720,0,-8.407084345814682e-19
2007,21720,1,-3.3475844643268204e-5
2007,21720,2,-3.144186300207963e-18
2007,21720,3,5.651429011003994e-7
2007,21720,4,-8.641994816519874e-18
2007,21720,12,-5.1238443366771925e-6
2007,21740,0,-9.847641518281497e-6
2007,21740,1,-2.7105891288647242e-5
2007,21740,2,-5.7047240194944715e-5
2007,21740,3,-6.282154608553127e-18
2007,21740,4,5.8671152568823e-6
2007,21740,12,-2.111830952465868e-5
2008,10115,0,-0.0018364122133055908
2008,10115,1,-0.01534800619149805
2008,10115,2,-0.00850149404131341
2008,10115,3,-0.0044500327555880405
2008,10115,4,-0.00233072876495479
2008,10115,12,-0.005281947499252569
2008,10130,0,-2.904996434387345e-4
2008,10130,1,-6.90695317091129e-4
2008,10130,2,-7.831868106873468e-4
2008,10130,3,-4.7421855109042096e-4
2008,10130,4,-2.944951104463409e-4
2008,10130,12,-3.294542014533956e-4
2008,10210,0,-1.4080791548635828e-4
2008,10210,1,-3.001237770635478e-4
2008,10210,2,-2.523252575270284e-4
2008,10210,3,-0.001470112326871778
2008,10210,4,-8.150417665000002e-5
2008,10210,12,-1.2776542146070396e-4
2008,10261,0,-5.521430767854193e-4
2008,10261,1,-0.00161617089848922
2008,10261,2,-8.488389394906061e-4
2008,10261,3,-0.005715702934868971
2008,10261,4,-2.3547392956796214e-4
2008,10261,12,-4.654883761672831e-4
2008,10285,0,-5.009858935611292e-4
2008,10285,1,-0.0020688527443358425
2008,10285,2,-9.109812738987288e-4
2008,10285,4,-9.630758399878279e-4
2008,10285,12,-7.661004760774341e-4
2008,21720,0,-2.1442716099570045e-5
2008,21720,1,-2.009944027453897e-18
2008,21720,2,1.4247293784577377e-5
2008,21720,3,-0.046640833134796056
2008,21720,4,-7.706175441358509e-18
2008,21720,12,1.2973956453868833e-5
2008,21740,0,-9.017408959590652e-5
2008,21740,1,-7.184084022637745e-5
2008,21740,2,-7.256821668179339e-5
2008,21740,3,-1.4146915811600116e-4
2008,21740,4,-3.668877061171686e-5
2008,21740,12,-3.694076354244549e-5
2009,10115,0,-0.0011102900550072166
2009,10115,1,-0.004934386014992169
2009,10115,2,-0.005949099899134551
2009,10115,3,-5.212854761044144e-4
2009,10115,4,-0.0010852212206244926
2009,10115,12,-0.002627308778881746
2009,10130,0,-2.2020378253364068e-4
2009,10130,1,-1.849098240874268e-4
2009,10130,2,-2.3508161027754122e-4
2009,10130,3,-0.003685205117635969
2009,10130,4,-2.1041230718765674e-5
2009,10130,12,-8.753491701356233e-5
2009,10210,0,-1.5865573014584993e-4
2009,10210,1,-1.56143842609545e-4
2009,10210,2,-1.0629919314329837e-4
2009,10210,3,-0.004616468457329898
2009,10210,4,-9.132390786533417e-5
2009,10210,12,-7.420069728991927e-5
2009,10261,0,-1.299665284786327e-4
2009,10261,1,-5.499147886953897e-5
2009,10261,2,-9.654415041733912e-5
2009,10261,3,-9.339370994205525e-6
2009,10261,4,-4.9521821663862027e-5
2009,10261,12,-4.482531665997681e-5
2009,10285,0,-2.0900691224769568e-5
2009,10285,1,-6.343508985694337e-5
2009,10285,2,-1.593552810394092e-5
2009,10285,3,-0.009208401819491603
2009,10285,4,-6.985225085927655e-6
2009,10285,12,-2.3128270648579936e-5
2009,21720,0,2.278760637527569e-18
2009,21720,1,-7.934066956775565e-6
2009,21720,2,2.502005013428087e-19
2009,21720,3,-1.0890014906454808e-5
2009,21720,4,-2.792483845277276e-6
2009,21720,12,-2.0767565463442485e-6
2009,21740,0,1.1124366040606479e-19
2009,21740,1,-4.053118843184346e-5
2009,21740,2,-3.6987105363437784e-18
2009,21740,3,-4.313674033915571e-6
2009,21740,4,-1.3893494136177964e-6
2009,21740,12,-1.4034325671989833e-5
2010,10110,0,-7.90190900412865e-5
2010,10110,1,-0.001249687018499616
2010,10110,2,-1.5411100641599451e-4
2010,10110,3,-0.0048869773768809395
2010,10110,4,-1.1688784833811321e-4
2010,10110,12,-3.4370674265531836e-4
2010,10115,0,-3.645312602778587e-4
2010,10115,1,-0.0014831792659794907
2010,10115,2,-0.003829593245524544
2010,10115,3,-2.008606552879929e-4
2010,10115,4,-5.711568366502948e-4
2010,10115,12,-0.0014072774650051498
2010,10130,0,-1.3085728733744866e-4
2010,10130,1,-5.584976405801451e-4
2010,10130,2,-2.3444750736643016e-4
2010,10130,3,-0.002354400952035963
2010,10130,4,-5.438410097829267e-5
2010,10130,12,-2.125295609995131e-4
2010,10210,0,-9.745660556112663e-5
2010,10210,1,-2.130221181963576e-4
2010,10210,2,-1.2972989890108538e-4
2010,10210,3,-0.0023966549314552677
2010,10210,4,-9.528212212595883e-5
2010,10210,12,-7.749433145459816e-5
2010,10261,0,-1.1570791120667565e-4
2010,10261,1,-1.1046259469389652e-4
2010,10261,2,-7.137474221466483e-4
2010,10261,3,9.25185853854297e-18
2010,10261,4,-2.360552777320978e-4
2010,10261,12,-2.4712509964948214e-4
2010,10285,0,-2.2648879331380986e-4
2010,10285,1,-6.751177814260654e-4
2010,10285,2,-5.146876165293994e-4
2010,10285,4,-2.5310477859472204e-4
2010,10285,12,-3.138472871787067e-4
2010,21720,0,-3.177671121141108e-5
2010,21720,1,-3.8346140778210034e-5
2010,21720,2,-3.161520272851847e-6
2010,21720,3,-1.639597357277825e-4
2010,21720,4,-1.310388495020438e-5
2010,21720,12,-1.0685967320121605e-5
2010,21740,0,-2.2542505107568126e-5
2010,21740,1,-1.193511019960033e-5
2010,21740,2,-2.4327227285050402e-5
2010,21740,3,-3.3840263208382038e-6
2010,21740,4,-9.390463999882368e-6
2010,21740,12,-9.712746069919275e-6
2011,10115,0,-1.721771891028399e-4
2011,10115,1,-0.001701926855777436
2011,10115,2,-9.996139149920024e-4
2011,10115,3,-0.0045708696909283085
2011,10115,4,-2.1711459377088844e-4
2011,10115,12,-5.666154966437394e-4
2011,10130,0,-1.7205477089264864e-4
2011,10130,1,-3.3230527181667846e-4
2011,10130,2,-1.9042681979451767e-4
2011,10130,3,-0.005553014725125901
2011,10130,4,-1.7449611194714082e-4
2011,10130,12,-1.2722289626675303e-4
2011,10210,0,-8.388476317340124e-5
2011,10210,1,-3.639992488392387e-4
2011,10210,2,-1.1990798738862697e-4
2011,10210,3,-4.848002742030211e-4
2011,10210,4,-7.276194359582771e-5
2011,10210,12,-1.3176190015998826e-4
2011,10261,0,-1.0690584206951525e-4
2011,10261,1,-8.169774516790292e-4
2011,10261,2,-1.756118233190892e-4
2011,10261,3,-0.0013738962771714077
2011,10261,4,-9.428285682542153e-5
2011,10261,12,-3.034473232428701e-4
2011,10285,0,-4.410917974611278e-5
2011,10285,1,-4.358787422806288e-4
2011,10285,2,-1.3828598105694711e-4
2011,10285,3,-2.451248524195846e-4
2011,10285,4,-8.423174748974546e-5
2011,10285,12,-1.5475015102582303e-4
2011,21720,0,7.399679827213568e-18
2011,21720,1,-2.050578716763118e-5
2011,21720,2,4.491694714582804e-18
2011,21720,3,-3.5562697884171225e-5
2011,21720,4,3.96895438142015e-20
2011,21720,12,-3.825831135599831e-6
2011,21740,0,-1.5269000954041245e-6
2011,21740,1,-2.6408045371529842e-5
2011,21740,2,-1.3316831031615435e-18
2011,21740,3,-8.27556367013833e-7
2011,21740,4,-7.336717924833994e-6
2011,21740,12,-1.4364313176555388e-5
2012,10110,0,-1.1940875012565198e-4
2012,10110,1,-0.002121993413774662
2012,10110,2,-1.5309095738248323e-4
2012,10110,3,-0.4052581054941248
2012,10110,4,-1.0459805087347667e-4
2012,10110,12,-3.4292219439319805e-4
2012,10115,0,-6.62842144821685e-4
2012,10115,1,-0.002557598979943607
2012,10115,2,-0.0017732224088145361
2012,10115,3,-0.005110023119232247
2012,10115,4,-8.790556273213917e-4
2012,10115,12,-0.0011425044898112718
2012,10130,0,-2.3837507553894465e-4
2012,10130,1,-2.770207971504189e-4
2012,10130,2,-4.853057445413943e-4
2012,10130,3,-5.933351609417204e-5
2012,10130,4,-1.7293338522529668e-4
2012,10130,12,-2.107108054627978e-4
2012,10210,0,-2.1495740135177787e-4
2012,10210,1,-5.724899367999896e-4
2012,10210,2,-6.29760978162286e-5
2012,10210,3,-2.85213368550814e-4
2012,10210,4,-5.6282193503874187e-5
2012,10210,12,-1.9000402887474032e-4
2012,10261,0,-3.134666160854432e-4
2012,10261,1,-0.0010034073989654891
2012,10261,2,-5.547022730926285e-4
2012,10261,3,0
2012,10261,4,-1.24360794768509e-4
2012,10261,12,-3.824311599432259e-4
2012,10285,0,-4.7773790740195935e-5
2012,10285,1,-7.136409276759332e-4
2012,10285,2,-1.1632369977065833e-4
2012,10285,4,-6.58194938487897e-5
2012,10285,12,-2.4699751152289e-4
2012,21720,0,1.2672482115451758e-6
2012,21720,1,1.2927025902711784e-18
2012,21720,2,-6.7512435279001215e-18
2012,21720,3,-1.1842479602117151e-4
2012,21720,4,-3.649501955598528e-19
2012,21720,12,-7.625645943418923e-7
2012,21740,0,-2.604170963618762e-6
2012,21740,1,-1.872957492844655e-5
2012,21740,2,-9.430923621627715e-6
2012,21740,3,-2.8624004754400963e-5
2012,21740,4,-6.811927034237398e-6
2012,21740,12,-7.1520254378760186e-6
2013,10115,0,-0.003978891203233758
2013,10115,1,-0.003703616545221476
2013,10115,2,-0.006305352956739405
2013,10115,3,-0.13223510309429454
2013,10115,4,-0.0035296484186550015
2013,10115,12,-0.0030631676699821643
2013,10130,0,-1.5078628614987455e-4
2013,10130,1,-6.333876790085138e-4
2013,10130,2,-6.248247811268027e-4
2013,10130,3,-6.857405724575124e-4
2013,10130,4,-1.8571417197423912e-4
2013,10130,12,-2.7881589506624494e-4
2013,10210,0,-1.0056396480816175e-4
2013,10210,1,-1.9077573014841947e-4
2013,10210,2,-1.852698831183432e-4
2013,10210,3,-5.782999469615621e-4
2013,10210,4,-1.272121314008595e-4
2013,10210,12,-9.584864411101719e-5
2013,10261,0,-1.747981299676518e-4
2013,10261,1,-3.771381832678421e-4
2013,10261,2,-6.633929905237351e-4
2013,10261,3,-0.008376265466168395
2013,10261,4,-9.150522490654722e-5
2013,10261,12,-2.6776436763234046e-4
2013,10285,0,-1.8315971726805475e-4
2013,10285,1,-7.603440618410135e-4
2013,10285,2,-2.101229903274854e-4
2013,10285,4,-1.1738874677369793e-4
2013,10285,12,-2.74726065345655e-4
2013,21720,0,-1.0363995143958176e-5
2013,21720,1,7.365090491967774e-6
2013,21720,2,-2.689655389435194e-19
2013,21720,3,-1.2344979458290761e-5
2013,21720,4,6.979551485375435e-18
2013,21720,12,1.608708953021696e-6
2013,21740,0,-2.4446126749904834e-6
2013,21740,1,-3.780372812248784e-5
2013,21740,2,-4.488975447363959e-6
2013,21740,3,-2.794840766485848e-6
2013,21740,4,-1.973923228310914e-6
2013,21740,12,-1.2248044881717463e-5
2014,10110,0,-2.0898961929060353e-4
2014,10110,1,-0.0029437508587867984
2014,10110,2,-3.689891160592098e-4
2014,10110,3,-0.009457677263326506
2014,10110,4,-2.825707031616001e-4
2014,10110,12,-0.0013149530334567944
2014,10115,0,-8.850328709961067e-4
2014,10115,1,-0.0062420589861336305
2014,10115,2,-0.00405633618341956
2014,10115,3,-0.10643538594109436
2014,10115,4,-0.0011939853499746335
2014,10115,12,-0.002653939290105755
2014,10130,0,-1.5156672502548082e-4
2014,10130,1,-3.912320553904881e-4
2014,10130,2,-3.355711781507044e-4
2014,10130,3,-2.5203469271076234e-5
2014,10130,4,-1.2608218299361472e-4
2014,10130,12,-2.1093688621227628e-4
2014,10210,0,-1.2088495957326043e-5
2014,10210,1,-2.937452312819094e-4
2014,10210,2,-1.7224046946738165e-4
2014,10210,3,-0.0028612873775867615
2014,10210,4,-5.7971845422407126e-6
2014,10210,12,-1.365779452323201e-4
2014,10261,0,-1.6493897300216666e-4
2014,10261,1,-2.47377615361947e-4
2014,10261,2,-9.310313292829351e-5
2014,10261,3,-0.026207333301512776
2014,10261,4,-4.9189363637428464e-5
2014,10261,12,-9.086904631371336e-5
2014,10285,0,-8.086752734345903e-5
2014,10285,1,-0.0016641570363214763
2014,10285,2,-1.23981168556369e-4
2014,10285,4,-7.102535325431792e-5
2014,10285,12,-3.0959703938741054e-4
2014,21720,0,-2.4227786398267526e-5
2014,21720,1,-6.619646811083405e-5
2014,21720,2,-3.0245713151040563e-5
2014,21720,3,-2.8433390541937023e-5
2014,21720,4,-3.1781857845964334e-5
2014,21720,12,-1.7990599370999188e-5
2014,21740,0,-2.5732874898224214e-6
2014,21740,1,4.24237761837434e-6
2014,21740,2,-1.6735478485914165e-6
2014,21740,3,-8.14233904554585e-5
2014,21740,4,-3.7875684860238886e-6
2014,21740,12,-9.60960053034831e-7
2015,10110,0,-3.7264587544436523e-4
2015,10110,1,-0.002459453362287947
2015,10110,2,-3.119326379432794e-4
2015,10110,3,-3.8693495336288535e-4
2015,10110,4,-3.5210486829744046e-4
2015,10110,12,-4.932318480996492e-4
2015,10115,0,-0.002048468885950037
2015,10115,1,-0.004116673409866183
2015,10115,2,-0.006903853589258504
2015,10115,3,-0.006126956508250591
2015,10115,4,-0.002036225861354518
2015,10115,12,-0.003497388710668618
2015,10130,0,-2.444445858562587e-5
2015,10130,1,-2.4678608761428305e-4
2015,10130,2,-2.231346471671058e-4
2015,10130,3,-0.001048273282546058
2015,10130,4,-4.919036099694186e-5
2015,10130,12,-1.4526530533182734e-4
2015,10210,0,-4.52877562416639e-5
2015,10210,1,-1.3854192338909332e-4
2015,10210,2,-1.7834256891563127e-4
2015,10210,4,-3.909459321124834e-5
2015,10210,12,-9.498698839885079e-5
2015,10261,0,-1.0856552100764487e-5
2015,10261,1,-0.0018077881885981992
2015,10261,2,-8.188504662253695e-5
2015,10261,3,-0.00991420305707183
2015,10261,4,-9.94734644091695e-6
2015,10261,12,-4.3210926970913243e-4
2015,21720,0,-5.249001498689793e-6
2015,21720,1,-3.0798832237540485e-5
2015,21720,2,-1.56718403079386e-5
2015,21720,3,-1.6046977555999075e-5
2015,21720,4,-4.389972191957174e-6
2015,21720,12,-1.8566681579776354e-5
2015,21740,0,-1.7602488791253856e-5
2015,21740,1,-7.587775056027065e-5
2015,21740,2,-3.183756385610434e-5
2015,21740,3,-2.27995242751886e-5
2015,21740,4,-1.2043592310001086e-5
2015,21740,12,-3.029939961666689e-5
2016,10110,0,-2.3818976458394738e-4
2016,10110,1,-4.6532008610201866e-4
2016,10110,2,-5.273246416145617e-4
2016,10110,3,-0.0010141567955772425
2016,10110,4,-2.616110600620668e-4
2016,10110,12,-3.823844587926691e-4
2016,10112,0,-2.529496304485149e-4
2016,10112,1,-0.001189659321447902
2016,10112,2,-6.670105032397589e-4
2016,10112,3,-8.989669231391176e-4
2016,10112,4,-2.94325942200186e-4
2016,10112,12,-4.828706046963002e-4
2016,10115,0,-0.003031178653316416
2016,10115,1,-0.010669121967371936
2016,10115,2,-0.005738489014485173
2016,10115,3,-0.024296512087067235
2016,10115,4,-0.002886587243917843
2016,10115,12,-0.003623108400855766
2016,10130,0,-1.250924941199958e-4
2016,10130,1,-8.650957542836363e-4
2016,10130,2,-6.01520529273434e-4
2016,10130,3,-0.01870650850730634
2016,10130,4,-1.0748559975409471e-4
2016,10130,12,-3.2520857047796403e-4
2016,10210,0,6.217061661613764e-5
2016,10210,1,-3.09745044984988e-4
2016,10210,2,-1.044026757954252e-4
2016,10210,3,-1.714574864911072e-4
2016,10210,4,4.739073729497475e-5
2016,10210,12,-6.91097861584916e-5
2016,10261,0,-8.106498431146705e-5
2016,10261,1,-0.0010509140323498721
2016,10261,2,-5.014878103014345e-5
2016,10261,3,-2.0495865414276024e-5
2016,10261,4,-2.7284293012689268e-5
2016,10261,12,-4.2683757411208703e-4
2016,10285,0,-3.8893784406957813e-4
2016,10285,1,-0.0016979698125161198
2016,10285,2,-5.853472936458085e-4
2016,10285,3,-0.048356075832906756
2016,10285,4,-4.6131871065334e-4
2016,10285,12,-6.557437735226297e-4
2016,21720,0,-8.033429049556824e-6
2016,21720,1,-1.3533368518419255e-5
2016,21720,2,-1.9389140025536088e-5
2016,21720,3,-8.305334655883098e-5
2016,21720,4,-8.190330570843239e-6
2016,21720,12,-1.1959266450116015e-5
2016,21740,0,-5.4331762976907225e-5
2016,21740,1,-1.2681725069378088e-4
2016,21740,2,-2.8651012287466726e-5
2016,21740,3,-3.3691983053503264e-6
2016,21740,4,-1.4828431014665891e-5
2016,21740,12,-7.79592329543339e-5
2017,10110,0,-0.0011264598694833408
2017,10110,1,-7.502344000732086e-4
2017,10110,2,-0.001507234251912244
2017,10110,3,-0.04865034719984887
2017,10110,4,-7.072707656829332e-4
2017,10110,12,-7.374042328035813e-4
2017,10112,0,-3.307200960198098e-4
2017,10112,1,-0.0013108744164455671
2017,10112,2,-8.875721716904169e-4
2017,10112,3,-0.09479646749959691
2017,10112,4,-3.295338035616264e-4
2017,10112,12,-5.303340659763374e-4
2017,10115,0,-0.004368324259468907
2017,10115,1,-0.01449406289087183
2017,10115,2,-0.008647763557722603
2017,10115,4,-0.005209977647649185
2017,10115,12,-0.0061131154775342705
2017,10130,0,-8.168533303257432e-5
2017,10130,1,-3.838121718096828e-4
2017,10130,2,-3.6570351307356713e-4
2017,10130,3,-4.8706302554251994e-5
2017,10130,4,-1.4502872457218394e-4
2017,10130,12,-2.2492467128600206e-4
2017,10210,0,2.4102576300775592e-5
2017,10210,1,-6.425984872882833e-6
2017,10210,2,-1.9021710525728226e-5
2017,10210,3,8.678461826908293e-6
2017,10210,4,3.656263179710229e-6
2017,10210,12,-1.6522733302383255e-5
2017,10261,0,1.0408340855860842e-18
2017,10261,1,-8.830098954987542e-4
2017,10261,2,-2.0842117132582937e-4
2017,10261,3,4.7704895589362195e-18
2017,10261,4,8.867384191121142e-6
2017,10261,12,-3.495399340016488e-4
2017,10285,0,-1.8556029346761044e-5
2017,10285,1,-3.1674209581772887e-4
2017,10285,2,-1.349982717326237e-4
2017,10285,3,-0.018574825615463333
2017,10285,4,-5.246873016744147e-6
2017,10285,12,-1.6938112039192716e-4
2017,21720,0,-4.864038284617714e-5
2017,21720,1,-1.676417385234166e-4
2017,21720,2,-1.9408374113274833e-4
2017,21720,3,-1.730492137133356e-4
2017,21720,4,-6.0085525029001955e-5
2017,21720,12,-9.674426561856724e-5
2017,21740,0,-9.475262851386368e-5
2017,21740,1,-1.5171786379789e-4
2017,21740,2,-4.512595266452184e-4
2017,21740,3,-1.3290647117478152e-5
2017,21740,4,-6.026515968656099e-5
2017,21740,12,-1.3338921781656736e-4
2018,10110,0,-0.0011178104216546597
2018,10110,1,-0.0010627292870184263
2018,10110,2,-9.950538835204238e-4
2018,10110,3,-0.015101790183000952
2018,10110,4,-8.183595677324536e-4
2018,10110,12,-7.590069857862521e-4
2018,10112,0,-3.023094035006001e-4
2018,10112,1,-0.0013163017691154803
2018,10112,2,-0.0010645695982577181
2018,10112,3,-0.004757477417726795
2018,10112,4,-4.76323919943938e-4
2018,10112,12,-6.352387700355773e-4
2018,10115,0,-0.005142887284786297
2018,10115,1,-0.009269065917491976
2018,10115,2,-0.013247607935666829
2018,10115,4,-0.00786278542792426
2018,10115,12,-0.006342197968858527
2018,10130,0,-2.7067538619484976e-4
2018,10130,1,-0.001086503522203042
2018,10130,2,-9.007128723389684e-4
2018,10130,3,-8.489574199786921e-4
2018,10130,4,-4.3485479023152576e-4
2018,10130,12,-4.922630166541851e-4
2018,10210,0,-2.326354988536221e-4
2018,10210,1,-2.0581965764127994e-4
2018,10210,2,-1.1730939990168644e-4
2018,10210,3,-0.002558138068392675
2018,10210,4,-2.7518057274142994e-4
2018,10210,12,-9.067477577616995e-5
2018,10261,0,-1.8188320863587616e-4
2018,10261,1,-0.0010357330011934614
2018,10261,2,-1.563545772592056e-4
2018,10261,3,-3.524488189948034e-6
2018,10261,4,-8.11286987047662e-5
2018,10261,12,-3.6389628142308536e-4
2018,10285,0,-1.663145843267937e-4
2018,10285,1,-0.002498663305845971
2018,10285,2,-1.231145641581025e-4
2018,10285,3,-0.6618012441961008
2018,10285,4,-5.411475187211858e-5
2018,10285,12,-6.509281927270733e-4
2018,21720,0,-7.151472621179895e-5
2018,21720,1,-3.1656705067154435e-4
2018,21720,2,9.996344030316351e-18
2018,21720,3,-6.853567201061533e-5
2018,21720,4,-3.394684789873048e-5
2018,21720,12,-5.867068811596744e-5
2018,21740,0,-1.3540300648947818e-4
2018,21740,1,-3.5803780389796823e-4
2018,21740,2,-8.112619325732845e-4
2018,21740,3,-1.1297045336174576e-6
2018,21740,4,-1.4053565622219584e-4
2018,21740,12,-2.9126469494843176e-4
2019,10110,0,-9.33294371917413e-4
2019,10110,1,-0.0023352654547994143
2019,10110,2,-8.551478312254869e-4
2019,10110,3,-0.009329292866287
2019,10110,4,-7.468535541649483e-4
2019,10110,12,-9.152998021942806e-4
2019,10112,0,-5.553645740116194e-4
2019,10112,1,-0.0025954176133211834
2019,10112,2,-5.92394672764455e-4
2019,10112,3,-0.015492652173556554
2019,10112,4,-6.769248645824468e-4
2019,10112,12,-7.83770012735899e-4
2019,10115,0,-0.013050779797877955
2019,10115,1,-0.0319041095757703
2019,10115,2,-0.016763603494535904
2019,10115,4,-0.011191208369822377
2019,10115,12,-0.011002931583904372
2019,10130,0,-2.983908649874959e-4
2019,10130,1,-5.860607026646846e-4
2019,10130,2,-2.5418377989202406e-4
2019,10130,3,-7.53799298719835e-5
2019,10130,4,-1.8961921263957332e-4
2019,10130,12,-2.365038029701967e-4
2019,10210,0,-1.5328749541625305e-4
2019,10210,1,-4.926696236877639e-4
2019,10210,2,-3.154142851463834e-4
2019,10210,3,-5.465841227167756e-4
2019,10210,4,-1.8003480869681202e-4
2019,10210,12,-2.1985575181797615e-4
2019,10261,0,-1.2607068852037447e-4
2019,10261,1,-2.8019113557841644e-4
2019,10261,2,-5.303314681299356e-4
2019,10261,3,-3.975567423491994e-6
2019,10261,4,-1.862463258306444e-4
2019,10261,12,-2.177151260381521e-4
2019,10285,0,-2.6247211283239575e-4
2019,10285,1,-0.003071028988899637
2019,10285,2,-3.5027233713308067e-4
2019,10285,3,-7.046499331084884e-4
2019,10285,4,-2.4263410665563252e-4
2019,10285,12,-8.9658881827769e-4
2019,21720,0,-3.581094028821353e-5
2019,21720,1,-1.6197635059448756e-4
2019,21720,2,-5.537899506118971e-5
2019,21720,3,-1.4166908387143924e-17
2019,21720,4,-2.921353172295111e-5
2019,21720,12,-7.199419213165086e-5
2019,21740,0,-8.5109119762212e-5
2019,21740,1,-3.0731672987693376e-4
2019,21740,2,-2.287874018283477e-4
2019,21740,3,-7.56217483555954e-7
2019,21740,4,-1.096326345902756e-4
2019,21740,12,-1.3438379304521637e-4
2021,10110,0,-6.517073360385163e-5
2021,10110,1,-0.001913094171161366
2021,10110,2,-0.0013993040728211448
2021,10110,3,-0.001579818987969677
2021,10110,4,-2.5891861585691854e-4
2021,10110,12,-0.0013943186640612434
2021,10112,0,-6.446138412720578e-4
2021,10112,1,-0.0030410630944705387
2021,10112,2,-7.939714487623581e-4
2021,10112,3,-0.0017784821654754659
2021,10112,4,-3.5452018478997346e-4
2021,10112,12,-6.952830464585861e-4
2021,10115,0,-0.013543743073606757
2021,10115,1,-0.09911975711739075
2021,10115,2,-0.02430859099661199
2021,10115,4,-0.02212531171135751
2021,10115,12,-0.026264597880031628
2021,10130,0,-4.148846499989701e-4
2021,10130,1,-5.046822446569995e-4
2021,10130,2,-1.527567892066656e-4
2021,10130,3,-6.9073609357778e-5
2021,10130,4,-1.85763242128967e-4
2021,10130,12,-1.6771632264405738e-4
2021,10210,0,-7.342123349850606e-4
2021,10210,1,-6.234694439620737e-4
2021,10210,2,4.812695417987617e-6
2021,10210,3,-3.1727027209467226e-5
2021,10210,4,-3.638972094281031e-5
2021,10210,12,-1.1928804789905255e-4
2021,10261,0,-1.1611152520868813e-4
2021,10261,1,-2.58703659067819e-4
2021,10261,2,-1.3656372477188167e-4
2021,10261,3,-6.811775120885157e-6
2021,10261,4,-3.453339607064491e-5
2021,10261,12,-2.6584716420231406e-4
2021,21720,0,-3.150242395754445e-5
2021,21720,1,-7.692440338851904e-5
2021,21720,2,-1.275534568602201e-4
2021,21720,3,-4.409760531236051e-4
2021,21720,4,-5.548703162584432e-5
2021,21720,12,-6.499911384209758e-5
2021,21740,0,-6.632953962480581e-5
2021,21740,1,-1.1425628928031678e-4
2021,21740,2,-1.8141867397561913e-4
2021,21740,3,-5.883443771556646e-6
2021,21740,4,-1.1664489871849828e-4
2021,21740,12,-7.317209473220263e-5
2022,10210,0,-1.2249535771126152e-4
2022,10210,1,-7.333400390888931e-5
2022,10210,2,-1.5781486076082925e-4
2022,10210,3,-0.0019311643743436188
2022,10210,4,-1.0635559840461263e-4
2022,10210,12,-7.433636286790763e-5
2022,10261,0,-5.162424271652989e-5
2022,10261,1,-6.806744800012233e-4
2022,10261,2,-2.09621943972382e-4
2022,10261,3,-9.858272759453842e-7
2022,10261,4,-1.770220857173161e-4
2022,10261,12,-2.7323190310070183e-4
2022,21720,0,-5.515405358430788e-5
2022,21720,1,-1.3223486561963468e-4
2022,21720,2,-1.225227513335469e-4
2022,21720,3,7.651369617254845e-18
2022,21720,4,-6.940409581250257e-5
2022,21720,12,-6.978712566629839e-5
2022,21740,0,-7.852434479378946e-5
2022,21740,1,-1.6254051368993567e-4
2022,21740,2,-6.289105641889906e-5
2022,21740,3,-2.6876153454663378e-6
2022,21740,4,-5.2100818822983714e-5
2022,21740,12,-6.076372443820379e-5
2023,21740,0,-6.684975183925142e-5
2023,21740,1,-3.600603665944646e-4
2023,21740,2,-1.3108847702905402e-4
2023,21740,3,-3.1548621074240047e-6
2023,21740,4,-9.805212167697366e-5
2023,21740,12,-1.1965927616315784e-4
