year,species_code,sex,bias
1982,10110,0,-0.0033755350537288467
1982,10110,1,-0.0032073614531300115
1982,10110,2,-0.009115497726684588
1982,10110,3,-0.04542885774322247
1982,10110,4,-0.0034675275631107626
1982,10110,12,-0.00316381661326131
1982,10115,0,-0.004483865635297673
1982,10115,1,-0.004663149059493864
1982,10115,2,-0.0073300310331349105
1982,10115,3,-0.04719344330926312
1982,10115,4,-0.004384541135314913
1982,10115,12,-0.0030917625295282377
1982,10130,0,-0.0017387238510753026
1982,10130,1,-0.0028052731117436036
1982,10130,2,-0.003015077921426313
1982,10130,3,-5.702189755099271e-5
1982,10130,4,-0.0012316281713546772
1982,10130,12,-0.0014944148647202775
1982,10210,0,-1.813860336461549e-4
1982,10210,1,-4.1240515853623207e-4
1982,10210,2,-3.065705632472565e-4
1982,10210,3,-0.04912030808883372
1982,10210,4,-1.5483488837022213e-4
1982,10210,12,-1.9734428523950485e-4
1982,10285,0,-2.9526455509621265e-4
1982,10285,1,-0.00976956794226225
1982,10285,2,-7.854104739911571e-4
1982,10285,4,-2.807154666823466e-4
1982,10285,12,-0.002279484476483863
1982,21740,0,-9.604964340737938e-6
1982,21740,1,-4.7516590126641615e-5
1982,21740,2,-2.098593810338349e-5
1982,21740,3,-1.5928129801241476e-4
1982,21740,4,-9.870416211527547e-6
1982,21740,12,-1.7720104782358727e-5
1983,10210,0,-3.1741064322179995e-4
1983,10210,1,-0.0010338350220601361
1983,10210,2,-3.82521518173945e-4
1983,10210,3,-7.804105501078643e-4
1983,10210,4,-2.8786051758037957e-4
1983,10210,12,-3.3941749817062157e-4
1983,21740,0,-1.4673686823220147e-5
1983,21740,1,-9.151930436100729e-5
1983,21740,2,-2.717948536751711e-5
1983,21740,3,-2.3340516097023842e-4
1983,21740,4,-1.2598434069148445e-5
1983,21740,12,-3.0151953392790736e-5
1984,10210,0,-2.397445836422285e-4
1984,10210,1,-6.284229812107963e-4
1984,10210,2,-2.710348895025495e-4
1984,10210,3,-0.020408889399186024
1984,10210,4,-1.8327448795476018e-4
1984,10210,12,-2.071797835561274e-4
1984,21720,0,-7.716329100885563e-4
1984,21720,1,-0.0011634948231565513
1984,21720,2,-0.0033341860837552647
1984,21720,3,-0.004921732576638763
1984,21720,4,-7.359414346330967e-4
1984,21720,12,-0.0010487840288062652
1984,21740,0,-1.2470809497983132e-5
1984,21740,1,-3.231326454826823e-5
1984,21740,2,-2.2344878090855705e-5
1984,21740,3,-3.7895911450289203e-4
1984,21740,4,-1.2688989129152453e-5
1984,21740,12,-1.3216437092929291e-5
1985,10130,0,-4.0072454703120563e-4
1985,10130,1,-0.0028234016789775744
1985,10130,2,-6.326315395328406e-4
1985,10130,4,-3.7712616734241036e-4
1985,10130,12,-7.532288264943523e-4
1985,10210,0,-3.163694768123025e-4
1985,10210,1,-5.692597983952434e-4
1985,10210,2,-3.788859236651292e-4
1985,10210,4,-2.287591003623765e-4
1985,10210,12,-2.3560086348607464e-4
1985,21740,0,-1.2206976507699397e-5
1985,21740,1,-9.313421721651927e-5
1985,21740,2,-2.9242599289222646e-5
1985,21740,3,-6.693315542618242e-6
1985,21740,4,-1.401166795011828e-5
1985,21740,12,-2.9690331189967048e-5
1986,10210,0,-5.474095343490845e-4
1986,10210,1,-0.001663084525494861
1986,10210,2,-5.706575734600493e-4
1986,10210,4,-4.978881878023581e-4
1986,10210,12,-5.244358016894648e-4
1986,21740,0,-5.5607157591482356e-5
1986,21740,1,-1.2181565074041212e-4
1986,21740,2,-2.877732996668072e-4
1986,21740,3,-5.523450514598505e-4
1986,21740,4,-6.204959560205318e-5
1986,21740,12,-9.235103281211843e-5
1987,10210,0,-6.586633473690618e-4
1987,10210,1,-0.0016635320862439403
1987,10210,2,-0.0012296425199522368
1987,10210,4,-6.558434449146668e-4
1987,10210,12,-7.315280557223505e-4
1987,21740,0,-2.627535824167993e-5
1987,21740,1,-3.364161525247024e-5
1987,21740,2,-4.94373006879057e-5
1987,21740,3,-8.663359062877666e-5
1987,21740,4,-2.4020515284883593e-5
1987,21740,12,-2.1520256509641633e-5
1988,10210,0,-2.992060402596686e-4
1988,10210,1,-0.0018724166548370292
1988,10210,2,-5.558840580984218e-4
1988,10210,4,-2.942444659328041e-4
1988,10210,12,-5.564504531633211e-4
1988,10285,0,-0.001997782042501091
1988,10285,1,-0.004528645254263012
1988,10285,2,-0.005985961247822888
1988,10285,4,-0.0020428756708213984
1988,10285,12,-0.002789888662766252
1988,21720,0,-9.265190244867287e-5
1988,21720,1,-5.048234268940846e-4
1988,21720,2,-1.0897242105812147e-4
1988,21720,3,-0.0027765341349713624
1988,21720,4,-6.7910350477508945e-05
1988,21720,12,-1.52185907352595e-4
1988,21740,0,-6.28016336476449e-5
1988,21740,1,-1.7191115091942465e-4
1988,21740,2,-1.40615828243161e-4
1988,21740,3,-0.0016488557956217482
1988,21740,4,-6.634878150451371e-5
1988,21740,12,-7.867607257540565e-5
1989,10210,0,-3.921961640253788e-4
1989,10210,1,-0.0012958345047913095
1989,10210,2,-7.501669459091667e-4
1989,10210,4,-4.008360184819609e-4
1989,10210,12,-4.8487719200632196e-4
1989,21720,0,5.684032566855534e-4
1989,21720,1,5.071682060736846e-4
1989,21720,2,3.807622760982097e-4
1989,21720,3,-0.03574293778136465
1989,21720,4,5.762615005698568e-4
1989,21720,12,2.2420426822337936e-4
1989,21740,0,-8.045405503852249e-5
1989,21740,1,-2.9640227073240484e-4
1989,21740,2,-2.3850548377236382e-4
1989,21740,3,-7.33804061196859e-5
1989,21740,4,-7.90691476676796e-5
1989,21740,12,-1.3867607124577123e-4
1990,10210,0,-2.7166520693006096e-4
1990,10210,1,-0.001293149158976769
1990,10210,2,-4.2595887694051515e-4
1990,10210,3,-0.10221773266246603
1990,10210,4,-2.505902017402921e-4
1990,10210,12,-4.503281505015665e-4
1990,21720,0,-1.2555078402130736e-4
1990,21720,1,-2.413949160848792e-4
1990,21720,2,-2.8497997430280395e-4
1990,21720,3,-0.00528680094476177
1990,21720,4,-9.74749315859825e-5
1990,21720,12,-1.29295819983705e-4
1990,21740,0,-1.5595982302829214e-4
1990,21740,1,-1.1934400538588259e-4
1990,21740,2,-4.3122235303678756e-4
1990,21740,3,-2.1462829762186597e-4
1990,21740,4,-1.8134694647938058e-4
1990,21740,12,-1.3949365627525425e-4
1991,10210,0,-3.5357706492262277e-4
1991,10210,1,-0.0017031735658251692
1991,10210,2,-4.594721904380096e-4
1991,10210,4,-3.274604681914183e-4
1991,10210,12,-5.37304979541085e-4
1991,21720,0,-7.662013121445726e-5
1991,21720,1,-4.790779064502085e-4
1991,21720,2,-2.0034863243711842e-4
1991,21720,3,-0.011001429938135236
1991,21720,4,-8.486695699091525e-5
1991,21720,12,-2.1342977393785728e-4
1991,21740,0,-1.8450414702308904e-4
1991,21740,1,-3.744759113457047e-4
1991,21740,2,-5.611997702426786e-4
1991,21740,3,-4.973589995601002e-5
1991,21740,4,-1.975721603425959e-4
1991,21740,12,-2.5170046700515194e-4
1992,10130,0,-7.441738257028797e-4
1992,10130,1,-0.004620204764662882
1992,10130,2,-0.00142426017778467
1992,10130,3,-0.0030628110575325737
1992,10130,4,-8.885292209460953e-4
1992,10130,12,-0.0015197275263330889
1992,10210,0,-4.98630429922534e-4
1992,10210,1,-0.001901507745475031
1992,10210,2,-7.383083416599869e-4
1992,10210,4,-5.306462150839404e-4
1992,10210,12,-6.984898698032807e-4
1992,10285,0,-0.0011583031039306697
1992,10285,1,-0.0017884612439947015
1992,10285,2,-0.0026014851745305534
1992,10285,4,-9.959302446952798e-4
1992,10285,12,-0.001217891936401546
1992,21720,0,-1.8393634789359713e-5
1992,21720,1,-1.5717983302498555e-4
1992,21720,2,-2.422598794860252e-5
1992,21720,3,-0.010776313759469497
1992,21720,4,-1.4893131125679784e-5
1992,21720,12,-5.147770521275588e-5
1992,21740,0,-1.2688276484390166e-4
1992,21740,1,-3.2267054053476853e-4
1992,21740,2,-2.442601052055099e-4
1992,21740,3,-7.018274818883605e-5
1992,21740,4,-1.0304273554602239e-4
1992,21740,12,-1.4370034824628676e-4
1993,10110,0,-0.0022991385308174014
1993,10110,1,-0.007740964702631173
1993,10110,2,-0.002863947821996144
1993,10110,3,-0.283576220445675
1993,10110,4,-0.0021875436455206965
1993,10110,12,-0.0026239232268324007
1993,10130,0,-0.00422941304507412
1993,10130,1,-0.0062871591569575655
1993,10130,2,-0.008778063719047642
1993,10130,3,-0.11675051574115783
1993,10130,4,-0.003208887225408121
1993,10130,12,-0.003924443626872522
1993,10210,0,-4.2101495262645563e-4
1993,10210,1,-0.002105214730353002
1993,10210,2,-5.313375449065616e-4
1993,10210,3,-0.0018059410571027524
1993,10210,4,-4.1852584007906067e-4
1993,10210,12,-7.293290072447404e-4
1993,10285,0,-0.00328753090263993
1993,10285,1,-0.005776295180565399
1993,10285,2,-0.005803586724136893
1993,10285,3,-0.006640501594013785
1993,10285,4,-0.003087437603821372
1993,10285,12,-0.0029135006772083322
1993,21720,0,-6.877125998944021e-5
1993,21720,1,-5.213894872216807e-5
1993,21720,2,-1.0818766868145936e-4
1993,21720,3,-0.006287048151909495
1993,21720,4,-3.9563567894553086e-5
1993,21720,12,-4.048087325039371e-5
1993,21740,0,-7.965902282842768e-5
1993,21740,1,-3.739179026958011e-4
1993,21740,2,-1.5470219305756556e-4
1993,21740,3,-1.345715545878531e-4
1993,21740,4,-7.581397126709583e-5
1993,21740,12,-1.3044074526380423e-4
1994,10110,0,-0.00642414051687371
1994,10110,1,-0.027567732068977772
1994,10110,2,-0.007736420953422238
1994,10110,3,-0.633195459464583
1994,10110,4,-0.00658584754606541
1994,10110,12,-0.007422845285495432
1994,10130,0,-0.00208785708054183
1994,10130,1,-0.004699433663950297
1994,10130,2,-0.0020499513165853087
1994,10130,3,-0.001235230141539451
1994,10130,4,-0.002141515637607927
1994,10130,12,-0.0018528600149976197
1994,10210,0,-3.3824663318524e-4
1994,10210,1,-8.903056248136781e-4
1994,10210,2,-0.0023323764961925685
1994,10210,4,-3.224090559730245e-4
1994,10210,12,-8.430760948045265e-4
1994,10285,0,-0.0010988867356296786
1994,10285,1,-0.0030531464956794364
1994,10285,2,-0.0050759096543985015
1994,10285,4,-0.0010834000172166346
1994,10285,12,-0.0020814977663792564
1994,21720,0,-7.677565812788572e-5
1994,21720,1,-1.0604261986118499e-4
1994,21720,2,-2.2458714233086047e-4
1994,21720,3,-0.003432609736458374
1994,21720,4,-6.180402454005153e-5
1994,21720,12,-8.313184743289373e-5
1994,21740,0,-2.2983801035522132e-4
1994,21740,1,-5.209409260140764e-4
1994,21740,2,-7.103575929966556e-4
1994,21740,3,-0.0021883501040598705
1994,21740,4,-2.8814267092550956e-4
1994,21740,12,-3.127832964797219e-4
1995,10130,0,-9.810329170735483e-4
1995,10130,1,-0.002601597411040955
1995,10130,2,-0.0014805237405320654
1995,10130,3,-0.030674039855941377
1995,10130,4,-9.61655702302436e-4
1995,10130,12,-0.0010416576747619096
1995,10210,0,-2.280707582215043e-4
1995,10210,1,-7.609381605636201e-4
1995,10210,2,-3.7737092419040674e-4
1995,10210,4,-2.245925491422797e-4
1995,10210,12,-2.8907035024111584e-4
1995,10285,0,-0.0012823056581192478
1995,10285,1,-0.003042792125954801
1995,10285,2,-0.0026249963527917256
1995,10285,4,-0.0013350498179422311
1995,10285,12,-0.0014751255319938364
1995,21720,0,-1.0470621727659819e-4
1995,21720,1,-2.446989992383886e-4
1995,21720,2,-2.2568731402442582e-4
1995,21720,3,-0.0017345842021873753
1995,21720,4,-1.1219315199874894e-4
1995,21720,12,-1.2788992763530563e-4
1995,21740,0,-9.1080783747869e-5
1995,21740,1,-2.2650447812728598e-4
1995,21740,2,-2.0534143366799106e-4
1995,21740,3,-0.001435982461289048
1995,21740,4,-1.0816217120939127e-4
1995,21740,12,-1.1582064912810076e-4
1996,10110,0,-0.003078122243921295
1996,10110,1,-0.00826322764281133
1996,10110,2,-0.0043174132602105016
1996,10110,3,-0.051211232713758076
1996,10110,4,-0.0032525620653544073
1996,10110,12,-0.003476352148191436
1996,10210,0,-2.820192477974828e-4
1996,10210,1,-5.278829403945869e-4
1996,10210,2,-4.533488959858181e-4
1996,10210,3,-4.117404227146224e-4
1996,10210,4,-2.372128495361702e-4
1996,10210,12,-2.4594336404532783e-4
1996,10261,0,-1.7501744620152155e-4
1996,10261,1,-5.928190592460455e-4
1996,10261,2,-3.196098488558246e-4
1996,10261,3,-6.115603062115495e-4
1996,10261,4,-1.5954614713091167e-4
1996,10261,12,-2.230231846310215e-4
1996,21720,0,-1.0046814228443354e-4
1996,21720,1,-4.088699217714048e-4
1996,21720,2,-1.4536592428385055e-4
1996,21720,3,-0.003949912252873708
1996,21720,4,-8.87151748686519e-5
1996,21720,12,-1.2759644424844142e-4
1996,21740,0,-1.059564416219874e-4
1996,21740,1,-2.370641276589021e-4
1996,21740,2,-2.192497457292402e-4
1996,21740,3,-6.374370893326726e-4
1996,21740,4,-1.032576373473382e-4
1996,21740,12,-1.1453743729166275e-4
1997,10210,0,-2.97244996304834e-4
1997,10210,1,-3.082734766805703e-4
1997,10210,2,-7.905745815136129e-4
1997,10210,3,-0.04232621897175918
1997,10210,4,-3.07034404855641e-4
1997,10210,12,-2.9204457380729723e-4
1997,10261,0,-3.548411098975605e-4
1997,10261,1,-0.004504995521976955
1997,10261,2,-9.491510937645774e-4
1997,10261,3,-0.0016604401394223639
1997,10261,4,-4.0519727448664374e-4
1997,10261,12,-0.0014089938344675362
1997,21720,0,-1.1618874193912482e-4
1997,21720,1,-3.4944459127202106e-4
1997,21720,2,-3.17225173525039e-4
1997,21720,3,-2.6125344829878316e-4
1997,21720,4,-1.685639049893695e-4
1997,21720,12,-1.6393169787189168e-4
1997,21740,0,-4.387053707770477e-5
1997,21740,1,-1.339981985878045e-4
1997,21740,2,-1.2531146817729258e-4
1997,21740,3,-2.3943123389192355e-6
1997,21740,4,-5.51214873336159e-5
1997,21740,12,-6.486397052974073e-5
1998,10110,0,-0.0012458338906320555
1998,10110,1,-0.01552271865754646
1998,10110,2,-0.0015016568396838093
1998,10110,3,-0.1205390639470471
1998,10110,4,-0.0012021316460081649
1998,10110,12,-0.0037745913708363463
1998,10115,0,-0.0062456912775024865
1998,10115,1,-0.015826976466851505
1998,10115,2,-0.026036694285634723
1998,10115,3,-0.25443944564581333
1998,10115,4,-0.00848506989220523
1998,10115,12,-0.011132087033382594
1998,10210,0,-2.790204452733039e-4
1998,10210,1,-7.875200592840434e-4
1998,10210,2,-4.2513726960086916e-4
1998,10210,3,-0.0013904482907579232
1998,10210,4,-2.556302667946329e-4
1998,10210,12,-3.0185644597564794e-4
1998,10261,0,-2.1793088122757057e-4
1998,10261,1,-4.422137860468459e-4
1998,10261,2,-4.362860201628241e-4
1998,10261,3,-0.002695629411169839
1998,10261,4,-1.678082073388363e-4
1998,10261,12,-2.52417430982158e-4
1998,10285,0,-7.35264765533685e-4
1998,10285,1,-0.0014718537914848971
1998,10285,2,-0.0012975176658441652
1998,10285,4,-7.397440409055309e-4
1998,10285,12,-7.668379475893311e-4
1998,21720,0,-2.573580878437415e-4
1998,21720,1,-3.5652938878471765e-4
1998,21720,2,-4.445653460977398e-4
1998,21720,3,-0.005032831778358643
1998,21720,4,-2.35043462033199e-4
1998,21720,12,-2.0279195358835828e-4
1998,21740,0,-3.5101156464484654e-5
1998,21740,1,-5.558505730336522e-5
1998,21740,2,-8.570863864781108e-5
1998,21740,3,-5.906864136992282e-5
1998,21740,4,-3.625291203400606e-5
1998,21740,12,-3.487217986761217e-5
1999,10130,0,-8.411786848730836e-4
1999,10130,1,-0.0022073033404546465
1999,10130,2,-0.00155838310796937
1999,10130,3,-0.012594719640474187
1999,10130,4,-8.561435400338162e-4
1999,10130,12,-9.20059743886788e-4
1999,10210,0,-1.0101264645162865e-4
1999,10210,1,-2.0978339788992796e-4
1999,10210,2,-1.9314006644029918e-4
1999,10210,3,-4.8501273707107165e-4
1999,10210,4,-9.683240926927693e-5
1999,10210,12,-1.1275012672288607e-4
1999,10261,0,-3.413145504540566e-4
1999,10261,1,-0.001215496000530471
1999,10261,2,-4.959627757378165e-4
1999,10261,3,-0.0020568118563019577
1999,10261,4,-2.3245741288253595e-4
1999,10261,12,-4.2064591573180775e-4
1999,21720,0,-2.979541030027837e-4
1999,21720,1,-3.9316777436612383e-4
1999,21720,2,-4.900873512911929e-4
1999,21720,3,-4.914611362314344e-4
1999,21720,4,-2.5982089954242846e-4
1999,21720,12,-2.1834912611363807e-4
1999,21740,0,-4.325918301440865e-5
1999,21740,1,-6.00349842394985e-5
1999,21740,2,-9.345847640440431e-5
1999,21740,3,-1.1742709848600504e-4
1999,21740,4,-3.440720053575252e-5
1999,21740,12,-3.904455996504147e-5
2000,10130,0,-3.272336735969002e-4
2000,10130,1,-0.0012594587943590902
2000,10130,2,-7.133191762023394e-4
2000,10130,3,-0.010004786384316478
2000,10130,4,-3.963595413883714e-4
2000,10130,12,-5.067301365196935e-4
2000,10210,0,-4.730202926551592e-4
2000,10210,1,-0.0021266890116216877
2000,10210,2,-4.3423096105373786e-4
2000,10210,3,-0.0011694551151163457
2000,10210,4,-3.873098715342065e-4
2000,10210,12,-5.829293578794788e-4
2000,10261,0,-5.623062743397965e-4
2000,10261,1,-6.426041190831977e-4
2000,10261,2,-3.610437019828966e-4
2000,10261,4,-2.5300276449384307e-4
2000,10261,12,-2.967874519573002e-4
2000,10285,0,-2.117816000881296e-4
2000,10285,1,-0.003115819741935388
2000,10285,2,-5.550182236247521e-4
2000,10285,3,-0.0018707351304230674
2000,10285,4,-2.1464445268563483e-4
2000,10285,12,-8.622367132622348e-4
2000,21720,0,-2.855539315430675e-4
2000,21720,1,-5.197952277019492e-4
2000,21720,2,-2.7244494938469596e-4
2000,21720,3,-1.2967316740275452e-4
2000,21720,4,-2.4880954281403223e-4
2000,21720,12,-2.09395841781001e-4
2000,21740,0,-2.081849248329665e-5
2000,21740,1,-8.901682187684057e-5
2000,21740,2,-3.1592762523743134e-5
2000,21740,3,-4.8717669394481314e-5
2000,21740,4,-1.8997234949389948e-5
2000,21740,12,-2.8087762145961417e-5
2001,10130,0,-3.0256864476648426e-4
2001,10130,1,-3.1677010581147554e-4
2001,10130,2,-8.824811216306817e-4
2001,10130,3,-0.11311030495177826
2001,10130,4,-2.0814973770166844e-4
2001,10130,12,-2.825306817310598e-4
2001,10210,0,-3.134028364961814e-4
2001,10210,1,-0.001368362771456772
2001,10210,2,-3.7389123020315553e-4
2001,10210,3,-6.901638801110266e-4
2001,10210,4,-3.31313680833552e-4
2001,10210,12,-3.9355123988035095e-4
2001,10261,0,-2.059973860729981e-4
2001,10261,1,-9.407688679868645e-4
2001,10261,2,-3.7743156274535944e-4
2001,10261,4,-2.2273398164860525e-4
2001,10261,12,-3.0942776464733447e-4
2001,10285,0,-7.870006081675552e-4
2001,10285,1,-0.0027179640276928005
2001,10285,2,-7.690920237864397e-4
2001,10285,4,-9.214176233863301e-4
2001,10285,12,-9.602719029037397e-4
2001,21720,0,-3.7407847969454056e-5
2001,21720,1,-2.1067633599345848e-5
2001,21720,2,-9.963400780344585e-5
2001,21720,3,-3.350221830587391e-4
2001,21720,4,-2.4487441873716665e-5
2001,21720,12,-2.7669957684946047e-5
2001,21740,0,-1.1506087589340411e-5
2001,21740,1,-4.410219706520301e-5
2001,21740,2,-1.9121820830489918e-5
2001,21740,3,-2.9152987668893925e-6
2001,21740,4,-9.669108689775952e-6
2001,21740,12,-2.0319677598805976e-5
2002,10130,0,-4.7973368473115885e-4
2002,10130,1,-0.0015204708190221406
2002,10130,2,-0.0010944064621846803
2002,10130,3,-5.852626850533903e-4
2002,10130,4,-4.399057931309512e-4
2002,10130,12,-6.849329710577786e-4
2002,10210,0,-1.1893194408806864e-4
2002,10210,1,-7.105401179434492e-4
2002,10210,2,-3.830709218110856e-4
2002,10210,3,-1.411001160922742e-4
2002,10210,4,-1.2250764026993364e-4
2002,10210,12,-2.749153441595503e-4
2002,10261,0,-2.24213556700683e-4
2002,10261,1,-0.0018457698420256195
2002,10261,2,-3.6983374331238454e-4
2002,10261,3,-0.014369470876233179
2002,10261,4,-2.0693409335600604e-4
2002,10261,12,-5.280160769475092e-4
2002,10285,0,-1.6152916531191123e-4
2002,10285,1,-0.0010237741694593286
2002,10285,2,-2.5450460735787375e-4
2002,10285,3,-0.0010004819805375582
2002,10285,4,-1.397743483060981e-4
2002,10285,12,-3.477739242344818e-4
2002,21720,0,-6.226396906132333e-5
2002,21720,1,-2.890270561144504e-4
2002,21720,2,-1.617640521397034e-4
2002,21720,3,-0.0041333791264602585
2002,21720,4,-7.68905295310446e-5
2002,21720,12,-1.0919114420724157e-4
2002,21740,0,-1.0029683673461053e-5
2002,21740,1,-3.658370193785046e-5
2002,21740,2,-3.01921492556531e-5
2002,21740,3,-3.106985573220298e-6
2002,21740,4,-9.289844665191336e-6
2002,21740,12,-1.7023682968157827e-5
2003,10115,0,-7.972182282802339e-4
2003,10115,1,-0.002969367815280284
2003,10115,2,-0.0017856898529157665
2003,10115,3,-0.03170284537040335
2003,10115,4,-8.295732020567603e-4
2003,10115,12,-0.0012803224967588697
2003,10130,0,-9.026660301729592e-4
2003,10130,1,-0.0011005662751409258
2003,10130,2,-0.001779691439374294
2003,10130,3,-0.001574092348903484
2003,10130,4,-7.009358341038601e-4
2003,10130,12,-7.205846446245827e-4
2003,10210,0,-1.1478454001661334e-4
2003,10210,1,-7.068230209797175e-4
2003,10210,2,-1.6472230179008388e-4
2003,10210,3,-4.22838803913337e-4
2003,10210,4,-1.1183935301628027e-4
2003,10210,12,-2.1298056149831018e-4
2003,10261,0,-1.380119272430472e-4
2003,10261,1,-4.540091773660856e-4
2003,10261,2,-6.194635030535553e-4
2003,10261,3,-1.092148976210812e-4
2003,10261,4,-6.82761413704228e-5
2003,10261,12,-2.378901992556461e-4
2003,21720,0,-3.721429310378261e-5
2003,21720,1,-1.362561171588368e-4
2003,21720,2,-2.4544921473158404e-4
2003,21720,3,-0.0028501233750324664
2003,21720,4,-3.322403203114747e-5
2003,21720,12,-9.243072859015307e-5
2003,21740,0,-8.25478363775501e-6
2003,21740,1,-1.6990746970328197e-5
2003,21740,2,-9.955611781782322e-6
2003,21740,3,-3.398464999206117e-5
2003,21740,4,-6.368463541916671e-6
2003,21740,12,-6.57781976809446e-6
2004,10110,0,-2.7144117374256377e-4
2004,10110,1,-0.0019916170136550474
2004,10110,2,-1.9118138950113662e-4
2004,10110,3,-0.02631712290363239
2004,10110,4,-1.7223485144314654e-4
2004,10110,12,-5.969349531143982e-4
2004,10115,0,-0.001835076703481584
2004,10115,1,-0.007051160084942206
2004,10115,2,-0.0062291947386781754
2004,10115,4,-0.0021259565315790573
2004,10115,12,-0.003604630930661469
2004,10130,0,-3.6158861615029537e-4
2004,10130,1,-0.0012390316965604081
2004,10130,2,-4.586192122576192e-4
2004,10130,3,-0.0011012099681997802
2004,10130,4,-3.76498803820179e-4
2004,10130,12,-4.498461623148526e-4
2004,10210,0,-8.052806651427965e-5
2004,10210,1,-9.721970004808792e-4
2004,10210,2,-1.7911148176583233e-4
2004,10210,3,-0.02757102746815133
2004,10210,4,-9.65230982567362e-5
2004,10210,12,-2.665665119744906e-4
2004,10261,0,-5.239070694731219e-4
2004,10261,1,-0.0023241294697607592
2004,10261,2,-0.0012672003949249762
2004,10261,3,-1.2272578631521153e-4
2004,10261,4,-5.211048699662174e-4
2004,10261,12,-0.001026960889174868
2004,21720,0,-1.9213420677829734e-4
2004,21720,1,-2.4532157743904336e-4
2004,21720,2,-2.878155525224237e-4
2004,21720,3,-3.366696748223725e-4
2004,21720,4,-1.4056192408391248e-4
2004,21720,12,-1.319980118189164e-4
2004,21740,0,-1.4577677982595297e-5
2004,21740,1,-3.9786486931687654e-5
2004,21740,2,-8.248497408528584e-5
2004,21740,3,-3.530339471757152e-6
2004,21740,4,-1.061241691451085e-5
2004,21740,12,-3.110171490885192e-5
2005,10115,0,-0.0016807022900688486
2005,10115,1,-0.006133712591252546
2005,10115,2,-0.005696866057248185
2005,10115,3,-0.341580455856335
2005,10115,4,-0.0017974604680989351
2005,10115,12,-0.002977950716285825
2005,10130,0,-4.2791790147907085e-4
2005,10130,1,-0.0012636832774980949
2005,10130,2,-0.001098069087922987
2005,10130,3,-0.0013088054609647984
2005,10130,4,-4.001449355019158e-4
2005,10130,12,-6.017176839380635e-4
2005,10210,0,-6.987742030354324e-5
2005,10210,1,-0.001737539399211372
2005,10210,2,-1.9032078111593727e-4
2005,10210,3,-0.19664231161313672
2005,10210,4,-9.132672523383151e-5
2005,10210,12,-4.282838154997212e-4
2005,10261,0,-3.4192657915053937e-4
2005,10261,1,-7.307584776693689e-4
2005,10261,2,-5.407758269459171e-4
2005,10261,3,-0.0016305331007645573
2005,10261,4,-2.3593789353797926e-4
2005,10261,12,-3.1980721401612657e-4
2005,10285,0,-7.049446718319305e-4
2005,10285,1,-0.0023596500990711896
2005,10285,2,-0.0016198297603413207
2005,10285,4,-5.646146111052718e-4
2005,10285,12,-0.0010749817147295074
2005,21720,0,-5.905855167524151e-5
2005,21720,1,-1.3979825846376285e-4
2005,21720,2,-1.1691665699239654e-4
2005,21720,3,-0.0026714784335700875
2005,21720,4,-5.2898518744581945e-5
2005,21720,12,-6.73416824700004e-5
2005,21740,0,-2.4054924979523955e-5
2005,21740,1,-7.177097478912043e-5
2005,21740,2,-4.7338053078333144e-5
2005,21740,3,-1.4248202439010249e-5
2005,21740,4,-1.8082737460370674e-5
2005,21740,12,-3.036530412432358e-5
2006,10115,0,-0.0026597820535056204
2006,10115,1,-0.015137351034754453
2006,10115,2,-0.006116332461223517
2006,10115,3,-0.03585287212165169
2006,10115,4,-0.0030031438450613245
2006,10115,12,-0.005038054704924184
2006,10130,0,-3.775873945219054e-4
2006,10130,1,-0.0011818032221743843
2006,10130,2,-9.421330400209719e-4
2006,10130,3,-0.035665401632235055
2006,10130,4,-3.3050010080552767e-4
2006,10130,12,-5.474953936352321e-4
2006,10210,0,-3.165843901288567e-4
2006,10210,1,-0.003113622753614296
2006,10210,2,-1.4845874882765228e-4
2006,10210,3,-8.025400328472916e-4
2006,10210,4,-3.394608915567917e-4
2006,10210,12,-6.51590393916287e-4
2006,10261,0,-1.5935988526903183e-4
2006,10261,1,-3.4862620037414874e-4
2006,10261,2,-3.240756924044802e-4
2006,10261,3,-1.3631016644994442e-05
2006,10261,4,-1.467095516024067e-4
2006,10261,12,-1.6703643811416543e-4
2006,10285,0,-8.547274220545463e-4
2006,10285,1,-0.0047001586380049564
2006,10285,2,-0.0011598952400055076
2006,10285,3,-0.005654714255457098
2006,10285,4,-8.394137055332769e-4
2006,10285,12,-0.0016489843724978902
2006,21720,0,-6.436805657978712e-5
2006,21720,1,-3.059232660138564e-4
2006,21720,2,-1.063220614588968e-4
2006,21720,3,-0.001250128706004262
2006,21720,4,-6.328476533088096e-5
2006,21720,12,-9.988246868317837e-5
2006,21740,0,-3.361833193438045e-5
2006,21740,1,-4.147639310572513e-5
2006,21740,2,-2.4891145048488284e-4
2006,21740,3,-2.46430368189503e-5
2006,21740,4,-4.512532942439537e-5
2006,21740,12,-6.27042932728451e-5
2007,10115,0,-0.0014664020609473658
2007,10115,1,-0.007564385224334956
2007,10115,2,-0.005662210547292844
2007,10115,3,-0.12555240090229347
2007,10115,4,-0.001571314108710262
2007,10115,12,-0.0034167495109051573
2007,10130,0,-4.1232094280321764e-4
2007,10130,1,-5.069049831006617e-4
2007,10130,2,-0.001016768240349017
2007,10130,3,-0.0010337601039480547
2007,10130,4,-3.21166843531362e-4
2007,10130,12,-3.708298903436714e-4
2007,10210,0,-2.3318391914723286e-4
2007,10210,1,-7.300115746454815e-4
2007,10210,2,-3.8753896401368994e-4
2007,10210,3,-0.013624561757933121
2007,10210,4,-2.0395385037887421e-4
2007,10210,12,-2.669523967300184e-4
2007,10261,0,-3.0351731938208914e-4
2007,10261,1,-3.8205145235247726e-4
2007,10261,2,-6.333761429810346e-4
2007,10261,3,-9.770538540471038e-5
2007,10261,4,-2.864048566551864e-4
2007,10261,12,-3.35062651038456e-4
2007,10285,0,-3.9191319130200806e-4
2007,10285,1,-0.001577170616108913
2007,10285,2,-0.0013198658020795455
2007,10285,3,-0.0015350363299638549
2007,10285,4,-3.18664654605216e-4
2007,10285,12,-8.494871318118097e-4
2007,21720,0,6.099540722041367e-18
2007,21720,1,-4.371483950720948e-5
2007,21720,2,-1.817110733993206e-5
2007,21720,3,-4.5135701278828294e-6
2007,21720,4,-5.739947001500342e-18
2007,21720,12,-1.7121480204375603e-5
2007,21740,0,-3.982275794926826e-5
2007,21740,1,-1.8749662167799096e-4
2007,21740,2,-1.7237855326152757e-4
2007,21740,3,-3.7782053788751384e-7
2007,21740,4,-3.251663006278541e-5
2007,21740,12,-9.107596195922794e-5
2008,10115,0,-0.0018654502956387759
2008,10115,1,-0.011502860620592916
2008,10115,2,-0.009165420182498319
2008,10115,3,-0.0071326539323486645
2008,10115,4,-0.002457215375119313
2008,10115,12,-0.0052713346078327086
2008,10130,0,-2.921091651364778e-4
2008,10130,1,-8.317404493341742e-4
2008,10130,2,-8.546554026688111e-4
2008,10130,3,-7.923206338026462e-4
2008,10130,4,-2.704485835197973e-4
2008,10130,12,-3.805205643456019e-4
2008,10210,0,-1.2066188751372159e-4
2008,10210,1,-2.880787102360481e-4
2008,10210,2,-3.81710644825207e-4
2008,10210,3,-0.04725891190853615
2008,10210,4,-9.957588027482292e-5
2008,10210,12,-1.6928919890560042e-4
2008,10261,0,-5.790297135012857e-4
2008,10261,1,-7.991383504138859e-4
2008,10261,2,-0.0015678858000763164
2008,10261,3,-0.009238907020312628
2008,10261,4,-6.135373006359683e-4
2008,10261,12,-6.143945115494095e-4
2008,10285,0,-6.713264335820168e-4
2008,10285,1,-0.002056835798317683
2008,10285,2,-0.0010154401120927247
2008,10285,4,-7.031280050612839e-4
2008,10285,12,-8.020927740264184e-4
2008,21720,0,-3.169306055193138e-5
2008,21720,1,-3.826451185422368e-5
2008,21720,2,-5.213369096205197e-5
2008,21720,3,-0.052995037715798055
2008,21720,4,-2.4546340329697822e-5
2008,21720,12,-2.25200463045479e-5
2008,21740,0,-6.701423621927109e-5
2008,21740,1,-1.485153308621051e-4
2008,21740,2,-1.616188902805029e-4
2008,21740,3,-4.4155158318698665e-4
2008,21740,4,-7.632733445090611e-5
2008,21740,12,-7.827443905467714e-5
2009,10115,0,-0.0011679145667022439
2009,10115,1,-0.007217527000188493
2009,10115,2,-0.007155140039643699
2009,10115,3,-9.317544920577521e-4
2009,10115,4,-0.001372346168535545
2009,10115,12,-0.0035555430550417494
2009,10130,0,-8.939847722789224e-5
2009,10130,1,-2.0411477664616026e-4
2009,10130,2,-2.8695145650140425e-4
2009,10130,3,-0.009624091602219137
2009,10130,4,-8.63049371080931e-5
2009,10130,12,-1.2510438990035637e-4
2009,10210,0,-8.998651063881284e-5
2009,10210,1,-2.82549580529357e-4
2009,10210,2,-9.066783522572618e-5
2009,10210,3,-0.004730397890358333
2009,10210,4,-6.461706592470842e-5
2009,10210,12,-8.522559150393008e-5
2009,10261,0,-1.1055574756068764e-4
2009,10261,1,-9.155270194281767e-5
2009,10261,2,-2.2837899094187974e-4
2009,10261,3,-3.266766133536685e-5
2009,10261,4,-1.0645605997492336e-4
2009,10261,12,-8.841767462531124e-5
2009,10285,0,-4.562990374744424e-5
2009,10285,1,-3.287662093500884e-4
2009,10285,2,-4.630785713864183e-5
2009,10285,3,-0.016403020446852212
2009,10285,4,-3.9381022404726994e-5
2009,10285,12,-1.0578146964113629e-4
2009,21720,0,-4.9777620399277375e-6
2009,21720,1,-1.121999520360896e-5
2009,21720,2,-2.250736485107637e-5
2009,21720,3,-1.947986828524387e-5
2009,21720,4,-4.12174527936332e-6
2009,21720,12,-8.563614374696737e-6
2009,21740,0,-9.96167038807312e-6
2009,21740,1,-6.280466048961252e-5
2009,21740,2,-2.3273461983897185e-5
2009,21740,3,-2.4282847113588937e-5
2009,21740,4,-9.851639546531987e-6
2009,21740,12,-2.5590624756869862e-5
2010,10110,0,-1.1789559916420029e-4
2010,10110,1,-0.0030766252542020834
2010,10110,2,-1.8100031961599262e-4
2010,10110,3,-0.011456826660768022
2010,10110,4,-1.3945303475499513e-4
2010,10110,12,-5.385862051555293e-4
2010,10115,0,-4.4441191812854994e-4
2010,10115,1,-0.00513293311751774
2010,10115,2,-0.003795849924238336
2010,10115,3,-7.852317695784339e-4
2010,10115,4,-5.652438085925658e-4
2010,10115,12,-0.001980431655589372
2010,10130,0,-1.4330347915501905e-4
2010,10130,1,-5.830398158164887e-4
2010,10130,2,-3.47079083902346e-4
2010,10130,3,-0.005148411583868439
2010,10130,4,-1.590711839130644e-4
2010,10130,12,-2.6383560633430657e-4
2010,10210,0,-8.602085545733338e-5
2010,10210,1,-2.3917748584324118e-4
2010,10210,2,-8.852651672066979e-5
2010,10210,3,-0.0024327954821348435
2010,10210,4,-6.264240830719834e-5
2010,10210,12,-7.409286270036188e-5
2010,10261,0,-3.0444903494527734e-4
2010,10261,1,-7.826422301631179e-4
2010,10261,2,-4.996823019460822e-4
2010,10261,3,-0.04776801554037613
2010,10261,4,-2.1866746113278896e-4
2010,10261,12,-3.2816772681024874e-4
2010,10285,0,-3.196789727215132e-4
2010,10285,1,-7.584787327842888e-4
2010,10285,2,-4.008498071849242e-4
2010,10285,4,-2.4003599134722075e-4
2010,10285,12,-3.0980220229991074e-4
2010,21720,0,-1.5319617489710125e-5
2010,21720,1,-4.661723580408049e-5
2010,21720,2,-2.650223461141876e-5
2010,21720,3,-3.2795287436609283e-4
2010,21720,4,-1.2936522701952715e-5
2010,21720,12,-1.989234752924612e-5
2010,21740,0,-1.5470074062515655e-5
2010,21740,1,-1.9643420505603687e-5
2010,21740,2,-4.122079670244695e-5
2010,21740,3,-2.7068493942201996e-5
2010,21740,4,-1.3180624495003369e-5
2010,21740,12,-1.5633109276043754e-5
2011,10115,0,-2.9070841177528643e-4
2011,10115,1,-0.002348200287487122
2011,10115,2,-0.0012404326901359463
2011,10115,3,-0.013676616512595427
2011,10115,4,-3.193945916661318e-4
2011,10115,12,-8.346562275060052e-4
2011,10130,0,-2.588721268297604e-4
2011,10130,1,-4.315092445851348e-4
2011,10130,2,-4.3907178305247364e-4
2011,10130,3,-0.0070953075458750165
2011,10130,4,-2.189494513987961e-4
2011,10130,12,-2.3220018888200247e-4
2011,10210,0,-1.2012998894440185e-4
2011,10210,1,-4.0357751314167896e-4
2011,10210,2,-1.1774413008261569e-4
2011,10210,3,-4.824026797601242e-4
2011,10210,4,-7.892399344571078e-5
2011,10210,12,-1.4255179017883844e-4
2011,10261,0,-3.058309886922892e-4
2011,10261,1,-8.96623007359068e-4
2011,10261,2,-4.700819958970927e-4
2011,10261,3,-0.0020100591432447635
2011,10261,4,-2.582014885698436e-4
2011,10261,12,-4.290203381431893e-4
2011,10285,0,-7.814425077147524e-5
2011,10285,1,-6.249407317909567e-4
2011,10285,2,-1.4098006203071826e-4
2011,10285,3,-3.745867878988023e-4
2011,10285,4,-7.397104812554729e-5
2011,10285,12,-1.8862873956175584e-4
2011,21720,0,-6.617746328148747e-6
2011,21720,1,-3.678611192381965e-5
2011,21720,2,-1.3227553773196303e-5
2011,21720,3,-4.8019975740826734e-5
2011,21720,4,-6.250789957184442e-6
2011,21720,12,-1.383701130374254e-5
2011,21740,0,-1.0176708423537487e-5
2011,21740,1,-2.6646876258489558e-5
2011,21740,2,-3.054444366776813e-5
2011,21740,3,-1.3405712315970088e-6
2011,21740,4,-9.206142946197102e-6
2011,21740,12,-2.272574055033527e-5
2012,10110,0,-1.7193417091436388e-4
2012,10110,1,-0.002396226801445796
2012,10110,2,-2.0595222912171276e-4
2012,10110,3,-0.387193925344128
2012,10110,4,-1.5831049419336263e-4
2012,10110,12,-4.195943221365975e-4
2012,10115,0,-9.13868256630317e-4
2012,10115,1,-0.00515888107095173
2012,10115,2,-0.0027263269785789616
2012,10115,3,-0.0030615641171248364
2012,10115,4,-0.0010515492428070728
2012,10115,12,-0.001885714281909226
2012,10130,0,-2.6965549473586896e-4
2012,10130,1,-2.627967726612137e-4
2012,10130,2,-6.844814514683723e-4
2012,10130,3,-9.381100375158841e-5
2012,10130,4,-2.2279280594434788e-4
2012,10130,12,-2.499313168568189e-4
2012,10210,0,-1.4625769841743316e-4
2012,10210,1,-5.890669370197973e-4
2012,10210,2,-1.2580987577650468e-4
2012,10210,3,-4.359481977658834e-4
2012,10210,4,-9.289239575982879e-5
2012,10210,12,-2.1738750545011537e-4
2012,10261,0,-2.0838689837111214e-4
2012,10261,1,-8.05625469355007e-4
2012,10261,2,-6.28156756265072e-4
2012,10261,3,-0.018922289793991565
2012,10261,4,-1.69907198643275e-4
2012,10261,12,-4.043821176917447e-4
2012,10285,0,-1.0444131273159165e-4
2012,10285,1,-0.0013739873340773698
2012,10285,2,-1.2839263724099398e-4
2012,10285,4,-9.957233196718066e-5
2012,10285,12,-3.356935349955227e-4
2012,21720,0,-2.797829027976091e-6
2012,21720,1,-2.1747091015887688e-5
2012,21720,2,-2.100967031218092e-5
2012,21720,3,-1.303735335002089e-4
2012,21720,4,-5.936900218176593e-6
2012,21720,12,-1.1962131046873975e-5
2012,21740,0,-2.0279247087060627e-5
2012,21740,1,-4.8559032679715095e-5
2012,21740,2,-3.382890006346938e-5
2012,21740,3,-9.46837448430582e-5
2012,21740,4,-1.689087807392669e-5
2012,21740,12,-2.0420997531605804e-5
2013,10115,0,-0.0033318265121001387
2013,10115,1,-0.008199785043534424
2013,10115,2,-0.0064973010062109185
2013,10115,3,-0.12372216477358833
2013,10115,4,-0.0035115613727886366
2013,10115,12,-0.0037750490845230487
2013,10130,0,-2.749435044299764e-4
2013,10130,1,-7.281146166986189e-4
2013,10130,2,-4.154600060622616e-4
2013,10130,3,-9.452439592294897e-4
2013,10130,4,-2.1236429234036553e-4
2013,10130,12,-3.005724780322454e-4
2013,10210,0,-2.6752245195052303e-4
2013,10210,1,-4.89054559650513e-4
2013,10210,2,-2.1555578652038553e-4
2013,10210,3,-9.937459166479692e-4
2013,10210,4,-1.9497656130565422e-4
2013,10210,12,-1.8134007027077306e-4
2013,10261,0,-1.7134451356189004e-4
2013,10261,1,-5.98417065186349e-4
2013,10261,2,-7.055264051871754e-4
2013,10261,3,-0.016529149736207577
2013,10261,4,-1.3956975864414884e-4
2013,10261,12,-3.2056261727053486e-4
2013,10285,0,-1.8228964135598105e-4
2013,10285,1,-0.0010015993279271385
2013,10285,2,-3.048599504357271e-4
2013,10285,4,-1.598662692919948e-4
2013,10285,12,-3.3769282096441e-4
2013,21720,0,-1.4209264118886308e-5
2013,21720,1,-3.689852752502512e-5
2013,21720,2,-2.6700549035260024e-5
2013,21720,3,-7.099735019012538e-5
2013,21720,4,-1.4174001781898912e-5
2013,21720,12,-1.619946142235773e-5
2013,21740,0,-1.3122738726935166e-5
2013,21740,1,-5.2060952140493246e-5
2013,21740,2,-3.0229763792684598e-5
2013,21740,3,-4.724246972466615e-6
2013,21740,4,-1.3823871268123896e-5
2013,21740,12,-2.1282989233253232e-5
2014,10110,0,-2.9348589616899157e-4
2014,10110,1,-0.006000224602832968
2014,10110,2,-3.930069202860926e-4
2014,10110,3,-0.02697906753060104
2014,10110,4,-3.076893640716016e-4
2014,10110,12,-0.0014671163660884712
2014,10115,0,-9.992953178009105e-4
2014,10115,1,-0.009345000840884922
2014,10115,2,-0.0037059840137362494
2014,10115,3,-0.1460364545727666
2014,10115,4,-0.0011529432926459188
2014,10115,12,-0.0030139464214231177
2014,10130,0,-2.301955192328838e-4
2014,10130,1,-4.124039039069445e-4
2014,10130,2,-5.422875219669537e-4
2014,10130,3,-3.2863957872174415e-5
2014,10130,4,-1.4741155484158762e-4
2014,10130,12,-2.5821517189813034e-4
2014,10210,0,-8.654369115948727e-5
2014,10210,1,-6.401152173060341e-4
2014,10210,2,-4.0360796761715486e-4
2014,10210,3,-0.003026561116700844
2014,10210,4,-9.645789668001435e-5
2014,10210,12,-2.690874513839832e-4
2014,10261,0,-2.1189917587276897e-4
2014,10261,1,-6.814847000557323e-4
2014,10261,2,-2.6494490759481005e-4
2014,10261,3,-0.013697090946003299
2014,10261,4,-1.9530001658823836e-4
2014,10261,12,-2.591252785111763e-4
2014,10285,0,-2.18155864175022e-4
2014,10285,1,-0.0015803191931167025
2014,10285,2,-3.0395923636816204e-4
2014,10285,4,-1.9088317112671716e-4
2014,10285,12,-4.0292145149382365e-4
2014,21720,0,-2.747109243125659e-5
2014,21720,1,-6.968309633254199e-5
2014,21720,2,-4.278534214148949e-5
2014,21720,3,-6.619329692574699e-5
2014,21720,4,-2.7813733260347612e-5
2014,21720,12,-2.9097097832238932e-5
2014,21740,0,-5.937792830798901e-6
2014,21740,1,-1.913077305797414e-5
2014,21740,2,-1.038100524407236e-5
2014,21740,3,-1.8808227014781298e-4
2014,21740,4,-6.528885745673757e-6
2014,21740,12,-7.4187004189301254e-6
2015,10110,0,-3.408901077328024e-4
2015,10110,1,-0.002099267273349783
2015,10110,2,-4.126349429822073e-4
2015,10110,3,-9.220205088423734e-4
2015,10110,4,-3.242663566938584e-4
2015,10110,12,-4.969095923212538e-4
2015,10115,0,-0.0025133622744413346
2015,10115,1,-0.012828051210096338
2015,10115,2,-0.0077639225920066255
2015,10115,3,-0.01604129491219024
2015,10115,4,-0.002841092729951709
2015,10115,12,-0.004896502972323766
2015,10130,0,-1.3865189854844488e-4
2015,10130,1,-5.196362395391756e-4
2015,10130,2,-4.252973072572772e-4
2015,10130,3,-0.0018110472834948755
2015,10130,4,-1.4135094162400177e-4
2015,10130,12,-2.3352295705216888e-4
2015,10210,0,-4.118159812045742e-5
2015,10210,1,-3.5292481435730887e-4
2015,10210,2,-1.5377644219015363e-4
2015,10210,4,-3.237887223915516e-5
2015,10210,12,-1.2065142924988541e-4
2015,10261,0,-7.74207706166384e-5
2015,10261,1,-0.001561664639800484
2015,10261,2,-1.1837537043951954e-4
2015,10261,3,-0.011136636110710243
2015,10261,4,-3.842505925616672e-5
2015,10261,12,-4.441139727233529e-4
2015,21720,0,-5.165281400834294e-6
2015,21720,1,-6.027513176984894e-5
2015,21720,2,-2.0978349557397342e-5
2015,21720,3,-5.3604683363000305e-5
2015,21720,4,-6.511132428530101e-6
2015,21720,12,-2.023329362724114e-5
2015,21740,0,-3.573977674714125e-5
2015,21740,1,-8.794551226533884e-5
2015,21740,2,-3.8006246940394783e-5
2015,21740,3,-1.622521607620814e-5
2015,21740,4,-2.6220430530151616e-5
2015,21740,12,-3.3789479667547447e-5
2016,10110,0,-3.5526895106669887e-4
2016,10110,1,-0.0011631056252513626
2016,10110,2,-8.478434597505226e-4
2016,10110,3,-0.0020129713091977895
2016,10110,4,-4.029282481060938e-4
2016,10110,12,-5.425403331896561e-4
2016,10112,0,-3.158414406000741e-4
2016,10112,1,-9.507741086912831e-4
2016,10112,2,-5.681514920142593e-4
2016,10112,3,-0.004787002703949573
2016,10112,4,-2.551692806511598e-4
2016,10112,12,-4.161403949824846e-4
2016,10115,0,-0.004225547595676369
2016,10115,1,-0.013709194270322859
2016,10115,2,-0.008090036012520861
2016,10115,3,-0.08961665472973299
2016,10115,4,-0.0044669950649091385
2016,10115,12,-0.005322945691355977
2016,10130,0,-2.3886162884058338e-4
2016,10130,1,-0.0010003308958327778
2016,10130,2,-7.056088068449068e-4
2016,10130,3,-0.020441233544775807
2016,10130,4,-2.2542992874864835e-4
2016,10130,12,-4.5951584451414424e-4
2016,10210,0,-3.6224998210007895e-5
2016,10210,1,-3.0521815317728e-4
2016,10210,2,-2.0495981565040006e-4
2016,10210,3,-0.00616045365285148
2016,10210,4,-4.050087281754111e-5
2016,10210,12,-1.1885152262879696e-4
2016,10261,0,-8.854103759414797e-5
2016,10261,1,-6.695904983160669e-4
2016,10261,2,-1.126513741405631e-4
2016,10261,3,-1.7391082875163383e-5
2016,10261,4,-3.3979129852182034e-5
2016,10261,12,-2.6783753602748573e-4
2016,10285,0,-4.748630452882272e-4
2016,10285,1,-0.0010957625103601677
2016,10285,2,-9.64280420447403e-4
2016,10285,3,-0.07375042655882677
2016,10285,4,-4.147339662123017e-4
2016,10285,12,-5.66534242430958e-4
2016,21720,0,-3.61350964506959e-5
2016,21720,1,-7.190047807587144e-5
2016,21720,2,-5.719083071095366e-5
2016,21720,3,-1.773327491101148e-4
2016,21720,4,-3.751225548064864e-5
2016,21720,12,-3.338532055246011e-5
2016,21740,0,-1.2557334979261637e-4
2016,21740,1,-2.625753968572764e-4
2016,21740,2,-2.4962537734999924e-4
2016,21740,3,-1.3850213398009908e-5
2016,21740,4,-6.337142288961349e-5
2016,21740,12,-1.3300370213685717e-4
2017,10110,0,-0.0010177917950452721
2017,10110,1,-0.0015146572085533703
2017,10110,2,-0.0014495405888028342
2017,10110,3,-0.14110820102221144
2017,10110,4,-6.103593416662194e-4
2017,10110,12,-8.139418883689642e-4
2017,10112,0,-3.552378252450763e-4
2017,10112,1,-0.0018230804467938922
2017,10112,2,-9.187667157833497e-4
2017,10112,3,-0.07340651848731419
2017,10112,4,-3.585412122695286e-4
2017,10112,12,-6.686247859483577e-4
2017,10115,0,-0.005768982252007699
2017,10115,1,-0.017608079890895557
2017,10115,2,-0.011085829305247636
2017,10115,4,-0.006247706832715376
2017,10115,12,-0.007391860906236921
2017,10130,0,-1.7498599122875712e-4
2017,10130,1,-7.784122776295551e-4
2017,10130,2,-4.4562182546545635e-4
2017,10130,3,-8.639816145460004e-5
2017,10130,4,-2.716614182149752e-4
2017,10130,12,-3.3057884757924246e-4
2017,10210,0,1.1411430678141646e-5
2017,10210,1,-2.146098112216947e-5
2017,10210,2,-2.9538703709528414e-5
2017,10210,3,1.1710576451591733e-5
2017,10210,4,1.8754826189119287e-6
2017,10210,12,-2.0654314071086103e-5
2017,10261,0,-9.324138683375338e-19
2017,10261,1,-9.063471969853856e-4
2017,10261,2,-2.299397262892994e-4
2017,10261,3,-8.655565915844342e-6
2017,10261,4,-2.66894434793515e-18
2017,10261,12,-3.1874731536482256e-4
2017,10285,0,-4.610732749861179e-5
2017,10285,1,-5.695770723968e-4
2017,10285,2,-1.6092340406642392e-4
2017,10285,3,-0.01929534757901262
2017,10285,4,-4.1928747530862185e-5
2017,10285,12,-1.8607110383983796e-4
2017,21720,0,-1.131887532383516e-4
2017,21720,1,-2.448028741525915e-4
2017,21720,2,-3.1220822761038173e-4
2017,21720,3,-3.9366277464847235e-4
2017,21720,4,-9.40548776116948e-5
2017,21720,12,-1.451041523214573e-4
2017,21740,0,-8.229085969728635e-5
2017,21740,1,-1.611992987145593e-4
2017,21740,2,-4.501974351819395e-4
2017,21740,3,-1.6957583821823256e-5
2017,21740,4,-7.187596477630033e-5
2017,21740,12,-1.4352305259714328e-4
2018,10110,0,-0.0010611372753651857
2018,10110,1,-0.003164156904544077
2018,10110,2,-0.0012947104423727334
2018,10110,3,-0.01543453938126939
2018,10110,4,-0.0010565592132087864
2018,10110,12,-0.001076457160281207
2018,10112,0,-4.4111586070998235e-4
2018,10112,1,-0.0019200143932736283
2018,10112,2,-0.0011091515605435671
2018,10112,3,-0.006017740587009386
2018,10112,4,-4.2040912953996047e-4
2018,10112,12,-7.563254413380053e-4
2018,10115,0,-0.007960778291412935
2018,10115,1,-0.02076086554001103
2018,10115,2,-0.016684625562548436
2018,10115,4,-0.008721720779415939
2018,10115,12,-0.009174491370255734
2018,10130,0,-2.9242005143350106e-4
2018,10130,1,-8.71094122612614e-4
2018,10130,2,-4.7818958332312576e-4
2018,10130,3,-9.340262848452428e-4
2018,10130,4,-3.150496883930841e-4
2018,10130,12,-3.439351940418633e-4
2018,10210,0,-1.6524158467339357e-4
2018,10210,1,-3.283396943944444e-4
2018,10210,2,-2.6355635336195994e-4
2018,10210,3,-0.0015759103678884918
2018,10210,4,-1.6260679636462857e-4
2018,10210,12,-1.4617146696470647e-4
2018,10261,0,-1.5674599386224672e-4
2018,10261,1,-9.046815853211486e-4
2018,10261,2,-2.5754259896424044e-4
2018,10261,3,-7.337791822346273e-6
2018,10261,4,-1.147367511314561e-4
2018,10261,12,-3.644692161717268e-4
2018,10285,0,-1.4579637788688266e-4
2018,10285,1,-0.002070888221016196
2018,10285,2,-2.521508102158361e-4
2018,10285,3,-0.5837532688820228
2018,10285,4,-3.902280529394933e-5
2018,10285,12,-5.76906753753133e-4
2018,21720,0,-1.558603700623175e-4
2018,21720,1,-3.567413503031571e-4
2018,21720,2,-1.9004333372730004e-4
2018,21720,3,-0.0010273381325985728
2018,21720,4,-1.1150705749601427e-4
2018,21720,12,-1.3515880472273942e-4
2018,21740,0,-1.1072586394861121e-4
2018,21740,1,-3.703809598888842e-4
2018,21740,2,-8.404894179983736e-4
2018,21740,3,-4.337471997072764e-6
2018,21740,4,-1.1244882635470587e-4
2018,21740,12,-3.12242065176209e-4
2019,10110,0,-9.53528656456322e-4
2019,10110,1,-0.002612540058184115
2019,10110,2,-0.001347282854350536
2019,10110,3,-0.01721280182536748
2019,10110,4,-9.482870354168612e-4
2019,10110,12,-0.0011881618089932694
2019,10112,0,-6.23386528440255e-4
2019,10112,1,-0.00305747542808629
2019,10112,2,-0.001041747584775493
2019,10112,3,-0.05578014691195943
2019,10112,4,-7.93341976642911e-4
2019,10112,12,-0.001005261758876569
2019,10115,0,-0.020608686086353783
2019,10115,1,-0.05077732975584039
2019,10115,2,-0.023557503621425793
2019,10115,4,-0.015749559872629326
2019,10115,12,-0.01607746400903961
2019,10130,0,-3.5268943775640675e-4
2019,10130,1,-0.0012893507099757994
2019,10130,2,-6.213620245324953e-4
2019,10130,3,-0.0012200164137715088
2019,10130,4,-4.247761366461963e-4
2019,10130,12,-5.078110548207732e-4
2019,10210,0,-1.9332390214362447e-4
2019,10210,1,-6.491203900017167e-4
2019,10210,2,-3.545553239502004e-4
2019,10210,3,-7.050762393320703e-4
2019,10210,4,-1.8761492102301844e-4
2019,10210,12,-2.6272015963783364e-4
2019,10261,0,-2.2672743762685037e-4
2019,10261,1,-4.7337374047565017e-4
2019,10261,2,-3.9673814246035964e-4
2019,10261,3,-5.708953932966266e-5
2019,10261,4,-1.1825064587598159e-4
2019,10261,12,-2.255922807547564e-4
2019,10285,0,-2.2584771189341728e-4
2019,10285,1,-0.0031022351451495483
2019,10285,2,-5.390086351599208e-4
2019,10285,3,-0.001297389496413693
2019,10285,4,-2.294037432634682e-4
2019,10285,12,-8.985208366350636e-4
2019,21720,0,-5.03834299920452e-5
2019,21720,1,-1.8085576106413207e-4
2019,21720,2,-1.283771098501536e-4
2019,21720,3,-0.001287721750845275
2019,21720,4,-4.132017055112514e-5
2019,21720,12,-9.054616446223063e-5
2019,21740,0,-1.9279647357259587e-4
2019,21740,1,-4.229660885719586e-4
2019,21740,2,-3.8719739735807297e-4
2019,21740,3,-2.5275109141794447e-6
2019,21740,4,-1.7046238242408998e-4
2019,21740,12,-2.0686596255995148e-4
2021,10110,0,-4.634871526569209e-4
2021,10110,1,-0.0031359122901958914
2021,10110,2,-0.001860168122033376
2021,10110,3,-0.006596510488238814
2021,10110,4,-4.150373603830995e-4
2021,10110,12,-0.0014635606274078967
2021,10112,0,-7.453561286561005e-4
2021,10112,1,-0.003149916693627771
2021,10112,2,-0.0014370097169144882
2021,10112,3,-0.002471662157315153
2021,10112,4,-6.513724270032441e-4
2021,10112,12,-0.0011872567057934914
2021,10115,0,-0.015506815680657867
2021,10115,1,-0.11346148251418849
2021,10115,2,-0.026714088843428664
2021,10115,4,-0.019659315321386515
2021,10115,12,-0.030298167924250646
2021,10130,0,-3.0393555787517696e-4
2021,10130,1,-8.646733194868771e-4
2021,10130,2,-4.176829873687319e-4
2021,10130,3,-0.001567839604570224
2021,10130,4,-3.07530399831335e-4
2021,10130,12,-3.2098563985595596e-4
2021,10210,0,-5.09004352404767e-4
2021,10210,1,-0.001296946494920679
2021,10210,2,-4.783997194431134e-4
2021,10210,3,-7.054423937415598e-4
2021,10210,4,-3.2105685533385025e-4
2021,10210,12,-4.0500939078986586e-4
2021,10261,0,-1.0289574988604373e-4
2021,10261,1,-2.892703225912888e-4
2021,10261,2,-2.9782680110549217e-4
2021,10261,3,-4.6978399145922555e-6
2021,10261,4,-6.197982682632102e-5
2021,10261,12,-2.6590977987751293e-4
2021,21720,0,-9.704091821207257e-5
2021,21720,1,-2.8905363913091876e-4
2021,21720,2,-1.4119144128543553e-4
2021,21720,3,-0.00048042700197320303
2021,21720,4,-8.08394625493984e-5
2021,21720,12,-1.0641029521537579e-4
2021,21740,0,-1.136509169212475e-4
2021,21740,1,-1.6558804659939065e-4
2021,21740,2,-2.632495196207798e-4
2021,21740,3,-5.635896675547557e-6
2021,21740,4,-1.1694265040749917e-4
2021,21740,12,-1.0608928334121995e-4
2022,10210,0,-1.3120281120796028e-4
2022,10210,1,-1.797462921428953e-4
2022,10210,2,-2.3780996750777085e-4
2022,10210,3,-0.0021329532902300257
2022,10210,4,-1.3271242798130808e-4
2022,10210,12,-1.100796494262758e-4
2022,10261,0,-8.952108072918581e-5
2022,10261,1,-6.574376016635777e-4
2022,10261,2,-2.4249583714927724e-4
2022,10261,3,-1.1142519471463088e-6
2022,10261,4,-1.2053127408525279e-4
2022,10261,12,-2.691543142391778e-4
2022,21720,0,-9.041734544820353e-5
2022,21720,1,-1.5341223732597283e-4
2022,21720,2,-2.3073845816817668e-4
2022,21720,3,-1.0782901090772505e-4
2022,21720,4,-1.1081301610422757e-4
2022,21720,12,-9.732868527904388e-5
2022,21740,0,-8.68587694824919e-5
2022,21740,1,-1.9945664496001637e-4
2022,21740,2,-2.0914684965536376e-4
2022,21740,3,-2.6873082420068713e-6
2022,21740,4,-9.450449757742317e-5
2022,21740,12,-1.0618148765853933e-4
2023,21740,0,-1.353515913867306e-4
2023,21740,1,-3.3329596045563316e-4
2023,21740,2,-2.3443487475733205e-4
2023,21740,3,-1.0867497004246477e-5
2023,21740,4,-1.447131516095815e-4
2023,21740,12,-1.406063091081611e-4
